%YAML:1.0
my_svm: !!opencv-ml-svm
   svm_type: C_SVC
   kernel: { type:LINEAR }
   C: 6.2500000000000000e+01
   term_criteria: { epsilon:9.9999999747524271e-07, iterations:1000 }
   var_all: 186
   var_count: 186
   class_count: 4
   class_labels: !!opencv-matrix
      rows: 1
      cols: 4
      dt: i
      data: [ 1, 2, 3, 4 ]
   sv_total: 602
   support_vectors:
      - [ 0., 0., 0., 0., 0., 0., 0., 7.14285746e-02, 0., 0., 0., 0., 0.,
          0., 0., 0., 0., 0., 7.14285746e-02, 0., 0., 0., 0., 0., 0., 0.,
          0., 7.14285746e-02, 0., 0., 0., 0., 0., 0., 0., 0., 0., 0., 0.,
          0., 0., 0., 0., 0., 0., 0., 0., 0., 7.14285746e-02, 0., 0., 0.,
          0., 0., 0., 0., 0., 0., 0., 0., 0., 0., 0., 0., 0., 0.,
          1.42857149e-01, 0., 0., 7.14285746e-02, 0., 0., 0., 0., 0., 0.,
          0., 0., 0., 0., 0., 0., 0., 0., 0., 0., 0., 0., 0.,
          7.14285746e-02, 0., 0., 0., 0., 0., 0., 0., 0., 0., 0., 0., 0.,
          0., 0., 0., 0., 0., 0., 0., 0., 0., 0., 0., 0., 0., 0., 0., 0.,
          7.14285746e-02, 0., 0., 7.14285746e-02, 0., 0., 0., 0., 0., 0.,
          0., 0., 7.14285746e-02, 0., 0., 0., 0., 0., 0., 0., 0., 0., 0.,
          0., 0., 0., 0., 0., 0., 0., 0., 0., 0., 0., 7.14285746e-02, 0.,
          7.14285746e-02, 0., 0., 0., 0., 0., 0., 0., 0., 0., 0., 0., 0.,
          0., 0., 0., 0., 0., 0., 0., 0., 0., 7.14285746e-02, 0., 0., 0.,
          0., 0., 0., 0., 0., 0. ]
      - [ 0., 0., 0., 0., 0., 0., 7.14285746e-02, 0., 0., 0.,
          7.14285746e-02, 0., 0., 0., 0., 0., 0., 0., 0., 3.57142873e-02,
          3.57142873e-02, 0., 0., 0., 0., 0., 0., 0., 3.57142873e-02, 0.,
          0., 0., 0., 0., 0., 0., 0., 0., 0., 0., 0., 3.57142873e-02,
          3.57142873e-02, 0., 0., 0., 0., 3.57142873e-02, 0., 0., 0., 0.,
          0., 0., 0., 0., 0., 3.57142873e-02, 0., 0., 0., 0.,
          3.57142873e-02, 0., 0., 3.57142873e-02, 3.57142873e-02, 0., 0.,
          7.14285746e-02, 0., 0., 0., 0., 0., 0., 0., 0., 0., 0., 0., 0.,
          0., 0., 0., 0., 0., 0., 0., 0., 0., 3.57142873e-02, 0., 0., 0.,
          0., 0., 0., 0., 0., 0., 0., 0., 0., 0., 3.57142873e-02, 0., 0.,
          0., 0., 0., 0., 3.57142873e-02, 0., 3.57142873e-02, 0., 0., 0.,
          0., 0., 0., 0., 0., 0., 3.57142873e-02, 0., 3.57142873e-02, 0.,
          0., 7.14285746e-02, 0., 3.57142873e-02, 0., 0., 0., 0., 0., 0.,
          0., 0., 0., 0., 0., 0., 0., 0., 0., 0., 0., 0., 0., 0., 0.,
          3.57142873e-02, 3.57142873e-02, 0., 0., 0., 0., 0., 0., 0., 0.,
          0., 0., 0., 0., 0., 0., 0., 0., 0., 0., 0., 0., 0., 0., 0., 0.,
          0., 0., 0., 0., 0., 0., 3.57142873e-02 ]
      - [ 0., 0., 0., 0., 0., 0., 0., 0., 2.00000003e-01, 0., 0., 0., 0.,
          0., 0., 0., 2.00000003e-01, 0., 0., 0., 0., 0., 0., 0., 0., 0.,
          0., 0., 0., 0., 0., 0., 0., 0., 0., 0., 0., 0., 0., 0., 0., 0.,
          0., 0., 0., 0., 0., 0., 0., 0., 0., 0., 0., 0., 0., 0., 0., 0.,
          0., 0., 2.00000003e-01, 0., 0., 0., 0., 0., 2.00000003e-01, 0.,
          0., 0., 0., 0., 0., 0., 0., 0., 0., 0., 0., 0., 0., 0., 0., 0.,
          0., 0., 0., 0., 0., 0., 0., 0., 0., 0., 0., 0., 0., 0., 0., 0.,
          0., 0., 0., 0., 0., 0., 0., 0., 0., 0., 0., 0., 0., 0., 0., 0.,
          0., 0., 0., 0., 0., 0., 0., 0., 0., 0., 0., 0., 0., 0., 0., 0.,
          0., 0., 0., 0., 0., 0., 0., 0., 0., 0., 0., 0., 0., 0., 0., 0.,
          0., 0., 2.00000003e-01, 0., 0., 0., 0., 0., 0., 0., 0., 0., 0.,
          0., 0., 0., 0., 0., 0., 0., 0., 0., 0., 0., 0., 0., 0., 0., 0.,
          0., 0., 0., 0., 0., 0., 0., 0., 0. ]
      - [ 6.25000000e-02, 0., 0., 0., 0., 0., 6.25000000e-02, 0.,
          6.25000000e-02, 0., 0., 0., 1.25000000e-01, 0., 0., 0., 0., 0.,
          0., 0., 0., 0., 0., 0., 0., 0., 0., 0., 0., 0., 0., 0., 0., 0.,
          0., 0., 0., 0., 0., 0., 0., 0., 0., 0., 6.25000000e-02, 0., 0.,
          0., 0., 0., 0., 0., 6.25000000e-02, 0., 0., 0., 6.25000000e-02,
          0., 0., 0., 0., 0., 0., 0., 0., 0., 0., 0., 0., 0., 0., 0., 0.,
          0., 0., 0., 0., 0., 0., 0., 0., 0., 0., 0., 0., 0., 0., 0., 0.,
          0., 0., 0., 6.25000000e-02, 0., 0., 0., 0., 0., 0., 0., 0., 0.,
          6.25000000e-02, 0., 0., 0., 0., 6.25000000e-02, 0., 0., 0., 0.,
          0., 0., 0., 0., 0., 0., 0., 0., 0., 0., 0., 0., 0., 0., 0., 0.,
          0., 0., 0., 0., 0., 0., 0., 0., 0., 0., 6.25000000e-02,
          6.25000000e-02, 0., 6.25000000e-02, 0., 0., 0., 0., 0., 0., 0.,
          0., 0., 0., 0., 6.25000000e-02, 0., 0., 0., 0., 0., 0., 0., 0.,
          0., 0., 0., 0., 0., 6.25000000e-02, 0., 0., 0., 0., 0., 0., 0.,
          0., 0., 0., 0., 0., 0., 0., 0., 0., 0., 0. ]
      - [ 0., 0., 0., 0., 0., 0., 0., 0., 0., 0., 0., 0., 0., 0., 0., 0.,
          5.26315793e-02, 0., 0., 0., 0., 0., 0., 5.26315793e-02, 0., 0.,
          0., 0., 0., 0., 0., 0., 0., 0., 0., 0., 0., 0., 0., 0., 0., 0.,
          0., 0., 0., 0., 0., 5.26315793e-02, 0., 0., 0., 0., 0., 0., 0.,
          0., 0., 0., 0., 0., 0., 0., 0., 0., 0., 0., 0., 0., 0.,
          5.26315793e-02, 0., 0., 0., 0., 0., 0., 5.26315793e-02,
          5.26315793e-02, 0., 0., 0., 0., 0., 0., 5.26315793e-02, 0., 0.,
          0., 0., 0., 0., 0., 0., 0., 0., 0., 0., 0., 0., 0., 0., 0., 0.,
          0., 0., 5.26315793e-02, 0., 0., 0., 0., 0., 0., 0.,
          1.05263159e-01, 0., 0., 0., 0., 0., 0., 5.26315793e-02,
          5.26315793e-02, 0., 0., 0., 0., 0., 0., 0., 0., 0.,
          5.26315793e-02, 0., 0., 0., 0., 0., 0., 0., 0., 0., 0., 0.,
          5.26315793e-02, 0., 5.26315793e-02, 0., 0., 0., 0., 0., 0., 0.,
          0., 0., 0., 5.26315793e-02, 0., 0., 0., 0., 0., 0., 0., 0., 0.,
          0., 0., 0., 0., 0., 0., 0., 0., 0., 5.26315793e-02, 0., 0., 0.,
          0., 0., 0., 0., 5.26315793e-02, 0., 5.26315793e-02 ]
      - [ 0., 0., 0., 0., 0., 0., 0., 0., 0., 0., 0., 0., 0., 0., 0., 0.,
          0., 0., 1.00000001e-01, 0., 0., 0., 0., 5.00000007e-02, 0., 0.,
          0., 1.00000001e-01, 0., 0., 5.00000007e-02, 0., 0., 0., 0.,
          5.00000007e-02, 0., 5.00000007e-02, 0., 5.00000007e-02, 0., 0.,
          0., 0., 0., 5.00000007e-02, 0., 0., 0., 0., 0., 0., 0., 0., 0.,
          0., 0., 0., 0., 0., 0., 0., 0., 0., 0., 0., 0., 0., 0., 0., 0.,
          0., 0., 0., 0., 0., 0., 0., 0., 0., 0., 0., 0., 0., 0., 0., 0.,
          0., 0., 0., 0., 0., 0., 0., 0., 0., 0., 0., 0., 0., 0., 0., 0.,
          0., 0., 5.00000007e-02, 0., 0., 5.00000007e-02, 0.,
          5.00000007e-02, 5.00000007e-02, 0., 0., 0., 0., 0., 0., 0., 0.,
          5.00000007e-02, 0., 0., 0., 0., 0., 0., 0., 0., 0., 0., 0.,
          5.00000007e-02, 0., 0., 0., 0., 0., 0., 0., 0., 0., 0., 0., 0.,
          0., 0., 0., 0., 0., 0., 0., 0., 5.00000007e-02, 0., 0.,
          5.00000007e-02, 0., 0., 0., 0., 0., 0., 0., 0., 0., 0., 0., 0.,
          0., 0., 0., 0., 0., 0., 0., 0., 0., 0., 5.00000007e-02, 0., 0.,
          0., 0., 0., 5.00000007e-02 ]
      - [ 0., 0., 0., 1.92307699e-02, 0., 0., 0., 0., 1.92307699e-02,
          1.92307699e-02, 0., 0., 0., 0., 0., 1.92307699e-02, 0., 0.,
          1.92307699e-02, 3.84615399e-02, 1.92307699e-02, 0., 0., 0.,
          1.92307699e-02, 0., 0., 0., 0., 0., 0., 0., 0., 0.,
          3.84615399e-02, 1.92307699e-02, 0., 1.92307699e-02, 0., 0.,
          1.92307699e-02, 0., 0., 1.92307699e-02, 0., 1.92307699e-02, 0.,
          0., 0., 0., 0., 0., 1.92307699e-02, 0., 0., 0., 0.,
          1.92307699e-02, 0., 0., 0., 0., 0., 1.92307699e-02, 0.,
          1.92307699e-02, 1.92307699e-02, 0., 1.92307699e-02,
          1.92307699e-02, 0., 0., 0., 0., 0., 0., 0., 0., 0.,
          1.92307699e-02, 0., 1.92307699e-02, 0., 0., 0., 0., 0., 0., 0.,
          0., 0., 0., 1.92307699e-02, 0., 1.92307699e-02, 0., 0., 0., 0.,
          0., 0., 0., 0., 0., 0., 0., 0., 0., 1.92307699e-02, 0., 0., 0.,
          1.92307699e-02, 0., 3.84615399e-02, 1.92307699e-02, 0., 0., 0.,
          0., 0., 0., 0., 0., 0., 0., 0., 1.92307699e-02, 1.92307699e-02,
          0., 0., 0., 0., 0., 0., 3.84615399e-02, 0., 0., 0., 0., 0.,
          3.84615399e-02, 0., 0., 0., 0., 0., 0., 0., 0., 3.84615399e-02,
          0., 0., 0., 5.76923117e-02, 0., 0., 0., 0., 0., 0.,
          1.92307699e-02, 0., 0., 0., 0., 1.92307699e-02, 0.,
          1.92307699e-02, 0., 1.92307699e-02, 0., 0., 1.92307699e-02, 0.,
          0., 1.92307699e-02, 0., 1.92307699e-02, 0., 1.92307699e-02,
          1.92307699e-02, 0., 0., 0., 0. ]
      - [ 0., 0., 0., 0., 0., 0., 5.26315793e-02, 0., 0., 0., 0., 0.,
          5.26315793e-02, 0., 0., 0., 0., 0., 0., 0., 0., 0.,
          5.26315793e-02, 0., 0., 0., 5.26315793e-02, 0., 5.26315793e-02,
          0., 0., 0., 0., 0., 0., 0., 0., 0., 0., 0., 0., 0., 0., 0., 0.,
          0., 0., 5.26315793e-02, 5.26315793e-02, 0., 0., 0., 0., 0., 0.,
          0., 0., 0., 0., 0., 0., 0., 0., 0., 0., 0., 0., 0., 0.,
          5.26315793e-02, 0., 0., 0., 0., 0., 0., 0., 0., 0., 0., 0., 0.,
          5.26315793e-02, 0., 0., 0., 0., 0., 0., 0., 0., 0., 0., 0., 0.,
          0., 0., 0., 0., 0., 0., 0., 0., 0., 0., 0., 0., 0., 0., 0., 0.,
          5.26315793e-02, 5.26315793e-02, 0., 0., 0., 0., 0., 0., 0., 0.,
          5.26315793e-02, 0., 0., 0., 0., 0., 5.26315793e-02, 0.,
          5.26315793e-02, 0., 0., 0., 0., 0., 0., 0., 0., 0., 0., 0., 0.,
          0., 0., 0., 0., 0., 0., 0., 0., 5.26315793e-02, 0., 0., 0., 0.,
          0., 0., 0., 0., 0., 0., 0., 5.26315793e-02, 0., 0., 0., 0., 0.,
          0., 0., 0., 0., 0., 0., 0., 0., 1.05263159e-01, 0., 0., 0.,
          5.26315793e-02, 0., 0., 0., 0., 0. ]
      - [ 0., 0., 0., 0., 0., 0., 0., 0., 0., 0., 0., 0., 0., 0., 0., 0.,
          0., 5.71428575e-02, 0., 0., 0., 0., 0., 5.71428575e-02, 0., 0.,
          0., 0., 2.85714287e-02, 0., 0., 2.85714287e-02, 0.,
          2.85714287e-02, 0., 0., 0., 0., 2.85714287e-02, 2.85714287e-02,
          2.85714287e-02, 0., 0., 0., 0., 5.71428575e-02, 0., 0., 0., 0.,
          0., 0., 0., 0., 0., 0., 0., 0., 0., 0., 0., 2.85714287e-02, 0.,
          0., 2.85714287e-02, 5.71428575e-02, 2.85714287e-02, 0., 0., 0.,
          0., 0., 0., 0., 0., 2.85714287e-02, 0., 0., 0., 0.,
          2.85714287e-02, 2.85714287e-02, 2.85714287e-02, 0., 0., 0., 0.,
          0., 0., 0., 0., 0., 0., 0., 0., 0., 0., 0., 0., 5.71428575e-02,
          2.85714287e-02, 0., 0., 0., 0., 2.85714287e-02, 0., 0., 0., 0.,
          0., 0., 0., 0., 0., 0., 0., 0., 0., 2.85714287e-02, 0.,
          2.85714287e-02, 0., 0., 5.71428575e-02, 0., 0., 0., 0., 0., 0.,
          2.85714287e-02, 0., 0., 2.85714287e-02, 0., 0., 0., 0., 0., 0.,
          0., 0., 0., 0., 0., 0., 0., 0., 0., 0., 0., 0., 2.85714287e-02,
          0., 0., 2.85714287e-02, 0., 0., 0., 0., 2.85714287e-02, 0., 0.,
          0., 0., 0., 0., 0., 0., 0., 0., 0., 0., 0., 0., 0., 0., 0., 0.,
          0., 0., 0., 0., 0., 2.85714287e-02 ]
      - [ 0., 0., 0., 0., 0., 0., 0., 0., 0., 0., 0., 0., 0., 0., 0., 0.,
          6.25000000e-02, 0., 0., 6.25000000e-02, 0., 0., 0., 0., 0., 0.,
          0., 0., 0., 0., 0., 0., 0., 0., 0., 0., 0., 0., 6.25000000e-02,
          0., 0., 0., 0., 0., 0., 0., 0., 0., 0., 0., 0., 0., 0., 0., 0.,
          0., 0., 0., 0., 0., 0., 0., 0., 6.25000000e-02, 6.25000000e-02,
          0., 0., 0., 0., 0., 0., 0., 0., 0., 0., 0., 0., 0., 0., 0., 0.,
          0., 0., 0., 0., 0., 0., 0., 0., 0., 0., 0., 0., 0., 0., 0., 0.,
          1.25000000e-01, 0., 0., 0., 0., 0., 0., 0., 0., 0., 0., 0., 0.,
          0., 0., 0., 1.25000000e-01, 0., 0., 0., 0., 0., 0., 0., 0., 0.,
          0., 0., 0., 0., 0., 0., 0., 0., 0., 0., 0., 0., 6.25000000e-02,
          0., 0., 0., 0., 0., 6.25000000e-02, 0., 0., 0., 0., 0., 0., 0.,
          0., 6.25000000e-02, 0., 0., 0., 0., 0., 0., 0., 0., 0., 0., 0.,
          0., 0., 0., 0., 1.25000000e-01, 0., 0., 0., 0., 0., 0., 0., 0.,
          0., 6.25000000e-02, 0., 0., 0., 0., 0., 0., 0., 0.,
          6.25000000e-02 ]
      - [ 0., 0., 0., 0., 0., 0., 5.55555560e-02, 0., 0., 0., 0., 0.,
          5.55555560e-02, 0., 0., 0., 0., 0., 0., 0., 0., 0., 0.,
          5.55555560e-02, 0., 0., 0., 5.55555560e-02, 0., 0., 0.,
          5.55555560e-02, 0., 0., 0., 0., 0., 0., 1.11111112e-01, 0., 0.,
          0., 0., 0., 0., 0., 0., 0., 0., 0., 0., 0., 0., 0., 0.,
          5.55555560e-02, 5.55555560e-02, 0., 0., 0., 0., 0., 0., 0., 0.,
          0., 5.55555560e-02, 0., 0., 0., 0., 0., 0., 0., 0., 0., 0., 0.,
          0., 0., 0., 0., 0., 0., 0., 0., 0., 0., 0., 0., 0., 0., 0., 0.,
          0., 0., 0., 0., 0., 5.55555560e-02, 0., 0., 0., 0., 0., 0., 0.,
          0., 1.11111112e-01, 0., 0., 0., 0., 1.11111112e-01, 0.,
          5.55555560e-02, 0., 0., 0., 0., 0., 0., 0., 0., 0., 0., 0., 0.,
          0., 0., 0., 0., 0., 0., 0., 5.55555560e-02, 0., 0., 0., 0., 0.,
          5.55555560e-02, 0., 0., 0., 0., 0., 0., 0., 0., 0., 0., 0., 0.,
          0., 0., 0., 0., 0., 0., 0., 0., 0., 0., 0., 0., 0., 0., 0., 0.,
          0., 0., 0., 0., 0., 0., 0., 0., 0., 0., 0., 0., 0., 0., 0., 0. ]
      - [ 0., 0., 0., 0., 0., 0., 0., 9.09090936e-02, 0., 0., 0., 0., 0.,
          0., 0., 0., 0., 0., 0., 0., 0., 0., 0., 0., 0., 0., 0., 0., 0.,
          9.09090936e-02, 0., 0., 0., 0., 0., 0., 0., 0., 0., 0., 0., 0.,
          0., 0., 0., 0., 9.09090936e-02, 0., 0., 0., 0., 0., 0., 0., 0.,
          0., 0., 0., 0., 0., 0., 0., 0., 0., 0., 0., 0., 9.09090936e-02,
          0., 0., 0., 0., 0., 0., 0., 0., 0., 0., 0., 0., 0., 0., 0., 0.,
          0., 0., 0., 9.09090936e-02, 0., 0., 9.09090936e-02, 0., 0., 0.,
          0., 0., 0., 0., 0., 0., 0., 0., 0., 0., 0., 9.09090936e-02, 0.,
          0., 0., 0., 0., 0., 0., 0., 0., 0., 0., 0., 0., 0., 0., 0., 0.,
          0., 9.09090936e-02, 0., 0., 0., 0., 0., 0., 9.09090936e-02, 0.,
          0., 0., 0., 0., 0., 0., 0., 0., 0., 0., 0., 0., 0., 0., 0., 0.,
          0., 0., 0., 0., 0., 0., 0., 0., 0., 0., 0., 0., 0., 0., 0., 0.,
          9.09090936e-02, 0., 0., 0., 0., 0., 9.09090936e-02, 0., 0., 0.,
          0., 0., 0., 0., 0., 0., 0., 0., 0., 0., 0. ]
      - [ 0., 3.99999991e-02, 0., 0., 0., 0., 0., 0., 0., 0.,
          3.99999991e-02, 0., 0., 0., 0., 0., 3.99999991e-02, 0., 0., 0.,
          0., 0., 3.99999991e-02, 0., 0., 0., 3.99999991e-02, 0., 0., 0.,
          0., 0., 0., 0., 0., 0., 0., 0., 0., 0., 0., 0., 0.,
          3.99999991e-02, 0., 0., 3.99999991e-02, 1.19999997e-01, 0., 0.,
          0., 0., 0., 0., 0., 0., 0., 0., 0., 0., 0., 0., 0., 0.,
          3.99999991e-02, 0., 0., 0., 0., 0., 3.99999991e-02, 0., 0., 0.,
          0., 0., 0., 0., 0., 0., 0., 0., 0., 0., 0., 0., 0., 0., 0.,
          3.99999991e-02, 0., 0., 0., 0., 0., 0., 0., 3.99999991e-02, 0.,
          7.99999982e-02, 0., 0., 0., 0., 0., 0., 0., 0., 0., 0.,
          3.99999991e-02, 3.99999991e-02, 0., 0., 0., 0., 0., 0., 0., 0.,
          0., 0., 0., 0., 0., 0., 0., 0., 0., 0., 0., 0., 0., 0., 0., 0.,
          0., 0., 0., 0., 0., 0., 0., 0., 0., 0., 0., 0., 0., 0., 0., 0.,
          3.99999991e-02, 0., 3.99999991e-02, 0., 3.99999991e-02, 0., 0.,
          0., 0., 3.99999991e-02, 0., 3.99999991e-02, 0., 0., 0., 0., 0.,
          0., 0., 0., 0., 0., 0., 0., 0., 0., 0., 3.99999991e-02, 0., 0.,
          0., 0., 0., 3.99999991e-02 ]
      - [ 0., 0., 0., 0., 0., 0., 0., 0., 0., 0., 0., 0., 0., 0., 0., 0.,
          6.25000000e-02, 0., 0., 0., 0., 0., 0., 0., 0., 0., 0., 0., 0.,
          0., 0., 6.25000000e-02, 0., 0., 0., 0., 0., 0., 0., 0., 0., 0.,
          0., 0., 0., 0., 6.25000000e-02, 0., 0., 0., 0., 0., 0., 0., 0.,
          0., 0., 0., 0., 0., 0., 0., 0., 0., 0., 0., 6.25000000e-02, 0.,
          0., 0., 0., 0., 0., 0., 0., 0., 0., 0., 0., 0., 0., 0., 0., 0.,
          0., 0., 0., 0., 0., 0., 0., 0., 0., 0., 0., 0., 0., 0., 0.,
          6.25000000e-02, 0., 0., 0., 0., 0., 6.25000000e-02, 0., 0., 0.,
          0., 0., 0., 0., 0., 0., 0., 0., 0., 0., 0., 6.25000000e-02, 0.,
          0., 0., 0., 0., 0., 1.25000000e-01, 0., 0., 6.25000000e-02, 0.,
          0., 0., 0., 0., 0., 0., 0., 0., 0., 0., 6.25000000e-02, 0., 0.,
          0., 0., 0., 0., 0., 6.25000000e-02, 0., 0., 0., 0., 0., 0., 0.,
          0., 0., 0., 0., 0., 0., 0., 0., 0., 6.25000000e-02, 0., 0., 0.,
          6.25000000e-02, 0., 1.25000000e-01, 0., 0., 0., 0., 0., 0., 0.,
          0., 0., 0., 0., 0. ]
      - [ 0., 0., 0., 0., 2.70270277e-02, 0., 0., 2.70270277e-02, 0., 0.,
          0., 0., 0., 0., 0., 0., 2.70270277e-02, 0., 0., 5.40540554e-02,
          0., 0., 0., 0., 0., 0., 0., 0., 0., 2.70270277e-02, 0., 0., 0.,
          0., 0., 0., 0., 0., 0., 0., 2.70270277e-02, 0., 0., 0., 0., 0.,
          0., 0., 2.70270277e-02, 2.70270277e-02, 2.70270277e-02,
          2.70270277e-02, 2.70270277e-02, 0., 0., 5.40540554e-02, 0., 0.,
          0., 0., 0., 0., 0., 0., 2.70270277e-02, 2.70270277e-02,
          2.70270277e-02, 0., 0., 2.70270277e-02, 0., 0., 0., 0., 0.,
          2.70270277e-02, 0., 0., 0., 2.70270277e-02, 0., 0., 0., 0., 0.,
          0., 0., 0., 0., 0., 0., 0., 0., 0., 0., 0., 0., 0., 0., 0.,
          2.70270277e-02, 0., 0., 0., 0., 0., 0., 0., 0., 0., 0., 0., 0.,
          0., 0., 2.70270277e-02, 0., 2.70270277e-02, 0., 0., 0., 0., 0.,
          0., 0., 2.70270277e-02, 0., 2.70270277e-02, 2.70270277e-02, 0.,
          2.70270277e-02, 0., 2.70270277e-02, 0., 0., 0., 0., 0., 0., 0.,
          0., 0., 0., 0., 0., 0., 0., 0., 0., 0., 0., 2.70270277e-02, 0.,
          0., 5.40540554e-02, 0., 0., 0., 0., 0., 0., 2.70270277e-02, 0.,
          0., 0., 0., 5.40540554e-02, 0., 0., 0., 2.70270277e-02, 0., 0.,
          0., 0., 0., 0., 0., 0., 0., 0., 0., 0., 0., 5.40540554e-02, 0. ]
      - [ 0., 0., 0., 0., 0., 0., 0., 2.12765951e-02, 0., 0., 0., 0., 0.,
          0., 0., 0., 2.12765951e-02, 2.12765951e-02, 0., 0.,
          2.12765951e-02, 0., 0., 0., 2.12765951e-02, 2.12765951e-02, 0.,
          2.12765951e-02, 0., 0., 0., 0., 0., 0., 0., 0., 2.12765951e-02,
          0., 0., 0., 0., 2.12765951e-02, 0., 0., 0., 0., 0., 0.,
          2.12765951e-02, 0., 2.12765951e-02, 0., 0., 0., 0., 0., 0., 0.,
          0., 0., 0., 0., 0., 0., 2.12765951e-02, 0., 0., 0., 0., 0., 0.,
          0., 0., 0., 1.27659574e-01, 0., 8.51063803e-02, 0., 0., 0.,
          2.12765951e-02, 0., 2.12765951e-02, 0., 0., 0., 0., 0., 0., 0.,
          0., 0., 2.12765951e-02, 0., 0., 0., 4.25531901e-02, 0.,
          2.12765951e-02, 0., 0., 0., 0., 0., 0., 0., 0., 0., 0., 0., 0.,
          2.12765951e-02, 0., 2.12765951e-02, 2.12765951e-02, 0., 0., 0.,
          0., 2.12765951e-02, 0., 0., 0., 0., 2.12765951e-02, 0., 0., 0.,
          0., 0., 2.12765951e-02, 0., 0., 0., 0., 0., 0., 0.,
          2.12765951e-02, 0., 0., 0., 0., 0., 0., 0., 4.25531901e-02, 0.,
          0., 0., 0., 0., 0., 0., 0., 0., 0., 0., 2.12765951e-02,
          2.12765951e-02, 0., 0., 0., 0., 0., 0., 0., 2.12765951e-02, 0.,
          0., 0., 2.12765951e-02, 0., 2.12765951e-02, 2.12765951e-02, 0.,
          0., 2.12765951e-02, 0., 6.38297871e-02, 0., 0., 0., 0., 0., 0. ]
      - [ 0., 2.12765951e-02, 4.25531901e-02, 0., 0., 0., 0.,
          2.12765951e-02, 4.25531901e-02, 0., 0., 0., 0., 2.12765951e-02,
          0., 0., 4.25531901e-02, 0., 2.12765951e-02, 0., 0.,
          2.12765951e-02, 0., 0., 0., 0., 0., 0., 0., 0., 0., 0., 0., 0.,
          0., 0., 0., 0., 0., 0., 0., 0., 0., 0., 4.25531901e-02, 0., 0.,
          2.12765951e-02, 0., 0., 0., 0., 0., 0., 4.25531901e-02, 0.,
          2.12765951e-02, 0., 0., 0., 0., 2.12765951e-02, 0., 0.,
          2.12765951e-02, 0., 2.12765951e-02, 2.12765951e-02,
          4.25531901e-02, 0., 0., 0., 0., 4.25531901e-02, 2.12765951e-02,
          2.12765951e-02, 0., 0., 0., 0., 0., 2.12765951e-02, 0., 0., 0.,
          0., 0., 2.12765951e-02, 2.12765951e-02, 0., 0., 0., 0., 0., 0.,
          0., 0., 0., 0., 2.12765951e-02, 0., 0., 0., 0., 2.12765951e-02,
          0., 0., 0., 2.12765951e-02, 0., 0., 0., 0., 0., 0., 0., 0.,
          2.12765951e-02, 0., 0., 0., 0., 0., 4.25531901e-02, 0., 0., 0.,
          0., 0., 0., 0., 0., 0., 0., 0., 0., 0., 0., 0., 0., 0., 0.,
          2.12765951e-02, 0., 0., 2.12765951e-02, 4.25531901e-02, 0., 0.,
          0., 0., 0., 0., 0., 0., 0., 0., 0., 0., 0., 0., 0.,
          2.12765951e-02, 0., 0., 0., 0., 0., 0., 0., 0., 2.12765951e-02,
          2.12765951e-02, 0., 0., 2.12765951e-02, 2.12765951e-02, 0., 0.,
          0., 0., 4.25531901e-02, 0., 0., 0., 0. ]
      - [ 4.16666679e-02, 0., 0., 0., 0., 0., 0., 0., 0., 0., 0., 0., 0.,
          0., 0., 0., 0., 0., 0., 0., 0., 0., 0., 0., 0., 0., 0., 0.,
          4.16666679e-02, 4.16666679e-02, 0., 0., 0., 0., 8.33333358e-02,
          0., 4.16666679e-02, 0., 0., 0., 0., 0., 0., 0., 0.,
          4.16666679e-02, 0., 0., 0., 0., 0., 0., 4.16666679e-02, 0., 0.,
          0., 0., 0., 0., 0., 0., 4.16666679e-02, 0., 0., 4.16666679e-02,
          0., 0., 0., 0., 0., 0., 0., 0., 0., 0., 0., 0., 0., 0., 0., 0.,
          4.16666679e-02, 0., 0., 0., 0., 0., 4.16666679e-02, 0., 0., 0.,
          0., 0., 0., 0., 0., 0., 0., 0., 0., 0., 0., 0., 0., 0., 0., 0.,
          0., 0., 0., 0., 0., 0., 4.16666679e-02, 0., 0., 0., 0., 0., 0.,
          0., 4.16666679e-02, 0., 8.33333358e-02, 0., 0., 0., 0.,
          4.16666679e-02, 0., 4.16666679e-02, 0., 0., 0., 0., 0., 0., 0.,
          0., 4.16666679e-02, 0., 0., 0., 0., 0., 0., 0., 0., 0., 0., 0.,
          0., 0., 4.16666679e-02, 0., 0., 0., 0., 0., 0., 0., 0., 0., 0.,
          0., 0., 4.16666679e-02, 0., 0., 0., 0., 0., 0., 4.16666679e-02,
          0., 0., 4.16666679e-02, 0., 0., 0., 0., 4.16666679e-02, 0., 0.,
          0., 0. ]
      - [ 0., 0., 5.88235296e-02, 0., 0., 0., 5.88235296e-02, 0., 0., 0.,
          0., 0., 0., 0., 0., 0., 0., 0., 0., 0., 0., 0., 0., 0., 0., 0.,
          0., 0., 0., 5.88235296e-02, 0., 0., 0., 0., 0., 0., 0., 0., 0.,
          0., 0., 0., 0., 0., 0., 0., 0., 0., 0., 0., 0., 0., 0., 0., 0.,
          0., 0., 0., 0., 0., 0., 0., 0., 0., 0., 5.88235296e-02, 0., 0.,
          0., 0., 0., 0., 0., 0., 5.88235296e-02, 0., 0., 0., 0., 0., 0.,
          5.88235296e-02, 0., 0., 0., 0., 0., 0., 0., 0., 0., 0., 0., 0.,
          0., 5.88235296e-02, 0., 0., 0., 0., 0., 0., 0., 1.17647059e-01,
          5.88235296e-02, 0., 0., 0., 0., 0., 0., 0., 0., 0., 0., 0., 0.,
          0., 0., 0., 0., 0., 0., 0., 0., 5.88235296e-02, 0., 0., 0., 0.,
          0., 0., 0., 0., 0., 0., 0., 0., 0., 0., 0., 0., 1.17647059e-01,
          0., 0., 0., 0., 0., 0., 0., 5.88235296e-02, 0., 0., 0., 0., 0.,
          0., 0., 5.88235296e-02, 0., 0., 0., 0., 0., 0., 0., 0., 0., 0.,
          0., 0., 5.88235296e-02, 0., 0., 0., 0., 0., 0., 0.,
          5.88235296e-02, 0., 0., 0., 0., 0., 0. ]
      - [ 0., 0., 0., 0., 0., 0., 0., 0., 0., 0., 0., 0., 0., 0., 0., 0.,
          0., 0., 0., 0., 0., 0., 0., 0., 0., 0., 0., 0., 0.,
          7.69230798e-02, 0., 0., 0., 0., 0., 0., 0., 0., 0., 0., 0., 0.,
          0., 0., 0., 0., 0., 0., 0., 0., 0., 0., 0., 0., 0., 0., 0.,
          7.69230798e-02, 0., 0., 0., 0., 0., 0., 0., 0., 0., 0., 0., 0.,
          0., 0., 0., 0., 0., 0., 7.69230798e-02, 0., 0., 0., 0.,
          7.69230798e-02, 0., 0., 0., 0., 0., 0., 0., 0., 0., 0., 0., 0.,
          0., 0., 0., 0., 0., 7.69230798e-02, 0., 0., 0., 0., 0., 0., 0.,
          0., 0., 7.69230798e-02, 0., 0., 0., 1.53846160e-01, 0., 0., 0.,
          0., 0., 0., 0., 0., 0., 0., 0., 0., 7.69230798e-02, 0., 0., 0.,
          0., 0., 0., 0., 0., 0., 0., 0., 7.69230798e-02, 0., 0., 0., 0.,
          7.69230798e-02, 0., 0., 0., 0., 0., 0., 0., 0., 0., 0., 0., 0.,
          0., 0., 0., 0., 0., 0., 0., 0., 0., 0., 0., 0., 0., 0., 0.,
          7.69230798e-02, 0., 0., 0., 0., 7.69230798e-02, 0., 0., 0., 0.,
          0., 0., 0., 0., 0. ]
      - [ 0., 0., 0., 0., 0., 0., 0., 0., 0., 0., 0., 0., 0., 0., 0.,
          3.84615399e-02, 7.69230798e-02, 0., 3.84615399e-02, 0., 0., 0.,
          0., 0., 0., 0., 0., 0., 0., 3.84615399e-02, 0., 0., 0., 0., 0.,
          0., 0., 0., 7.69230798e-02, 0., 3.84615399e-02, 0., 0., 0., 0.,
          0., 0., 0., 0., 0., 0., 0., 0., 0., 0., 0., 0., 0.,
          3.84615399e-02, 0., 0., 0., 0., 0., 0., 3.84615399e-02,
          1.15384623e-01, 0., 0., 0., 0., 0., 0., 0., 3.84615399e-02, 0.,
          0., 0., 0., 0., 0., 0., 0., 3.84615399e-02, 0., 0., 0., 0., 0.,
          0., 0., 0., 3.84615399e-02, 0., 0., 0., 0., 0., 3.84615399e-02,
          3.84615399e-02, 3.84615399e-02, 0., 0., 0., 0., 0., 0., 0., 0.,
          0., 0., 0., 0., 0., 0., 0., 3.84615399e-02, 0., 0., 0., 0., 0.,
          0., 0., 3.84615399e-02, 0., 0., 0., 3.84615399e-02, 0., 0., 0.,
          0., 0., 0., 0., 0., 0., 0., 0., 0., 3.84615399e-02, 0., 0., 0.,
          0., 3.84615399e-02, 0., 0., 0., 0., 0., 0., 0., 0., 0.,
          3.84615399e-02, 0., 0., 0., 0., 0., 0., 0., 0., 0., 0., 0., 0.,
          0., 0., 3.84615399e-02, 0., 0., 0., 0., 0., 0., 0., 0., 0., 0.,
          0., 0., 0., 0. ]
      - [ 0., 0., 0., 0., 0., 0., 0., 0., 0., 0., 1.88679248e-02, 0., 0.,
          0., 0., 0., 1.88679248e-02, 0., 0., 0., 0., 0., 0., 0.,
          1.88679248e-02, 0., 5.66037744e-02, 0., 0., 0., 0., 0.,
          1.88679248e-02, 0., 0., 0., 1.88679248e-02, 1.88679248e-02, 0.,
          0., 0., 0., 0., 0., 0., 1.88679248e-02, 1.88679248e-02, 0., 0.,
          0., 3.77358496e-02, 1.88679248e-02, 0., 1.88679248e-02, 0., 0.,
          1.88679248e-02, 0., 0., 0., 5.66037744e-02, 0., 1.88679248e-02,
          0., 1.88679248e-02, 1.88679248e-02, 0., 1.88679248e-02, 0.,
          3.77358496e-02, 0., 0., 0., 1.88679248e-02, 0., 0., 0., 0., 0.,
          0., 0., 1.88679248e-02, 0., 0., 0., 0., 0., 0., 1.88679248e-02,
          0., 0., 0., 0., 0., 0., 0., 0., 0., 0., 1.88679248e-02,
          1.88679248e-02, 0., 0., 0., 0., 3.77358496e-02, 0., 0.,
          1.88679248e-02, 0., 0., 1.88679248e-02, 1.88679248e-02, 0., 0.,
          0., 0., 1.88679248e-02, 1.88679248e-02, 0., 1.88679248e-02,
          3.77358496e-02, 0., 0., 3.77358496e-02, 0., 0., 0., 0., 0.,
          1.88679248e-02, 3.77358496e-02, 0., 1.88679248e-02,
          3.77358496e-02, 0., 0., 0., 0., 0., 0., 0., 0., 0., 0., 0., 0.,
          0., 0., 0., 1.88679248e-02, 0., 0., 0., 0., 0., 3.77358496e-02,
          0., 0., 0., 0., 0., 0., 0., 0., 0., 0., 1.88679248e-02, 0., 0.,
          0., 0., 0., 0., 0., 0., 0., 0., 0., 0., 0., 0., 0., 0., 0.,
          1.88679248e-02 ]
      - [ 0., 0., 0., 0., 0., 3.03030312e-02, 0., 0., 0., 0., 0., 0., 0.,
          0., 0., 0., 3.03030312e-02, 0., 3.03030312e-02, 0., 0.,
          3.03030312e-02, 0., 0., 0., 0., 0., 0., 0., 0., 0., 0., 0., 0.,
          0., 0., 0., 0., 6.06060624e-02, 0., 0., 0., 0., 0., 0.,
          3.03030312e-02, 0., 0., 0., 0., 0., 0., 0., 0., 0., 0., 0., 0.,
          0., 0., 0., 0., 0., 0., 0., 3.03030312e-02, 3.03030312e-02, 0.,
          0., 0., 0., 0., 0., 3.03030312e-02, 0., 0., 0., 0., 0., 0., 0.,
          0., 0., 3.03030312e-02, 0., 0., 3.03030312e-02, 0.,
          6.06060624e-02, 0., 0., 0., 0., 0., 0., 3.03030312e-02, 0., 0.,
          3.03030312e-02, 3.03030312e-02, 3.03030312e-02, 0., 0., 0., 0.,
          3.03030312e-02, 0., 0., 0., 0., 0., 0., 0., 0., 0.,
          3.03030312e-02, 6.06060624e-02, 0., 0., 0., 3.03030312e-02, 0.,
          0., 0., 3.03030312e-02, 0., 0., 0., 0., 0., 0., 0., 0., 0., 0.,
          0., 0., 0., 3.03030312e-02, 0., 0., 0., 3.03030312e-02, 0., 0.,
          0., 3.03030312e-02, 0., 0., 3.03030312e-02, 0., 0., 0., 0.,
          3.03030312e-02, 0., 3.03030312e-02, 3.03030312e-02, 0., 0., 0.,
          0., 0., 0., 0., 0., 0., 3.03030312e-02, 0., 0., 0.,
          3.03030312e-02, 0., 0., 0., 0., 0., 0., 0., 0., 0., 0., 0., 0.,
          0., 0. ]
      - [ 0., 0., 0., 0., 0., 0., 0., 0., 0., 0., 0., 0., 0., 0., 0.,
          4.54545468e-02, 0., 0., 0., 4.54545468e-02, 0., 0., 0., 0.,
          4.54545468e-02, 0., 0., 0., 0., 4.54545468e-02, 0., 0., 0., 0.,
          0., 0., 0., 4.54545468e-02, 4.54545468e-02, 0., 0., 0., 0., 0.,
          0., 0., 0., 4.54545468e-02, 0., 0., 0., 0., 0., 0., 0., 0., 0.,
          0., 0., 4.54545468e-02, 4.54545468e-02, 0., 0., 0., 0.,
          4.54545468e-02, 0., 0., 0., 0., 0., 0., 0., 0., 0., 0., 0., 0.,
          0., 0., 0., 0., 4.54545468e-02, 0., 0., 0., 0., 0., 0., 0.,
          4.54545468e-02, 4.54545468e-02, 0., 0., 0., 0., 0., 0., 0., 0.,
          0., 0., 0., 0., 0., 0., 0., 0., 4.54545468e-02, 0.,
          4.54545468e-02, 0., 0., 0., 0., 4.54545468e-02, 0., 0., 0., 0.,
          0., 0., 0., 4.54545468e-02, 0., 0., 4.54545468e-02, 0., 0., 0.,
          0., 0., 0., 0., 0., 0., 0., 0., 0., 4.54545468e-02, 0., 0., 0.,
          0., 0., 0., 0., 0., 0., 0., 0., 0., 0., 0., 0., 0., 0., 0., 0.,
          0., 4.54545468e-02, 0., 4.54545468e-02, 0., 0., 0., 0., 0., 0.,
          0., 0., 0., 0., 0., 0., 0., 0., 0., 0., 0., 4.54545468e-02, 0.,
          0., 0., 0., 0. ]
      - [ 3.57142873e-02, 0., 0., 7.14285746e-02, 0., 0., 3.57142873e-02,
          0., 0., 0., 0., 0., 0., 0., 0., 0., 3.57142873e-02, 0., 0., 0.,
          0., 0., 0., 3.57142873e-02, 0., 0., 0., 0., 0., 0., 0., 0., 0.,
          0., 0., 3.57142873e-02, 0., 0., 0., 0., 0., 0., 0., 0., 0., 0.,
          0., 0., 0., 0., 0., 0., 0., 0., 0., 3.57142873e-02, 0., 0., 0.,
          0., 0., 0., 3.57142873e-02, 1.07142866e-01, 0., 0.,
          3.57142873e-02, 0., 0., 0., 0., 0., 0., 0., 0., 0., 0., 0., 0.,
          0., 0., 1.07142866e-01, 0., 3.57142873e-02, 0., 0., 0., 0., 0.,
          0., 3.57142873e-02, 0., 0., 0., 0., 3.57142873e-02, 0., 0., 0.,
          0., 0., 0., 0., 3.57142873e-02, 3.57142873e-02, 0., 0., 0., 0.,
          0., 0., 0., 0., 0., 0., 0., 0., 0., 0., 0., 0., 3.57142873e-02,
          0., 0., 0., 0., 0., 0., 0., 0., 0., 0., 0., 0., 0., 0., 0., 0.,
          0., 0., 0., 0., 0., 0., 0., 0., 0., 0., 0., 0., 0., 0., 0.,
          7.14285746e-02, 3.57142873e-02, 0., 0., 0., 0., 0., 0., 0., 0.,
          0., 0., 0., 0., 0., 0., 0., 3.57142873e-02, 0., 0., 0., 0., 0.,
          7.14285746e-02, 0., 0., 0., 0., 0., 0., 0., 0., 0. ]
      - [ 0., 0., 0., 0., 0., 0., 0., 0., 0., 0., 0., 0., 0., 0., 0.,
          5.00000007e-02, 0., 0., 0., 0., 0., 0., 0., 0., 0., 0., 0.,
          5.00000007e-02, 0., 0., 0., 5.00000007e-02, 0., 0., 0., 0., 0.,
          0., 0., 0., 0., 0., 0., 0., 0., 0., 0., 0., 0., 0., 0., 0., 0.,
          0., 0., 0., 0., 0., 0., 0., 0., 0., 0., 5.00000007e-02, 0., 0.,
          0., 0., 0., 5.00000007e-02, 0., 0., 0., 0., 0., 0., 0., 0., 0.,
          0., 0., 0., 0., 0., 0., 0., 0., 0., 0., 3.00000012e-01, 0., 0.,
          0., 0., 0., 0., 0., 0., 0., 5.00000007e-02, 0., 0., 0., 0., 0.,
          0., 0., 0., 0., 0., 0., 0., 0., 0., 0., 0., 0., 5.00000007e-02,
          0., 0., 0., 5.00000007e-02, 0., 0., 0., 0., 0., 0., 0., 0., 0.,
          0., 5.00000007e-02, 0., 0., 5.00000007e-02, 0., 0., 0., 0., 0.,
          0., 0., 0., 0., 0., 0., 0., 0., 0., 0., 0., 0., 0., 0., 0., 0.,
          0., 0., 0., 0., 0., 0., 0., 0., 0., 0., 0., 5.00000007e-02, 0.,
          0., 0., 0., 5.00000007e-02, 0., 0., 5.00000007e-02, 0., 0., 0.,
          0., 5.00000007e-02, 0., 0., 0., 0. ]
      - [ 0., 0., 0., 0., 0., 0., 0., 0., 0., 0., 0., 0., 0., 0.,
          3.57142873e-02, 0., 0., 0., 0., 7.14285746e-02, 0., 0., 0.,
          3.57142873e-02, 0., 0., 0., 0., 0., 0., 0., 3.57142873e-02,
          3.57142873e-02, 0., 0., 0., 3.57142873e-02, 0., 0., 0.,
          3.57142873e-02, 0., 0., 0., 0., 0., 0., 0., 0., 3.57142873e-02,
          0., 0., 0., 0., 0., 0., 0., 0., 3.57142873e-02, 0.,
          3.57142873e-02, 0., 0., 0., 0., 0., 0., 0., 0., 0., 0., 0., 0.,
          0., 0., 0., 3.57142873e-02, 7.14285746e-02, 0., 0., 0.,
          7.14285746e-02, 0., 0., 0., 0., 0., 0., 0., 0., 0., 0., 0., 0.,
          0., 0., 0., 0., 0., 0., 0., 0., 7.14285746e-02, 0., 0., 0., 0.,
          0., 0., 0., 0., 0., 0., 0., 0., 0., 0., 3.57142873e-02, 0., 0.,
          0., 0., 0., 0., 3.57142873e-02, 0., 3.57142873e-02, 0., 0., 0.,
          0., 0., 0., 0., 0., 3.57142873e-02, 0., 0., 0., 0., 0., 0.,
          3.57142873e-02, 0., 0., 0., 0., 0., 0., 0., 0., 0., 0., 0.,
          3.57142873e-02, 0., 0., 3.57142873e-02, 0., 0., 0., 0., 0., 0.,
          0., 0., 7.14285746e-02, 0., 0., 3.57142873e-02, 0., 0., 0., 0.,
          0., 0., 0., 0., 0., 0., 0., 0., 0., 0., 0., 0. ]
      - [ 0., 0., 0., 0., 4.54545468e-02, 0., 4.54545468e-02, 0., 0., 0.,
          0., 0., 0., 0., 0., 4.54545468e-02, 4.54545468e-02, 0.,
          9.09090936e-02, 4.54545468e-02, 0., 0., 0., 0., 0.,
          4.54545468e-02, 4.54545468e-02, 0., 0., 0., 0., 0., 0., 0.,
          4.54545468e-02, 0., 0., 0., 0., 0., 0., 0., 0., 0., 0., 0., 0.,
          0., 0., 0., 0., 0., 0., 0., 0., 0., 0., 0., 0., 0., 0., 0., 0.,
          0., 0., 0., 4.54545468e-02, 0., 0., 0., 0., 0., 0., 0., 0., 0.,
          0., 0., 0., 0., 4.54545468e-02, 4.54545468e-02, 0., 0., 0., 0.,
          0., 0., 0., 0., 0., 0., 0., 0., 0., 0., 0., 0., 0., 0., 0., 0.,
          0., 0., 0., 0., 0., 0., 0., 0., 0., 0., 0., 0., 0., 0., 0., 0.,
          0., 0., 0., 0., 0., 0., 0., 0., 0., 0., 9.09090936e-02, 0., 0.,
          0., 0., 0., 0., 4.54545468e-02, 0., 0., 0., 0., 0., 0., 0.,
          4.54545468e-02, 0., 0., 0., 0., 0., 0., 0., 0., 0., 0.,
          4.54545468e-02, 0., 0., 0., 0., 4.54545468e-02, 0., 0.,
          4.54545468e-02, 0., 0., 0., 0., 0., 0., 0., 0., 0., 0., 0., 0.,
          0., 0., 0., 0., 0., 0., 4.54545468e-02, 0., 0., 4.54545468e-02,
          0. ]
      - [ 0., 0., 0., 0., 0., 4.54545468e-02, 4.54545468e-02, 0., 0., 0.,
          0., 0., 0., 0., 0., 4.54545468e-02, 0., 0., 0., 4.54545468e-02,
          4.54545468e-02, 0., 0., 0., 0., 0., 0., 0., 0., 0., 0., 0., 0.,
          0., 0., 0., 0., 4.54545468e-02, 4.54545468e-02, 0., 0., 0., 0.,
          0., 0., 0., 0., 0., 0., 0., 0., 9.09090936e-02, 0., 0., 0., 0.,
          0., 0., 0., 0., 0., 4.54545468e-02, 0., 0., 4.54545468e-02, 0.,
          0., 4.54545468e-02, 0., 0., 0., 0., 0., 0., 0., 0., 0., 0.,
          4.54545468e-02, 0., 0., 0., 0., 0., 0., 0., 0., 0., 0.,
          4.54545468e-02, 0., 0., 0., 0., 0., 0., 0., 0., 0.,
          4.54545468e-02, 0., 0., 0., 0., 0., 0., 0., 0., 0., 0., 0., 0.,
          0., 0., 0., 0., 0., 0., 0., 0., 4.54545468e-02, 0., 0., 0., 0.,
          0., 0., 0., 0., 0., 0., 0., 0., 0., 4.54545468e-02, 0., 0., 0.,
          0., 0., 0., 4.54545468e-02, 0., 0., 0., 0., 0., 0., 0., 0., 0.,
          0., 0., 0., 0., 0., 9.09090936e-02, 4.54545468e-02, 0., 0., 0.,
          0., 0., 0., 0., 0., 0., 0., 0., 0., 0., 0., 0., 4.54545468e-02,
          0., 0., 0., 0., 0., 0., 0., 0., 0., 0., 0., 0. ]
      - [ 0., 0., 5.12820520e-02, 0., 0., 0., 0., 0., 0., 0., 0., 0., 0.,
          0., 0., 0., 2.56410260e-02, 0., 2.56410260e-02, 0.,
          2.56410260e-02, 5.12820520e-02, 2.56410260e-02, 0.,
          2.56410260e-02, 0., 0., 0., 2.56410260e-02, 0., 0.,
          2.56410260e-02, 0., 2.56410260e-02, 0., 0., 0., 2.56410260e-02,
          0., 0., 0., 0., 0., 5.12820520e-02, 0., 2.56410260e-02, 0., 0.,
          0., 0., 0., 0., 0., 0., 0., 0., 0., 0., 0., 0., 0., 0., 0., 0.,
          2.56410260e-02, 0., 0., 0., 0., 0., 5.12820520e-02, 0., 0.,
          2.56410260e-02, 0., 0., 2.56410260e-02, 0., 0., 0., 0., 0., 0.,
          0., 0., 0., 0., 2.56410260e-02, 0., 2.56410260e-02, 0., 0., 0.,
          0., 0., 0., 0., 0., 0., 0., 0., 0., 0., 0., 2.56410260e-02, 0.,
          0., 0., 0., 2.56410260e-02, 0., 2.56410260e-02, 0.,
          5.12820520e-02, 0., 0., 2.56410260e-02, 0., 0., 0.,
          2.56410260e-02, 0., 0., 0., 0., 0., 0., 0., 0., 0., 0., 0., 0.,
          2.56410260e-02, 0., 2.56410260e-02, 0., 0., 0., 0., 0., 0., 0.,
          0., 0., 0., 0., 0., 0., 0., 0., 0., 0., 0., 0., 2.56410260e-02,
          0., 0., 0., 0., 0., 0., 0., 2.56410260e-02, 0., 0.,
          2.56410260e-02, 0., 0., 0., 0., 0., 0., 0., 0., 0.,
          2.56410260e-02, 0., 0., 0., 0., 7.69230798e-02, 0., 0., 0., 0. ]
      - [ 3.12500000e-02, 0., 0., 0., 0., 0., 6.25000000e-02, 0., 0., 0.,
          0., 0., 0., 0., 0., 0., 0., 0., 6.25000000e-02, 3.12500000e-02,
          0., 0., 0., 3.12500000e-02, 0., 0., 0., 0., 0., 0., 0., 0., 0.,
          0., 0., 0., 3.12500000e-02, 0., 0., 0., 3.12500000e-02, 0., 0.,
          0., 0., 3.12500000e-02, 0., 0., 0., 0., 0., 0., 3.12500000e-02,
          0., 0., 0., 0., 0., 0., 3.12500000e-02, 0., 0., 3.12500000e-02,
          3.12500000e-02, 3.12500000e-02, 0., 0., 0., 0., 0., 0., 0.,
          3.12500000e-02, 0., 0., 0., 0., 0., 0., 0., 0., 0., 0., 0., 0.,
          0., 0., 0., 0., 0., 3.12500000e-02, 0., 0., 0., 0., 0., 0., 0.,
          0., 0., 0., 0., 0., 0., 0., 0., 0., 3.12500000e-02,
          3.12500000e-02, 0., 0., 6.25000000e-02, 0., 0., 0.,
          3.12500000e-02, 0., 0., 0., 0., 0., 0., 0., 0., 0., 0., 0., 0.,
          3.12500000e-02, 0., 0., 3.12500000e-02, 6.25000000e-02, 0., 0.,
          0., 0., 0., 0., 0., 0., 0., 0., 3.12500000e-02, 0., 0., 0.,
          3.12500000e-02, 0., 0., 0., 0., 0., 0., 0., 0., 3.12500000e-02,
          0., 0., 3.12500000e-02, 0., 0., 0., 0., 0., 0., 0., 0., 0., 0.,
          3.12500000e-02, 0., 0., 0., 0., 3.12500000e-02, 0., 0., 0., 0.,
          0., 0., 0., 0., 0., 0. ]
      - [ 0., 0., 3.70370373e-02, 3.70370373e-02, 0., 0., 3.70370373e-02,
          0., 3.70370373e-02, 0., 0., 0., 0., 0., 0., 0., 7.40740746e-02,
          0., 0., 0., 0., 3.70370373e-02, 0., 0., 0., 0., 0., 0.,
          7.40740746e-02, 0., 0., 0., 3.70370373e-02, 0., 0., 0.,
          3.70370373e-02, 0., 0., 0., 0., 0., 0., 0., 0., 0., 0.,
          3.70370373e-02, 0., 0., 0., 0., 0., 0., 0., 0., 0., 0., 0., 0.,
          0., 0., 0., 3.70370373e-02, 0., 0., 3.70370373e-02,
          7.40740746e-02, 0., 0., 0., 0., 0., 0., 0., 0., 3.70370373e-02,
          0., 0., 0., 0., 0., 0., 0., 0., 0., 0., 0., 0., 3.70370373e-02,
          0., 0., 0., 0., 0., 0., 0., 3.70370373e-02, 3.70370373e-02, 0.,
          0., 0., 0., 0., 0., 0., 0., 0., 0., 0., 0., 3.70370373e-02, 0.,
          0., 0., 0., 0., 0., 0., 0., 0., 3.70370373e-02, 0., 0., 0., 0.,
          0., 0., 0., 0., 0., 3.70370373e-02, 0., 0., 0., 0., 0., 0., 0.,
          0., 0., 0., 0., 0., 0., 0., 0., 0., 0., 0., 0., 0., 0.,
          3.70370373e-02, 0., 0., 0., 0., 0., 0., 0., 0., 3.70370373e-02,
          0., 0., 0., 0., 0., 0., 0., 0., 0., 0., 0., 0., 0., 0., 0., 0.,
          0., 3.70370373e-02, 0., 0., 0., 0., 3.70370373e-02 ]
      - [ 0., 0., 0., 0., 0., 0., 0., 4.54545468e-02, 4.54545468e-02, 0.,
          0., 0., 0., 0., 0., 0., 0., 0., 4.54545468e-02, 0., 0., 0., 0.,
          0., 0., 4.54545468e-02, 0., 4.54545468e-02, 0., 0., 0., 0., 0.,
          0., 0., 0., 0., 0., 0., 0., 0., 0., 0., 0., 0., 4.54545468e-02,
          0., 0., 0., 0., 0., 4.54545468e-02, 0., 0., 0., 0., 0., 0., 0.,
          0., 0., 0., 0., 0., 0., 0., 0., 0., 0., 4.54545468e-02, 0., 0.,
          0., 0., 0., 0., 0., 0., 0., 0., 0., 4.54545468e-02, 0.,
          4.54545468e-02, 0., 0., 0., 0., 0., 4.54545468e-02, 0., 0., 0.,
          4.54545468e-02, 0., 0., 0., 0., 0., 0., 0., 0., 0.,
          4.54545468e-02, 0., 0., 0., 0., 0., 0., 0., 0., 0., 0., 0., 0.,
          0., 0., 0., 0., 0., 0., 0., 0., 4.54545468e-02, 0., 0., 0., 0.,
          0., 4.54545468e-02, 0., 0., 0., 0., 0., 0., 0., 0., 0., 0., 0.,
          4.54545468e-02, 0., 0., 0., 0., 0., 0., 0., 0., 0., 0., 0., 0.,
          9.09090936e-02, 0., 0., 4.54545468e-02, 0., 0., 0., 0., 0., 0.,
          0., 0., 0., 0., 0., 0., 0., 0., 9.09090936e-02, 0., 0., 0., 0.,
          0., 4.54545468e-02, 0., 0., 0., 0., 0., 0. ]
      - [ 0., 3.99999991e-02, 0., 0., 3.99999991e-02, 0., 0., 0., 0., 0.,
          0., 0., 0., 0., 0., 0., 0., 0., 3.99999991e-02, 0., 0., 0., 0.,
          3.99999991e-02, 0., 0., 3.99999991e-02, 3.99999991e-02, 0., 0.,
          0., 0., 0., 0., 0., 3.99999991e-02, 0., 0., 0., 0., 0., 0., 0.,
          0., 0., 0., 0., 0., 0., 0., 0., 0., 0., 0., 0., 0., 0., 0., 0.,
          0., 0., 0., 0., 0., 0., 0., 0., 0., 0., 0., 0., 0., 0.,
          7.99999982e-02, 0., 0., 0., 3.99999991e-02, 3.99999991e-02, 0.,
          0., 0., 0., 0., 0., 0., 0., 0., 0., 3.99999991e-02, 0.,
          3.99999991e-02, 0., 0., 3.99999991e-02, 0., 0., 0., 0., 0.,
          3.99999991e-02, 0., 0., 3.99999991e-02, 0., 0., 0., 0., 0., 0.,
          0., 0., 0., 0., 0., 0., 3.99999991e-02, 0., 0., 0., 0., 0., 0.,
          0., 3.99999991e-02, 0., 0., 0., 0., 3.99999991e-02,
          3.99999991e-02, 0., 0., 0., 0., 0., 3.99999991e-02, 0., 0., 0.,
          0., 0., 0., 3.99999991e-02, 0., 3.99999991e-02, 0., 0., 0., 0.,
          0., 0., 0., 0., 0., 0., 0., 3.99999991e-02, 0., 0., 0., 0., 0.,
          0., 0., 0., 0., 0., 0., 0., 3.99999991e-02, 0., 0., 0., 0., 0.,
          0., 0., 0., 0., 0., 0., 0., 0., 0., 0. ]
      - [ 0., 2.70270277e-02, 0., 0., 0., 2.70270277e-02, 0.,
          2.70270277e-02, 2.70270277e-02, 0., 0., 0., 0., 0., 0.,
          2.70270277e-02, 2.70270277e-02, 0., 0., 0., 0., 0., 0.,
          2.70270277e-02, 0., 0., 0., 0., 0., 0., 0., 0., 0., 0.,
          2.70270277e-02, 0., 0., 0., 0., 2.70270277e-02, 0.,
          2.70270277e-02, 0., 2.70270277e-02, 0., 0., 0., 0., 0., 0., 0.,
          0., 0., 2.70270277e-02, 0., 0., 0., 0., 5.40540554e-02, 0., 0.,
          2.70270277e-02, 0., 5.40540554e-02, 0., 0., 0., 0., 0., 0., 0.,
          0., 0., 0., 0., 0., 0., 0., 0., 0., 0., 0., 0., 0., 0., 0., 0.,
          0., 0., 0., 0., 0., 0., 0., 5.40540554e-02, 0., 0., 0., 0.,
          2.70270277e-02, 0., 0., 0., 0., 0., 0., 0., 0., 0., 0., 0., 0.,
          2.70270277e-02, 0., 2.70270277e-02, 0., 0., 0., 0., 0.,
          2.70270277e-02, 0., 0., 0., 2.70270277e-02, 0., 0.,
          5.40540554e-02, 0., 0., 2.70270277e-02, 2.70270277e-02, 0., 0.,
          0., 0., 0., 0., 2.70270277e-02, 0., 0., 2.70270277e-02,
          2.70270277e-02, 0., 0., 0., 0., 0., 0., 0., 2.70270277e-02, 0.,
          0., 2.70270277e-02, 0., 0., 0., 0., 0., 0., 0., 0., 0., 0., 0.,
          0., 5.40540554e-02, 0., 0., 0., 0., 0., 0., 0., 0., 0.,
          5.40540554e-02, 0., 0., 0., 0., 0., 0., 0., 0., 0. ]
      - [ 0., 0., 0., 0., 0., 8.33333358e-02, 0., 0., 0., 0., 0., 0., 0.,
          0., 0., 0., 0., 0., 0., 0., 0., 0., 0., 0., 0., 0., 0., 0., 0.,
          0., 0., 0., 0., 0., 0., 0., 0., 0., 0., 0., 0., 0., 0., 0., 0.,
          0., 0., 8.33333358e-02, 8.33333358e-02, 0., 0., 0., 0., 0., 0.,
          0., 0., 0., 0., 8.33333358e-02, 0., 0., 0., 0., 0., 0., 0., 0.,
          0., 0., 0., 0., 0., 0., 0., 8.33333358e-02, 0., 0., 0., 0., 0.,
          1.66666672e-01, 0., 0., 0., 0., 0., 0., 0., 1.66666672e-01, 0.,
          0., 0., 0., 0., 0., 0., 0., 0., 0., 0., 0., 0., 0., 0., 0., 0.,
          0., 0., 8.33333358e-02, 0., 0., 0., 0., 0., 0., 0., 0., 0., 0.,
          0., 0., 0., 0., 0., 0., 0., 8.33333358e-02, 0., 0., 0., 0., 0.,
          0., 0., 0., 0., 0., 0., 0., 0., 0., 0., 0., 0., 0., 0., 0., 0.,
          0., 0., 0., 0., 0., 0., 0., 0., 0., 0., 0., 0., 0., 0., 0., 0.,
          0., 0., 0., 0., 0., 0., 0., 0., 0., 0., 0., 0., 0., 0., 0., 0.,
          0., 0., 0., 8.33333358e-02, 0. ]
      - [ 3.44827585e-02, 0., 0., 0., 0., 3.44827585e-02, 0.,
          3.44827585e-02, 0., 0., 0., 0., 0., 0., 0., 0., 1.37931034e-01,
          0., 0., 3.44827585e-02, 0., 0., 0., 0., 0., 0., 3.44827585e-02,
          0., 0., 0., 0., 0., 0., 0., 0., 0., 0., 0., 0., 0.,
          3.44827585e-02, 0., 0., 0., 0., 3.44827585e-02, 0., 0., 0., 0.,
          0., 0., 0., 0., 0., 3.44827585e-02, 0., 0., 0., 0., 0., 0., 0.,
          0., 3.44827585e-02, 0., 6.89655170e-02, 0., 0., 0., 0., 0., 0.,
          0., 0., 0., 0., 0., 0., 0., 0., 0., 0., 0., 0., 0., 0., 0., 0.,
          1.72413796e-01, 0., 0., 0., 0., 0., 0., 0., 0., 0., 0., 0., 0.,
          0., 0., 0., 1.03448272e-01, 0., 0., 0., 0., 0., 0., 0., 0., 0.,
          3.44827585e-02, 0., 0., 0., 0., 0., 0., 0., 0., 0., 0., 0., 0.,
          0., 0., 0., 3.44827585e-02, 0., 0., 0., 0., 0., 0., 0., 0., 0.,
          0., 0., 3.44827585e-02, 0., 0., 0., 0., 0., 0., 0., 0., 0., 0.,
          0., 0., 0., 0., 3.44827585e-02, 0., 0., 0., 0., 0., 0., 0., 0.,
          0., 0., 0., 0., 0., 0., 0., 0., 0., 3.44827585e-02, 0., 0., 0.,
          3.44827585e-02, 0., 0., 0., 0., 0. ]
      - [ 2.94117648e-02, 0., 0., 0., 0., 0., 0., 0., 0., 0., 0., 0.,
          2.94117648e-02, 0., 0., 0., 2.94117648e-02, 0., 0.,
          2.94117648e-02, 0., 0., 8.82352963e-02, 0., 0., 0., 0., 0., 0.,
          5.88235296e-02, 0., 0., 0., 0., 0., 0., 0., 0., 0., 0., 0., 0.,
          0., 2.94117648e-02, 0., 0., 0., 0., 0., 5.88235296e-02, 0., 0.,
          0., 0., 0., 2.94117648e-02, 2.94117648e-02, 0., 0., 0., 0., 0.,
          0., 0., 2.94117648e-02, 0., 2.94117648e-02, 0., 0., 0., 0., 0.,
          0., 0., 0., 0., 0., 0., 0., 0., 0., 0., 0., 0., 0., 0., 0., 0.,
          0., 2.94117648e-02, 0., 0., 0., 0., 0., 0., 0., 0., 0.,
          5.88235296e-02, 0., 0., 0., 0., 0., 0., 0., 2.94117648e-02, 0.,
          0., 0., 0., 0., 0., 0., 0., 0., 0., 0., 0., 0., 0., 0., 0., 0.,
          0., 0., 2.94117648e-02, 2.94117648e-02, 0., 2.94117648e-02, 0.,
          5.88235296e-02, 5.88235296e-02, 0., 0., 0., 0., 0.,
          5.88235296e-02, 2.94117648e-02, 0., 0., 0., 0., 0., 0., 0., 0.,
          0., 0., 2.94117648e-02, 0., 0., 2.94117648e-02, 0., 0., 0., 0.,
          0., 0., 0., 0., 0., 0., 0., 0., 0., 0., 0., 0., 0., 0., 0., 0.,
          0., 0., 0., 0., 0., 0., 2.94117648e-02, 0., 0., 0.,
          2.94117648e-02 ]
      - [ 6.45161271e-02, 6.45161271e-02, 0., 3.22580636e-02,
          3.22580636e-02, 0., 0., 0., 3.22580636e-02, 0., 0., 0., 0., 0.,
          0., 0., 0., 0., 0., 0., 0., 0., 0., 0., 0., 0., 0., 0., 0., 0.,
          0., 0., 0., 3.22580636e-02, 3.22580636e-02, 0., 3.22580636e-02,
          0., 0., 0., 0., 3.22580636e-02, 0., 0., 0., 3.22580636e-02, 0.,
          0., 0., 0., 0., 0., 0., 0., 3.22580636e-02, 3.22580636e-02, 0.,
          0., 0., 0., 0., 0., 0., 6.45161271e-02, 3.22580636e-02, 0., 0.,
          0., 0., 0., 0., 3.22580636e-02, 0., 0., 0., 0., 0., 0., 0., 0.,
          0., 0., 0., 0., 0., 0., 3.22580636e-02, 3.22580636e-02,
          3.22580636e-02, 3.22580636e-02, 0., 3.22580636e-02, 0., 0., 0.,
          0., 0., 0., 3.22580636e-02, 0., 0., 0., 0., 0., 0., 0., 0., 0.,
          0., 0., 0., 0., 0., 0., 0., 0., 0., 0., 0., 0., 0., 0., 0., 0.,
          0., 0., 0., 0., 0., 0., 0., 0., 0., 3.22580636e-02, 0., 0., 0.,
          0., 0., 0., 0., 0., 0., 0., 0., 0., 0., 0., 0., 0., 0., 0., 0.,
          0., 0., 0., 6.45161271e-02, 0., 0., 0., 0., 0., 6.45161271e-02,
          0., 0., 0., 0., 0., 3.22580636e-02, 0., 0., 0., 0., 0., 0., 0.,
          0., 0., 0., 0., 0., 3.22580636e-02, 0., 0., 0., 0. ]
      - [ 0., 1.33333337e-02, 0., 0., 0., 0., 1.33333337e-02, 0.,
          1.33333337e-02, 0., 0., 1.33333337e-02, 0., 1.33333337e-02, 0.,
          0., 5.33333346e-02, 0., 0., 1.33333337e-02, 1.33333337e-02,
          1.33333337e-02, 1.33333337e-02, 0., 0., 0., 0., 1.33333337e-02,
          0., 0., 0., 1.33333337e-02, 0., 0., 2.66666673e-02, 0.,
          2.66666673e-02, 2.66666673e-02, 0., 0., 1.33333337e-02, 0., 0.,
          0., 0., 2.66666673e-02, 1.33333337e-02, 0., 0., 1.33333337e-02,
          0., 0., 1.33333337e-02, 0., 0., 2.66666673e-02, 1.33333337e-02,
          0., 0., 0., 0., 1.33333337e-02, 0., 0., 0., 0., 3.99999991e-02,
          0., 1.33333337e-02, 0., 0., 1.33333337e-02, 0., 0., 0.,
          1.33333337e-02, 1.33333337e-02, 0., 0., 0., 0., 0., 0., 0., 0.,
          0., 0., 2.66666673e-02, 0., 2.66666673e-02, 0., 0., 0., 0., 0.,
          0., 0., 0., 1.33333337e-02, 0., 2.66666673e-02, 0., 0., 0.,
          1.33333337e-02, 1.33333337e-02, 0., 0., 1.33333337e-02, 0., 0.,
          0., 2.66666673e-02, 0., 1.33333337e-02, 0., 0., 0., 0., 0.,
          1.33333337e-02, 1.33333337e-02, 0., 0., 1.33333337e-02, 0., 0.,
          0., 1.33333337e-02, 0., 3.99999991e-02, 1.33333337e-02, 0., 0.,
          1.33333337e-02, 1.33333337e-02, 1.33333337e-02, 0., 0., 0., 0.,
          1.33333337e-02, 0., 1.33333337e-02, 0., 0., 0., 0., 0., 0.,
          2.66666673e-02, 0., 0., 1.33333337e-02, 2.66666673e-02, 0., 0.,
          0., 0., 1.33333337e-02, 0., 0., 0., 0., 0., 0., 0., 0.,
          1.33333337e-02, 0., 0., 0., 0., 0., 0., 0., 1.33333337e-02, 0.,
          1.33333337e-02, 0., 0., 0., 0., 1.33333337e-02, 0.,
          1.33333337e-02 ]
      - [ 4.16666679e-02, 0., 0., 0., 0., 0., 0., 0., 0., 0., 0., 0., 0.,
          0., 0., 0., 8.33333358e-02, 0., 4.16666679e-02, 0., 0., 0., 0.,
          0., 0., 0., 0., 0., 0., 0., 4.16666679e-02, 4.16666679e-02, 0.,
          0., 0., 0., 4.16666679e-02, 0., 0., 0., 0., 0., 0., 0., 0.,
          4.16666679e-02, 0., 0., 0., 0., 4.16666679e-02, 0., 0., 0., 0.,
          4.16666679e-02, 4.16666679e-02, 0., 0., 0., 4.16666679e-02, 0.,
          0., 0., 4.16666679e-02, 0., 4.16666679e-02, 0., 0.,
          8.33333358e-02, 0., 0., 0., 0., 0., 0., 0., 0., 0., 0., 0., 0.,
          0., 0., 0., 0., 0., 0., 0., 0., 0., 0., 0., 0., 0., 0., 0., 0.,
          0., 0., 0., 0., 0., 0., 0., 0., 0., 0., 0., 0., 4.16666679e-02,
          0., 0., 0., 0., 0., 0., 0., 0., 0., 0., 0., 0., 0., 0., 0., 0.,
          4.16666679e-02, 4.16666679e-02, 0., 0., 0., 0., 0., 0.,
          4.16666679e-02, 0., 0., 0., 0., 0., 4.16666679e-02, 0., 0., 0.,
          0., 0., 0., 0., 0., 0., 0., 0., 0., 0., 0., 0., 0.,
          4.16666679e-02, 0., 0., 0., 0., 0., 0., 0., 0., 0., 0.,
          4.16666679e-02, 0., 0., 0., 0., 0., 0., 0., 0., 0., 0.,
          4.16666679e-02, 0., 0., 0., 0., 0. ]
      - [ 0., 0., 0., 0., 0., 0., 0., 0., 0., 0., 0., 0., 1.05263159e-01,
          0., 0., 0., 0., 0., 1.05263159e-01, 0., 0., 0., 0., 0., 0., 0.,
          0., 0., 0., 0., 0., 0., 0., 0., 0., 0., 0., 0., 0., 0.,
          5.26315793e-02, 0., 0., 0., 5.26315793e-02, 0., 0., 0., 0., 0.,
          0., 0., 5.26315793e-02, 0., 0., 5.26315793e-02, 0., 0., 0.,
          5.26315793e-02, 0., 0., 0., 0., 5.26315793e-02, 0.,
          1.05263159e-01, 0., 0., 0., 0., 0., 0., 0., 0., 0., 0., 0., 0.,
          0., 0., 0., 0., 0., 0., 0., 0., 0., 0., 0., 0., 0., 0., 0., 0.,
          0., 0., 0., 0., 0., 0., 0., 0., 0., 0., 0., 0., 0., 0., 0., 0.,
          0., 0., 5.26315793e-02, 0., 0., 0., 0., 0., 0., 0.,
          5.26315793e-02, 0., 0., 0., 0., 0., 0., 0., 5.26315793e-02, 0.,
          0., 0., 0., 0., 5.26315793e-02, 0., 0., 5.26315793e-02, 0., 0.,
          5.26315793e-02, 0., 0., 0., 0., 0., 0., 0., 0., 0., 0., 0., 0.,
          0., 0., 0., 0., 0., 0., 5.26315793e-02, 0., 0., 0., 0., 0., 0.,
          0., 0., 0., 0., 0., 0., 0., 0., 0., 0., 0., 0., 0., 0., 0., 0.,
          0., 0., 0. ]
      - [ 0., 0., 0., 0., 0., 0., 0., 0., 0., 0., 0., 0., 0., 0., 0., 0.,
          8.33333358e-02, 0., 0., 0., 0., 0., 0., 0., 0., 0., 0., 0., 0.,
          0., 0., 0., 0., 8.33333358e-02, 0., 0., 0., 0., 0., 0., 0., 0.,
          0., 0., 0., 0., 0., 8.33333358e-02, 0., 0., 0., 0., 0., 0., 0.,
          0., 0., 0., 0., 0., 0., 0., 0., 0., 0., 0., 0., 8.33333358e-02,
          0., 0., 0., 0., 0., 8.33333358e-02, 0., 0., 0., 0., 0., 0., 0.,
          8.33333358e-02, 0., 0., 0., 0., 0., 0., 0., 0., 8.33333358e-02,
          0., 0., 0., 0., 0., 0., 0., 0., 0., 0., 0., 0., 0., 0., 0., 0.,
          0., 0., 0., 0., 0., 0., 0., 0., 0., 0., 0., 0., 0.,
          8.33333358e-02, 0., 0., 0., 0., 0., 0., 0., 0., 0., 0., 0., 0.,
          0., 0., 0., 0., 0., 0., 0., 0., 0., 8.33333358e-02, 0., 0., 0.,
          0., 0., 0., 0., 1.66666672e-01, 0., 0., 8.33333358e-02, 0., 0.,
          0., 0., 0., 0., 0., 0., 0., 0., 0., 0., 0., 0., 0., 0., 0., 0.,
          0., 0., 0., 0., 0., 0., 0., 0., 0., 0., 0., 0., 0., 0. ]
      - [ 2.77777780e-02, 0., 0., 0., 0., 5.55555560e-02, 2.77777780e-02,
          2.77777780e-02, 0., 0., 0., 0., 0., 0., 0., 0., 2.77777780e-02,
          2.77777780e-02, 0., 0., 0., 0., 0., 2.77777780e-02, 0., 0., 0.,
          2.77777780e-02, 0., 0., 0., 0., 0., 0., 0., 0., 0.,
          2.77777780e-02, 0., 0., 0., 0., 0., 0., 0., 2.77777780e-02, 0.,
          0., 0., 0., 0., 0., 2.77777780e-02, 0., 0., 5.55555560e-02, 0.,
          0., 0., 0., 0., 0., 0., 5.55555560e-02, 0., 0., 5.55555560e-02,
          0., 0., 0., 0., 0., 2.77777780e-02, 0., 0., 0., 0., 0., 0., 0.,
          0., 0., 0., 0., 0., 0., 0., 0., 0., 0., 0., 0., 0., 0., 0.,
          2.77777780e-02, 0., 2.77777780e-02, 0., 0., 0., 0., 0., 0.,
          2.77777780e-02, 0., 0., 0., 0., 0., 2.77777780e-02, 0., 0.,
          2.77777780e-02, 0., 0., 0., 0., 0., 0., 0., 5.55555560e-02, 0.,
          0., 0., 2.77777780e-02, 0., 2.77777780e-02, 0., 2.77777780e-02,
          0., 0., 2.77777780e-02, 0., 0., 0., 0., 0., 0., 0., 0., 0., 0.,
          0., 0., 0., 0., 2.77777780e-02, 0., 0., 0., 0., 0., 0., 0., 0.,
          0., 0., 0., 0., 0., 0., 2.77777780e-02, 0., 0., 0.,
          5.55555560e-02, 0., 0., 0., 0., 2.77777780e-02, 0.,
          2.77777780e-02, 0., 0., 0., 0., 0., 0., 0., 0., 0., 0., 0., 0. ]
      - [ 9.52380970e-02, 0., 0., 0., 0., 0., 0., 0., 4.76190485e-02, 0.,
          0., 0., 0., 0., 0., 0., 1.42857149e-01, 0., 0., 0., 0., 0., 0.,
          0., 0., 0., 0., 0., 0., 0., 0., 0., 0., 0., 0., 0., 0.,
          4.76190485e-02, 4.76190485e-02, 0., 4.76190485e-02, 0., 0., 0.,
          0., 0., 0., 0., 0., 0., 0., 0., 0., 0., 0., 0., 0., 0., 0., 0.,
          0., 0., 0., 0., 0., 0., 0., 0., 0., 4.76190485e-02,
          4.76190485e-02, 0., 0., 0., 0., 0., 4.76190485e-02, 0., 0., 0.,
          0., 0., 0., 0., 0., 0., 0., 0., 4.76190485e-02, 0.,
          4.76190485e-02, 0., 0., 0., 0., 0., 0., 0., 0., 0., 0., 0., 0.,
          0., 0., 0., 0., 0., 0., 0., 0., 0., 0., 0., 0., 0., 0., 0., 0.,
          0., 0., 4.76190485e-02, 0., 0., 0., 0., 0., 0., 0., 0., 0.,
          9.52380970e-02, 0., 0., 0., 0., 0., 0., 0., 0., 0., 0., 0., 0.,
          0., 0., 0., 0., 0., 0., 4.76190485e-02, 0., 0., 0., 0., 0.,
          4.76190485e-02, 0., 0., 0., 0., 0., 0., 0., 0., 0., 0., 0., 0.,
          0., 0., 0., 0., 0., 0., 4.76190485e-02, 4.76190485e-02, 0., 0.,
          0., 0., 0., 0., 0., 0., 0. ]
      - [ 0., 0., 0., 0., 5.00000007e-02, 0., 0., 0., 0., 0., 0., 0., 0.,
          0., 0., 0., 0., 0., 0., 5.00000007e-02, 0., 0., 0., 0., 0., 0.,
          0., 0., 0., 0., 0., 0., 0., 0., 0., 0., 0., 0., 0., 0., 0., 0.,
          0., 0., 0., 0., 0., 0., 0., 0., 0., 0., 0., 0., 0., 0., 0.,
          5.00000007e-02, 5.00000007e-02, 0., 0., 0., 0., 0., 0., 0.,
          1.00000001e-01, 0., 0., 0., 1.00000001e-01, 0., 0., 0., 0., 0.,
          0., 0., 0., 0., 0., 0., 0., 0., 0., 0., 0., 5.00000007e-02, 0.,
          0., 0., 0., 0., 0., 0., 0., 0., 0., 1.50000006e-01, 0., 0., 0.,
          0., 0., 0., 0., 0., 0., 0., 0., 0., 0., 0., 0., 0.,
          5.00000007e-02, 0., 0., 0., 0., 0., 1.00000001e-01, 0., 0., 0.,
          0., 0., 5.00000007e-02, 0., 5.00000007e-02, 0., 0., 0., 0., 0.,
          0., 0., 0., 0., 0., 0., 0., 0., 0., 0., 0., 0., 0., 0., 0.,
          5.00000007e-02, 0., 0., 0., 0., 0., 0., 0., 0., 0., 0., 0., 0.,
          0., 0., 0., 0., 0., 0., 5.00000007e-02, 0., 0., 0., 0., 0., 0.,
          5.00000007e-02, 0., 0., 0., 0., 0., 0., 0., 0., 0. ]
      - [ 0., 0., 0., 0., 0., 0., 0., 0., 3.84615399e-02, 0., 0., 0., 0.,
          0., 0., 0., 3.84615399e-02, 0., 0., 0., 0., 0., 0., 0., 0., 0.,
          0., 0., 3.84615399e-02, 3.84615399e-02, 0., 0., 7.69230798e-02,
          0., 0., 0., 0., 0., 0., 0., 0., 0., 0., 0., 3.84615399e-02, 0.,
          0., 0., 0., 0., 3.84615399e-02, 0., 0., 0., 0., 0., 0., 0., 0.,
          0., 3.84615399e-02, 0., 0., 1.15384623e-01, 0., 0.,
          3.84615399e-02, 0., 0., 0., 0., 0., 0., 0., 0., 3.84615399e-02,
          0., 0., 0., 0., 0., 0., 0., 0., 0., 0., 0., 0., 0., 0., 0.,
          3.84615399e-02, 0., 0., 0., 0., 0., 0., 0., 0., 0., 0., 0., 0.,
          0., 0., 0., 0., 0., 0., 0., 3.84615399e-02, 0., 0., 0.,
          3.84615399e-02, 0., 3.84615399e-02, 0., 0., 0., 0., 0.,
          3.84615399e-02, 0., 0., 0., 0., 0., 0., 0., 0., 0.,
          3.84615399e-02, 0., 3.84615399e-02, 0., 0., 0., 0., 0., 0., 0.,
          0., 3.84615399e-02, 0., 0., 0., 0., 0., 0., 0., 0., 0., 0., 0.,
          0., 0., 0., 0., 0., 0., 0., 0., 0., 0., 0., 0., 0., 0., 0., 0.,
          0., 3.84615399e-02, 0., 0., 0., 0., 0., 0., 0., 7.69230798e-02,
          0., 3.84615399e-02, 0., 0. ]
      - [ 2.22222228e-02, 0., 0., 0., 4.44444455e-02, 0., 0., 0., 0.,
          2.22222228e-02, 0., 0., 0., 0., 0., 0., 2.22222228e-02, 0., 0.,
          0., 0., 0., 0., 0., 0., 0., 0., 0., 0., 0., 0., 0., 0., 0., 0.,
          0., 0., 0., 0., 4.44444455e-02, 0., 0., 0., 0., 0., 0., 0.,
          2.22222228e-02, 0., 2.22222228e-02, 0., 0., 0., 0., 0.,
          2.22222228e-02, 0., 2.22222228e-02, 0., 0., 0., 2.22222228e-02,
          0., 0., 2.22222228e-02, 0., 2.22222228e-02, 0., 0.,
          2.22222228e-02, 0., 0., 0., 2.22222228e-02, 4.44444455e-02, 0.,
          0., 0., 0., 0., 0., 2.22222228e-02, 0., 0., 0., 0., 0., 0., 0.,
          0., 0., 0., 0., 0., 2.22222228e-02, 0., 2.22222228e-02,
          2.22222228e-02, 0., 0., 0., 0., 0., 0., 0., 0., 0., 0., 0., 0.,
          2.22222228e-02, 0., 0., 6.66666701e-02, 0., 4.44444455e-02,
          2.22222228e-02, 2.22222228e-02, 0., 0., 0., 0., 0., 0., 0.,
          2.22222228e-02, 0., 0., 0., 0., 0., 0., 0., 0., 0.,
          2.22222228e-02, 0., 0., 0., 0., 0., 0., 0., 0., 2.22222228e-02,
          0., 0., 0., 0., 0., 4.44444455e-02, 0., 0., 2.22222228e-02,
          2.22222228e-02, 0., 2.22222228e-02, 2.22222228e-02, 0., 0., 0.,
          0., 0., 0., 0., 0., 2.22222228e-02, 0., 0., 0., 0.,
          2.22222228e-02, 0., 0., 0., 0., 8.88888910e-02, 0., 0., 0., 0.,
          0., 0., 0., 0., 0. ]
      - [ 0., 0., 0., 0., 0., 0., 0., 0., 0., 0., 0., 0., 0., 0., 0., 0.,
          0., 0., 0., 0., 0., 0., 0., 9.09090936e-02, 0., 0., 0., 0., 0.,
          0., 0., 0., 0., 0., 0., 0., 0., 0., 0., 0., 0., 0., 0., 0., 0.,
          0., 0., 0., 0., 0., 0., 0., 0., 0., 0., 0., 0., 0., 0., 0., 0.,
          0., 0., 0., 0., 0., 9.09090936e-02, 9.09090936e-02, 0., 0., 0.,
          0., 0., 0., 0., 0., 0., 0., 0., 0., 0., 0., 0., 0., 0., 0., 0.,
          0., 0., 0., 0., 0., 0., 0., 0., 0., 0., 9.09090936e-02, 0.,
          9.09090936e-02, 0., 0., 0., 0., 0., 9.09090936e-02, 0., 0., 0.,
          0., 0., 0., 0., 0., 0., 0., 0., 0., 0., 0., 0., 0., 0., 0., 0.,
          0., 0., 0., 0., 0., 0., 0., 0., 0., 0., 0., 0., 0., 0., 0., 0.,
          0., 0., 0., 0., 0., 0., 0., 0., 0., 9.09090936e-02, 0., 0., 0.,
          0., 0., 0., 0., 0., 0., 0., 0., 0., 0., 0., 0., 0., 0., 0., 0.,
          0., 9.09090936e-02, 0., 9.09090936e-02, 0., 0., 0., 0., 0., 0.,
          0., 0., 0., 0., 0., 1.81818187e-01 ]
      - [ 0., 0., 2.63157897e-02, 0., 0., 0., 0., 2.63157897e-02, 0., 0.,
          0., 0., 0., 0., 0., 5.26315793e-02, 2.63157897e-02, 0., 0., 0.,
          0., 0., 0., 2.63157897e-02, 0., 0., 0., 0., 0., 0., 0.,
          2.63157897e-02, 0., 0., 0., 2.63157897e-02, 5.26315793e-02, 0.,
          0., 0., 2.63157897e-02, 0., 0., 0., 0., 0., 0., 0.,
          5.26315793e-02, 0., 0., 0., 0., 0., 2.63157897e-02, 0., 0., 0.,
          0., 0., 0., 0., 0., 0., 0., 0., 0., 0., 0., 0., 0., 0., 0., 0.,
          2.63157897e-02, 0., 0., 0., 0., 0., 2.63157897e-02, 0., 0., 0.,
          0., 2.63157897e-02, 0., 0., 2.63157897e-02, 0., 0., 0., 0., 0.,
          0., 0., 0., 2.63157897e-02, 2.63157897e-02, 5.26315793e-02, 0.,
          0., 0., 0., 0., 0., 0., 0., 0., 0., 0., 0., 0., 2.63157897e-02,
          0., 0., 0., 0., 0., 0., 2.63157897e-02, 0., 0., 0., 0., 0., 0.,
          2.63157897e-02, 0., 0., 0., 0., 0., 0., 0., 5.26315793e-02, 0.,
          0., 2.63157897e-02, 0., 0., 2.63157897e-02, 0., 0., 0., 0., 0.,
          0., 0., 0., 2.63157897e-02, 0., 0., 2.63157897e-02,
          2.63157897e-02, 0., 0., 5.26315793e-02, 0., 0., 0., 0., 0., 0.,
          0., 0., 2.63157897e-02, 0., 0., 0., 0., 0., 0., 0., 0.,
          2.63157897e-02, 0., 0., 0., 0., 0., 0., 0., 0., 5.26315793e-02,
          0. ]
      - [ 0., 0., 0., 0., 0., 3.70370373e-02, 0., 0., 3.70370373e-02, 0.,
          0., 0., 0., 0., 0., 0., 0., 0., 0., 0., 0., 0., 0., 0., 0., 0.,
          0., 0., 0., 0., 0., 3.70370373e-02, 0., 0., 0., 0., 0., 0., 0.,
          0., 0., 0., 0., 1.48148149e-01, 0., 0., 0., 0., 0., 0., 0., 0.,
          3.70370373e-02, 0., 0., 0., 0., 0., 7.40740746e-02, 0., 0., 0.,
          0., 0., 0., 0., 3.70370373e-02, 3.70370373e-02, 0., 0.,
          3.70370373e-02, 0., 0., 0., 0., 0., 0., 0., 0., 0., 0., 0., 0.,
          0., 3.70370373e-02, 0., 0., 0., 0., 3.70370373e-02, 0., 0.,
          3.70370373e-02, 0., 0., 0., 0., 0., 0., 0., 0., 0., 0., 0., 0.,
          0., 0., 0., 0., 0., 0., 0., 0., 3.70370373e-02, 0.,
          3.70370373e-02, 0., 3.70370373e-02, 0., 0., 0., 0., 0., 0., 0.,
          3.70370373e-02, 0., 0., 0., 0., 0., 0., 0., 0., 0., 0., 0., 0.,
          0., 0., 0., 0., 0., 0., 0., 0., 0., 0., 0., 0., 0., 0., 0., 0.,
          3.70370373e-02, 0., 0., 0., 0., 0., 0., 0., 0., 0., 0., 0., 0.,
          0., 0., 3.70370373e-02, 0., 0., 0., 0., 0., 0., 7.40740746e-02,
          0., 0., 0., 0., 3.70370373e-02, 0., 0., 0., 7.40740746e-02 ]
      - [ 0., 0., 0., 0., 3.84615399e-02, 7.69230798e-02, 0., 0., 0., 0.,
          0., 0., 0., 0., 0., 3.84615399e-02, 0., 0., 0., 3.84615399e-02,
          3.84615399e-02, 0., 0., 3.84615399e-02, 0., 0., 0.,
          3.84615399e-02, 0., 0., 0., 0., 0., 0., 0., 0., 0.,
          3.84615399e-02, 0., 0., 0., 3.84615399e-02, 3.84615399e-02, 0.,
          0., 0., 0., 0., 0., 1.15384623e-01, 0., 3.84615399e-02, 0., 0.,
          0., 0., 0., 0., 3.84615399e-02, 0., 0., 0., 0., 0., 0., 0.,
          3.84615399e-02, 0., 0., 0., 0., 0., 0., 0., 0., 0., 0., 0.,
          3.84615399e-02, 0., 0., 3.84615399e-02, 0., 0., 0., 0., 0., 0.,
          0., 0., 0., 0., 0., 0., 0., 0., 0., 0., 0., 3.84615399e-02, 0.,
          0., 0., 0., 0., 0., 0., 0., 0., 3.84615399e-02, 0., 0., 0.,
          3.84615399e-02, 0., 0., 0., 0., 0., 0., 0., 0., 0., 0., 0., 0.,
          0., 0., 3.84615399e-02, 0., 0., 0., 0., 0., 0., 0., 0., 0., 0.,
          0., 0., 0., 0., 0., 0., 0., 0., 0., 0., 0., 0., 0., 0., 0., 0.,
          0., 0., 0., 3.84615399e-02, 0., 0., 0., 3.84615399e-02, 0., 0.,
          0., 0., 0., 0., 0., 0., 0., 0., 0., 0., 0., 0., 0., 0., 0., 0.,
          0., 0., 3.84615399e-02, 0., 0. ]
      - [ 0., 3.70370373e-02, 0., 0., 0., 0., 7.40740746e-02, 0., 0.,
          7.40740746e-02, 0., 0., 0., 0., 0., 0., 0., 0., 3.70370373e-02,
          0., 0., 0., 0., 0., 0., 0., 0., 0., 0., 0., 0., 3.70370373e-02,
          0., 0., 0., 0., 0., 0., 3.70370373e-02, 0., 0., 0., 0., 0., 0.,
          3.70370373e-02, 0., 0., 0., 0., 0., 0., 0., 0., 0., 0., 0., 0.,
          0., 0., 0., 0., 0., 7.40740746e-02, 0., 0., 3.70370373e-02, 0.,
          0., 0., 0., 0., 0., 0., 0., 0., 0., 0., 0., 0., 0., 0., 0., 0.,
          0., 0., 0., 0., 0., 0., 0., 0., 0., 0., 0., 3.70370373e-02, 0.,
          0., 0., 0., 3.70370373e-02, 0., 0., 0., 0., 0., 0., 0., 0., 0.,
          3.70370373e-02, 3.70370373e-02, 0., 0., 0., 0., 0., 0.,
          7.40740746e-02, 0., 0., 3.70370373e-02, 3.70370373e-02, 0., 0.,
          0., 0., 0., 0., 0., 0., 3.70370373e-02, 0., 0., 0., 0., 0., 0.,
          0., 0., 0., 0., 0., 0., 0., 0., 0., 0., 0., 0., 0., 0., 0., 0.,
          7.40740746e-02, 0., 3.70370373e-02, 0., 0., 0., 0., 0.,
          7.40740746e-02, 0., 0., 0., 0., 0., 0., 0., 0., 0., 0., 0., 0.,
          0., 0., 0., 0., 0., 0., 0., 0., 0., 0., 3.70370373e-02 ]
      - [ 0., 0., 0., 0., 0., 0., 0., 0., 0., 0., 0., 3.12500000e-02, 0.,
          0., 0., 0., 3.12500000e-02, 0., 0., 0., 0., 0., 0.,
          3.12500000e-02, 0., 0., 0., 0., 0., 3.12500000e-02,
          3.12500000e-02, 6.25000000e-02, 0., 0., 0., 0., 0., 0., 0., 0.,
          0., 0., 0., 0., 0., 0., 0., 0., 0., 0., 0., 0., 0., 0., 0., 0.,
          0., 0., 0., 0., 3.12500000e-02, 0., 0., 6.25000000e-02,
          3.12500000e-02, 0., 0., 0., 0., 0., 3.12500000e-02, 0., 0., 0.,
          0., 0., 0., 0., 0., 0., 0., 0., 3.12500000e-02, 0., 0., 0., 0.,
          0., 0., 0., 0., 0., 0., 0., 0., 0., 0., 0., 3.12500000e-02, 0.,
          3.12500000e-02, 0., 0., 3.12500000e-02, 3.12500000e-02, 0., 0.,
          0., 0., 0., 0., 0., 0., 0., 0., 0., 0., 0., 0., 0.,
          3.12500000e-02, 3.12500000e-02, 0., 0., 0., 0., 0.,
          9.37500000e-02, 0., 0., 0., 3.12500000e-02, 0., 3.12500000e-02,
          0., 0., 0., 3.12500000e-02, 0., 0., 0., 0., 0., 0., 0., 0., 0.,
          0., 0., 0., 0., 0., 0., 3.12500000e-02, 3.12500000e-02, 0., 0.,
          0., 0., 0., 0., 0., 0., 0., 0., 0., 0., 0., 0., 0.,
          3.12500000e-02, 3.12500000e-02, 0., 3.12500000e-02, 0., 0.,
          6.25000000e-02, 0., 0., 0., 0., 0., 0., 0., 0., 0. ]
      - [ 0., 2.63157897e-02, 5.26315793e-02, 0., 2.63157897e-02, 0., 0.,
          0., 0., 0., 0., 0., 0., 0., 0., 0., 2.36842111e-01, 0.,
          2.63157897e-02, 2.63157897e-02, 0., 0., 5.26315793e-02,
          5.26315793e-02, 0., 0., 0., 0., 2.63157897e-02, 0., 0., 0., 0.,
          0., 0., 0., 0., 0., 2.63157897e-02, 0., 0., 0., 0., 0., 0., 0.,
          2.63157897e-02, 2.63157897e-02, 0., 0., 0., 0., 0., 0., 0., 0.,
          0., 0., 0., 0., 2.63157897e-02, 0., 0., 0., 0., 0., 0., 0., 0.,
          0., 2.63157897e-02, 0., 0., 2.63157897e-02, 0., 0.,
          2.63157897e-02, 0., 0., 0., 0., 0., 0., 0., 2.63157897e-02, 0.,
          0., 0., 0., 0., 0., 0., 0., 0., 0., 0., 0., 0., 5.26315793e-02,
          0., 0., 0., 0., 0., 0., 0., 0., 0., 0., 2.63157897e-02, 0., 0.,
          0., 0., 0., 0., 0., 0., 0., 0., 0., 0., 0., 0., 0., 0., 0., 0.,
          0., 0., 0., 0., 0., 0., 0., 0., 0., 0., 0., 0., 0., 0.,
          2.63157897e-02, 0., 0., 0., 0., 0., 0., 0., 0., 0., 0., 0.,
          7.89473653e-02, 0., 0., 2.63157897e-02, 0., 0., 0., 0., 0., 0.,
          0., 0., 0., 0., 0., 0., 0., 2.63157897e-02, 0., 0., 0., 0.,
          2.63157897e-02, 0., 0., 0., 0., 0., 0., 0., 0., 0. ]
      - [ 2.63157897e-02, 0., 0., 0., 0., 0., 0., 0., 0., 0., 0., 0.,
          2.63157897e-02, 2.63157897e-02, 0., 5.26315793e-02,
          2.63157897e-02, 0., 0., 2.63157897e-02, 0., 0., 0., 0., 0., 0.,
          0., 0., 2.63157897e-02, 0., 0., 0., 0., 0., 0., 0., 0., 0., 0.,
          0., 2.63157897e-02, 2.63157897e-02, 0., 0., 0., 0., 0., 0.,
          2.63157897e-02, 0., 0., 0., 0., 0., 0., 0., 2.63157897e-02, 0.,
          0., 0., 2.63157897e-02, 0., 2.63157897e-02, 0., 0., 0., 0., 0.,
          0., 0., 0., 0., 0., 0., 2.63157897e-02, 0., 0., 0.,
          5.26315793e-02, 0., 0., 0., 5.26315793e-02, 0., 0., 0., 0., 0.,
          0., 0., 0., 0., 0., 0., 2.63157897e-02, 2.63157897e-02, 0., 0.,
          0., 0., 2.63157897e-02, 0., 0., 0., 0., 7.89473653e-02, 0., 0.,
          0., 0., 0., 0., 0., 0., 0., 0., 0., 0., 0., 0., 0., 0., 0., 0.,
          0., 0., 0., 0., 0., 0., 5.26315793e-02, 0., 0., 0., 0.,
          5.26315793e-02, 0., 0., 0., 0., 0., 0., 0., 0., 0., 0., 0., 0.,
          0., 0., 0., 0., 0., 0., 0., 0., 0., 0., 0., 0., 0., 0.,
          2.63157897e-02, 0., 0., 0., 0., 5.26315793e-02, 5.26315793e-02,
          0., 0., 0., 0., 0., 0., 2.63157897e-02, 0., 0., 0., 0., 0.,
          2.63157897e-02, 0., 5.26315793e-02, 0., 0. ]
      - [ 0., 0., 0., 0., 0., 3.44827585e-02, 0., 0., 0., 0., 0., 0., 0.,
          0., 0., 0., 0., 3.44827585e-02, 0., 0., 0., 0., 0.,
          3.44827585e-02, 0., 0., 0., 0., 0., 0., 0., 0., 6.89655170e-02,
          0., 0., 0., 0., 3.44827585e-02, 0., 0., 0., 0., 0.,
          3.44827585e-02, 0., 0., 3.44827585e-02, 6.89655170e-02, 0., 0.,
          0., 0., 0., 0., 0., 0., 0., 0., 0., 0., 0., 0., 0., 0., 0., 0.,
          0., 0., 0., 0., 0., 6.89655170e-02, 0., 0., 0., 0., 0., 0., 0.,
          0., 0., 0., 0., 0., 0., 0., 0., 0., 0., 0., 0., 6.89655170e-02,
          0., 0., 0., 0., 0., 0., 3.44827585e-02, 0., 0., 0., 0., 0., 0.,
          0., 0., 3.44827585e-02, 0., 0., 0., 0., 0., 0., 0., 0., 0., 0.,
          0., 0., 0., 6.89655170e-02, 0., 0., 0., 3.44827585e-02, 0., 0.,
          0., 0., 0., 0., 6.89655170e-02, 0., 0., 0., 3.44827585e-02, 0.,
          0., 0., 0., 0., 3.44827585e-02, 0., 0., 0., 0., 0., 0., 0., 0.,
          0., 0., 0., 0., 3.44827585e-02, 1.03448272e-01, 0., 0., 0., 0.,
          0., 0., 0., 0., 0., 0., 0., 0., 0., 3.44827585e-02,
          3.44827585e-02, 0., 0., 0., 0., 0., 0., 0., 0., 0., 0., 0., 0.,
          0., 0. ]
      - [ 0., 0., 0., 0., 0., 0., 0., 0., 0., 3.84615399e-02, 0., 0., 0.,
          0., 0., 0., 3.84615399e-02, 0., 0., 0., 0., 0., 0.,
          3.84615399e-02, 3.84615399e-02, 3.84615399e-02, 0., 0., 0.,
          3.84615399e-02, 0., 0., 0., 0., 0., 0., 3.84615399e-02, 0., 0.,
          0., 0., 0., 0., 0., 0., 0., 0., 0., 0., 0., 0., 0., 0., 0., 0.,
          0., 0., 0., 0., 0., 7.69230798e-02, 0., 0., 3.84615399e-02, 0.,
          3.84615399e-02, 7.69230798e-02, 0., 0., 3.84615399e-02, 0., 0.,
          0., 0., 0., 0., 0., 0., 0., 0., 0., 0., 0., 3.84615399e-02, 0.,
          0., 0., 0., 0., 0., 0., 0., 0., 0., 3.84615399e-02, 0., 0., 0.,
          0., 0., 0., 0., 0., 3.84615399e-02, 0., 0., 0., 0., 0.,
          3.84615399e-02, 0., 0., 0., 0., 0., 0., 0., 0., 0., 0., 0., 0.,
          0., 0., 0., 0., 3.84615399e-02, 0., 3.84615399e-02, 0., 0., 0.,
          0., 3.84615399e-02, 0., 0., 0., 0., 0., 0., 0., 0., 0., 0., 0.,
          0., 0., 0., 0., 0., 0., 0., 0., 3.84615399e-02, 3.84615399e-02,
          0., 0., 0., 0., 0., 3.84615399e-02, 0., 0., 0., 0., 0., 0., 0.,
          0., 0., 0., 0., 0., 0., 0., 0., 0., 0., 0., 3.84615399e-02, 0.,
          0., 0., 3.84615399e-02, 0., 0. ]
      - [ 0., 2.43902430e-02, 0., 0., 0., 0., 0., 0., 2.43902430e-02, 0.,
          0., 2.43902430e-02, 0., 0., 2.43902430e-02, 0., 0., 0., 0., 0.,
          0., 0., 0., 0., 0., 0., 4.87804860e-02, 0., 0., 0., 0., 0., 0.,
          2.43902430e-02, 0., 0., 0., 2.43902430e-02, 0., 0., 0., 0., 0.,
          0., 0., 0., 2.43902430e-02, 0., 2.43902430e-02, 0., 0., 0., 0.,
          4.87804860e-02, 0., 0., 0., 0., 2.43902430e-02, 0.,
          2.43902430e-02, 0., 0., 2.43902430e-02, 2.43902430e-02, 0., 0.,
          2.43902430e-02, 0., 0., 0., 2.43902430e-02, 2.43902430e-02, 0.,
          0., 2.43902430e-02, 0., 0., 0., 0., 0., 0., 2.43902430e-02, 0.,
          0., 0., 0., 0., 0., 0., 0., 2.43902430e-02, 0., 0.,
          2.43902430e-02, 0., 0., 0., 0., 0., 0., 0., 0., 2.43902430e-02,
          0., 0., 0., 0., 0., 0., 0., 0., 0., 0., 0., 0., 0., 0.,
          2.43902430e-02, 0., 0., 0., 0., 0., 0., 2.43902430e-02, 0., 0.,
          4.87804860e-02, 2.43902430e-02, 0., 0., 0., 0., 0.,
          4.87804860e-02, 0., 0., 0., 0., 0., 0., 0., 0., 2.43902430e-02,
          2.43902430e-02, 0., 0., 0., 0., 0., 0., 0., 0., 0., 0., 0., 0.,
          0., 0., 0., 0., 0., 0., 0., 0., 0., 0., 0., 0., 4.87804860e-02,
          0., 0., 2.43902430e-02, 0., 0., 0., 0., 0., 0., 0., 0., 0.,
          2.43902430e-02, 7.31707290e-02, 2.43902430e-02 ]
      - [ 0., 5.00000007e-02, 0., 0., 0., 0., 0., 0., 0., 0., 0., 0., 0.,
          0., 0., 0., 0., 0., 0., 0., 0., 0., 0., 0., 0., 0.,
          5.00000007e-02, 0., 5.00000007e-02, 0., 0., 5.00000007e-02,
          5.00000007e-02, 0., 0., 0., 0., 0., 5.00000007e-02, 0., 0., 0.,
          0., 0., 5.00000007e-02, 0., 0., 0., 0., 0., 0., 0., 0., 0., 0.,
          0., 0., 0., 0., 0., 0., 0., 0., 0., 0., 0., 0., 0., 0., 0., 0.,
          0., 5.00000007e-02, 0., 0., 0., 0., 0., 0., 0., 0., 0., 0., 0.,
          0., 0., 0., 0., 5.00000007e-02, 0., 0., 0., 0., 0., 0., 0., 0.,
          0., 0., 0., 0., 0., 0., 0., 0., 0., 0., 0., 0., 0., 0., 0., 0.,
          0., 0., 0., 0., 0., 0., 0., 0., 0., 0., 0., 0., 0., 0., 0., 0.,
          5.00000007e-02, 0., 0., 0., 0., 0., 0., 0., 0., 0.,
          5.00000007e-02, 0., 0., 5.00000007e-02, 0., 0., 0., 0., 0., 0.,
          0., 0., 5.00000007e-02, 0., 5.00000007e-02, 5.00000007e-02, 0.,
          5.00000007e-02, 0., 0., 0., 0., 5.00000007e-02, 5.00000007e-02,
          0., 0., 0., 0., 0., 0., 0., 0., 0., 0., 0., 0., 0., 0., 0., 0.,
          0., 0., 5.00000007e-02, 0., 5.00000007e-02, 0., 0. ]
      - [ 0., 0., 0., 0., 0., 0., 0., 0., 0., 0., 0., 0., 2.85714287e-02,
          0., 0., 0., 0., 0., 2.85714287e-02, 2.85714287e-02, 0., 0., 0.,
          0., 0., 0., 0., 0., 0., 0., 0., 0., 0., 0., 0., 0., 0.,
          2.85714287e-02, 2.85714287e-02, 0., 0., 0., 0., 0., 0.,
          5.71428575e-02, 0., 5.71428575e-02, 0., 0., 0., 0., 0., 0., 0.,
          0., 0., 0., 0., 0., 2.85714287e-02, 0., 0., 2.85714287e-02, 0.,
          0., 2.85714287e-02, 0., 0., 5.71428575e-02, 0., 0., 0., 0., 0.,
          2.85714287e-02, 0., 8.57142881e-02, 0., 0., 0., 0., 0., 0., 0.,
          0., 0., 0., 2.85714287e-02, 0., 0., 0., 0., 0., 5.71428575e-02,
          2.85714287e-02, 0., 0., 0., 2.85714287e-02, 0., 0., 0.,
          2.85714287e-02, 0., 0., 0., 0., 0., 0., 0., 0., 0., 0., 0., 0.,
          0., 0., 0., 0., 2.85714287e-02, 2.85714287e-02, 0., 0., 0., 0.,
          2.85714287e-02, 0., 0., 0., 0., 0., 0., 2.85714287e-02, 0., 0.,
          0., 0., 0., 0., 0., 0., 2.85714287e-02, 0., 0., 0., 0., 0., 0.,
          0., 2.85714287e-02, 0., 0., 0., 2.85714287e-02, 0., 0., 0., 0.,
          0., 0., 0., 0., 0., 0., 0., 0., 2.85714287e-02, 0., 0.,
          2.85714287e-02, 0., 0., 0., 0., 0., 0., 2.85714287e-02, 0., 0.,
          2.85714287e-02, 0., 0., 0., 0., 0. ]
      - [ 0., 0., 0., 0., 8.33333358e-02, 0., 0., 0., 0., 0., 0., 0., 0.,
          0., 0., 0., 0., 0., 0., 0., 0., 0., 0., 0., 0., 8.33333358e-02,
          0., 0., 0., 0., 0., 0., 0., 8.33333358e-02, 0., 0.,
          8.33333358e-02, 0., 0., 0., 0., 0., 0., 0., 0., 0., 0., 0., 0.,
          0., 0., 8.33333358e-02, 0., 0., 0., 0., 0., 0., 0., 0., 0., 0.,
          0., 0., 0., 0., 1.66666672e-01, 0., 0., 0., 0., 0., 0., 0., 0.,
          0., 8.33333358e-02, 0., 0., 0., 0., 0., 0., 0., 0., 0., 0., 0.,
          0., 0., 0., 0., 0., 0., 0., 0., 0., 0., 0., 0., 0., 0., 0., 0.,
          0., 0., 0., 0., 0., 0., 0., 0., 0., 0., 0., 0., 0., 0., 0., 0.,
          0., 0., 0., 0., 0., 0., 1.66666672e-01, 0., 0., 0., 0., 0., 0.,
          0., 0., 0., 0., 0., 0., 0., 0., 0., 0., 0., 0., 0., 0., 0., 0.,
          0., 0., 0., 0., 0., 0., 0., 0., 0., 0., 0., 0., 0., 0., 0., 0.,
          0., 0., 1.66666672e-01, 0., 0., 0., 0., 0., 0., 0., 0., 0., 0.,
          0., 0., 0., 0., 0., 0., 0., 0. ]
      - [ 1.00000009e-01, 0., 0., 0., 3.33333351e-02, 0., 0., 0., 0., 0.,
          0., 0., 0., 0., 0., 0., 0., 0., 0., 0., 0., 0., 0.,
          3.33333351e-02, 3.33333351e-02, 3.33333351e-02, 0., 0., 0., 0.,
          0., 0., 0., 3.33333351e-02, 0., 0., 0., 3.33333351e-02, 0., 0.,
          0., 0., 0., 0., 0., 0., 0., 3.33333351e-02, 0., 3.33333351e-02,
          0., 0., 0., 0., 0., 0., 0., 0., 0., 3.33333351e-02, 0., 0.,
          6.66666701e-02, 3.33333351e-02, 3.33333351e-02, 0., 0., 0., 0.,
          0., 3.33333351e-02, 0., 0., 0., 0., 0., 0., 0., 0., 0., 0., 0.,
          0., 0., 3.33333351e-02, 0., 0., 3.33333351e-02, 0., 0., 0., 0.,
          0., 0., 0., 0., 0., 0., 0., 0., 0., 0., 0., 3.33333351e-02, 0.,
          3.33333351e-02, 0., 0., 0., 0., 0., 0., 0., 0., 0.,
          3.33333351e-02, 0., 0., 6.66666701e-02, 0., 3.33333351e-02, 0.,
          0., 0., 0., 0., 0., 3.33333351e-02, 3.33333351e-02, 0., 0., 0.,
          0., 0., 0., 0., 0., 0., 0., 0., 0., 0., 0., 0., 0., 0., 0., 0.,
          0., 0., 0., 3.33333351e-02, 0., 0., 0., 0., 0., 0., 0., 0., 0.,
          0., 0., 0., 0., 0., 0., 3.33333351e-02, 0., 0., 0., 0., 0., 0.,
          3.33333351e-02, 0., 0., 0., 0., 0., 0., 0., 0., 0., 0., 0. ]
      - [ 0., 0., 0., 0., 3.84615399e-02, 0., 0., 0., 0., 0., 0., 0., 0.,
          0., 0., 0., 3.84615399e-02, 0., 0., 0., 0., 0., 0.,
          3.84615399e-02, 0., 0., 0., 0., 0., 0., 0., 0., 0., 0., 0., 0.,
          0., 0., 0., 0., 0., 3.84615399e-02, 0., 0., 0., 0., 0., 0.,
          3.84615399e-02, 0., 0., 3.84615399e-02, 0., 3.84615399e-02, 0.,
          0., 0., 0., 3.84615399e-02, 0., 0., 0., 3.84615399e-02,
          3.84615399e-02, 7.69230798e-02, 0., 0., 0., 0., 0.,
          3.84615399e-02, 0., 0., 0., 0., 0., 0., 0., 0., 0.,
          3.84615399e-02, 3.84615399e-02, 0., 0., 0., 0., 0., 0., 0.,
          3.84615399e-02, 0., 0., 0., 0., 0., 0., 0., 0., 0., 0., 0., 0.,
          0., 0., 0., 0., 0., 0., 0., 0., 0., 0., 0., 0., 0., 0., 0., 0.,
          0., 0., 0., 0., 0., 0., 0., 0., 0., 0., 0., 3.84615399e-02, 0.,
          0., 0., 0., 0., 0., 0., 0., 0., 0., 0., 0., 0., 0., 0.,
          3.84615399e-02, 0., 0., 0., 0., 0., 0., 3.84615399e-02, 0.,
          3.84615399e-02, 0., 0., 3.84615399e-02, 0., 0., 0., 0., 0., 0.,
          0., 0., 0., 0., 0., 0., 3.84615399e-02, 7.69230798e-02, 0., 0.,
          0., 0., 0., 0., 0., 0., 0., 0., 0., 7.69230798e-02, 0., 0. ]
      - [ 0., 1.47058824e-02, 0., 0., 1.47058824e-02, 0., 1.47058824e-02,
          0., 0., 0., 1.47058824e-02, 0., 0., 0., 0., 2.94117648e-02,
          2.94117648e-02, 0., 0., 1.47058824e-02, 0., 1.47058824e-02, 0.,
          0., 0., 0., 0., 0., 0., 1.47058824e-02, 0., 0., 0., 0., 0.,
          1.47058824e-02, 0., 2.94117648e-02, 0., 0., 2.94117648e-02, 0.,
          0., 0., 0., 0., 0., 0., 1.47058824e-02, 0., 0., 0., 0., 0., 0.,
          0., 0., 1.47058824e-02, 1.47058824e-02, 0., 0., 0.,
          1.47058824e-02, 1.47058824e-02, 0., 2.94117648e-02,
          2.94117648e-02, 0., 0., 2.94117648e-02, 1.47058824e-02, 0., 0.,
          0., 1.47058824e-02, 0., 0., 0., 1.47058824e-02, 0., 0.,
          2.94117648e-02, 0., 1.47058824e-02, 0., 0., 2.94117648e-02,
          2.94117648e-02, 0., 1.47058824e-02, 0., 0., 0., 0.,
          1.47058824e-02, 0., 0., 4.41176482e-02, 0., 0., 1.47058824e-02,
          0., 1.47058824e-02, 0., 0., 0., 1.47058824e-02, 0., 0., 0., 0.,
          1.47058824e-02, 0., 0., 0., 0., 0., 0., 0., 0., 1.47058824e-02,
          0., 0., 0., 2.94117648e-02, 1.47058824e-02, 0., 1.47058824e-02,
          1.47058824e-02, 0., 0., 4.41176482e-02, 1.47058824e-02, 0., 0.,
          1.47058824e-02, 0., 0., 1.47058824e-02, 0., 1.47058824e-02, 0.,
          0., 0., 0., 0., 0., 0., 0., 0., 0., 0., 0., 0., 1.47058824e-02,
          0., 0., 0., 0., 2.94117648e-02, 0., 0., 0., 0., 0., 0., 0., 0.,
          0., 0., 0., 0., 0., 0., 0., 0., 2.94117648e-02, 0., 0., 0.,
          1.47058824e-02, 1.47058824e-02, 0., 2.94117648e-02, 0., 0. ]
      - [ 0., 0., 0., 0., 0., 0., 0., 0., 0., 0., 0., 0., 0., 0., 0., 0.,
          0., 0., 0., 0., 0., 0., 0., 0., 0., 0., 0., 5.26315793e-02,
          5.26315793e-02, 0., 0., 0., 0., 0., 0., 0., 0., 0.,
          5.26315793e-02, 0., 0., 0., 0., 0., 0., 0., 0., 0., 0., 0., 0.,
          0., 0., 0., 0., 0., 0., 0., 0., 0., 5.26315793e-02, 0.,
          5.26315793e-02, 5.26315793e-02, 5.26315793e-02, 5.26315793e-02,
          0., 0., 0., 0., 0., 0., 0., 0., 0., 0., 0., 0., 0., 0.,
          5.26315793e-02, 0., 5.26315793e-02, 0., 0., 0., 0., 0., 0., 0.,
          5.26315793e-02, 0., 0., 0., 0., 0., 0., 0., 0., 5.26315793e-02,
          0., 0., 0., 0., 0., 5.26315793e-02, 0., 0., 0., 5.26315793e-02,
          0., 0., 0., 0., 0., 0., 0., 1.05263159e-01, 0., 0., 0.,
          5.26315793e-02, 0., 0., 0., 0., 0., 0., 0., 0., 0., 0., 0., 0.,
          0., 0., 0., 0., 0., 0., 0., 0., 0., 0., 0., 0., 0., 0., 0., 0.,
          0., 0., 0., 0., 0., 0., 0., 0., 0., 0., 0., 0., 0., 0., 0., 0.,
          0., 5.26315793e-02, 0., 0., 0., 0., 0., 0., 0., 0., 0., 0., 0.,
          0., 0., 0., 0., 0., 0., 5.26315793e-02 ]
      - [ 0., 0., 0., 0., 0., 0., 0., 0., 0., 0., 0., 0., 3.84615399e-02,
          0., 0., 0., 0., 0., 0., 3.84615399e-02, 0., 0., 0.,
          3.84615399e-02, 0., 0., 0., 0., 0., 0., 0., 0., 0., 0., 0., 0.,
          0., 0., 0., 0., 3.84615399e-02, 0., 0., 0., 0., 0., 0.,
          3.84615399e-02, 0., 3.84615399e-02, 0., 0., 0., 0., 0., 0., 0.,
          0., 0., 0., 0., 0., 0., 0., 0., 0., 0., 0., 0., 0., 0., 0., 0.,
          0., 0., 7.69230798e-02, 3.84615399e-02, 0., 0., 0., 0., 0.,
          3.84615399e-02, 0., 0., 0., 0., 0., 0., 0., 0., 0., 0., 0., 0.,
          0., 0., 0., 0., 0., 0., 0., 0., 0., 0., 0., 0., 0.,
          3.84615399e-02, 0., 3.84615399e-02, 0., 7.69230798e-02, 0., 0.,
          0., 1.15384623e-01, 0., 0., 0., 0., 0., 0., 3.84615399e-02, 0.,
          3.84615399e-02, 0., 0., 0., 0., 0., 0., 3.84615399e-02, 0., 0.,
          0., 0., 0., 0., 0., 0., 0., 0., 0., 7.69230798e-02,
          3.84615399e-02, 0., 0., 0., 0., 0., 0., 0., 0., 3.84615399e-02,
          0., 0., 3.84615399e-02, 0., 0., 0., 0., 0., 0., 0., 0., 0., 0.,
          0., 0., 0., 0., 0., 3.84615399e-02, 0., 0., 0., 0., 0., 0., 0.,
          0., 0., 0., 0., 0. ]
      - [ 0., 2.43902430e-02, 0., 0., 0., 0., 0., 0., 2.43902430e-02, 0.,
          0., 0., 0., 0., 0., 0., 2.43902430e-02, 0., 0., 2.43902430e-02,
          0., 0., 0., 0., 0., 0., 0., 0., 0., 0., 0., 0., 0., 0., 0., 0.,
          0., 0., 0., 0., 0., 0., 0., 0., 0., 2.43902430e-02, 0., 0., 0.,
          0., 0., 0., 0., 0., 0., 0., 0., 0., 2.43902430e-02, 0.,
          4.87804860e-02, 2.43902430e-02, 0., 0., 0., 0., 0., 0., 0., 0.,
          0., 0., 0., 0., 0., 0., 0., 0., 0., 0., 0., 0., 0., 0., 0., 0.,
          0., 2.43902430e-02, 0., 0., 0., 2.43902430e-02, 0.,
          2.43902430e-02, 0., 0., 2.43902430e-02, 0., 0., 0.,
          2.43902430e-02, 0., 2.43902430e-02, 0., 0., 0., 0., 0., 0., 0.,
          4.87804860e-02, 0., 4.87804860e-02, 0., 2.43902430e-02, 0., 0.,
          0., 0., 2.43902430e-02, 0., 7.31707290e-02, 0., 0., 0.,
          2.43902430e-02, 0., 0., 0., 0., 2.43902430e-02, 0., 0., 0.,
          2.43902430e-02, 0., 0., 0., 2.43902430e-02, 2.43902430e-02, 0.,
          0., 0., 0., 0., 0., 0., 2.43902430e-02, 0., 0., 0., 0., 0.,
          2.43902430e-02, 0., 0., 0., 4.87804860e-02, 0., 0., 0., 0., 0.,
          0., 0., 2.43902430e-02, 0., 0., 0., 0., 2.43902430e-02, 0.,
          2.43902430e-02, 2.43902430e-02, 0., 0., 0., 2.43902430e-02, 0.,
          0., 2.43902430e-02, 2.43902430e-02, 0., 0., 2.43902430e-02, 0. ]
      - [ 0., 0., 0., 0., 0., 0., 0., 3.03030312e-02, 0., 0., 0., 0., 0.,
          0., 0., 3.03030312e-02, 6.06060624e-02, 0., 0., 0., 0., 0., 0.,
          0., 3.03030312e-02, 0., 0., 0., 0., 0., 0., 0., 0., 0., 0., 0.,
          0., 3.03030312e-02, 0., 0., 0., 0., 0., 0., 0., 0., 0., 0., 0.,
          0., 0., 0., 0., 0., 0., 0., 0., 0., 0., 0., 0., 0., 0., 0.,
          3.03030312e-02, 0., 3.03030312e-02, 0., 3.03030312e-02, 0., 0.,
          0., 0., 0., 0., 0., 0., 0., 0., 0., 0., 0., 0., 0., 0., 0., 0.,
          3.03030312e-02, 0., 0., 0., 0., 0., 0., 6.06060624e-02, 0., 0.,
          0., 0., 6.06060624e-02, 0., 0., 0., 0., 0., 0., 0., 0., 0., 0.,
          0., 0., 3.03030312e-02, 0., 0., 3.03030312e-02, 0., 0., 0., 0.,
          6.06060624e-02, 0., 0., 0., 3.03030312e-02, 0., 0., 0., 0., 0.,
          0., 0., 0., 0., 0., 3.03030312e-02, 0., 0., 0., 0., 0., 0., 0.,
          0., 0., 0., 0., 0., 0., 0., 6.06060624e-02, 0., 0.,
          3.03030312e-02, 9.09090936e-02, 0., 0., 0., 0., 3.03030312e-02,
          0., 0., 0., 0., 0., 0., 9.09090936e-02, 0., 0., 0., 0., 0., 0.,
          3.03030312e-02, 0., 0., 0., 0., 0., 0., 3.03030312e-02, 0., 0.,
          3.03030312e-02, 0., 0. ]
      - [ 0., 0., 0., 3.22580636e-02, 3.22580636e-02, 0., 0.,
          3.22580636e-02, 3.22580636e-02, 0., 0., 0., 0., 3.22580636e-02,
          6.45161271e-02, 3.22580636e-02, 3.22580636e-02, 0., 0., 0., 0.,
          3.22580636e-02, 0., 0., 0., 0., 3.22580636e-02, 3.22580636e-02,
          0., 0., 0., 0., 0., 0., 0., 0., 3.22580636e-02, 0., 0., 0., 0.,
          0., 3.22580636e-02, 0., 0., 0., 0., 0., 0., 0., 0., 0., 0., 0.,
          0., 0., 0., 0., 0., 0., 0., 3.22580636e-02, 0., 3.22580636e-02,
          0., 0., 0., 0., 3.22580636e-02, 0., 0., 0., 0., 0., 0., 0., 0.,
          0., 0., 0., 0., 0., 0., 0., 0., 0., 0., 3.22580636e-02, 0., 0.,
          0., 3.22580636e-02, 0., 0., 3.22580636e-02, 0., 0., 0., 0., 0.,
          0., 0., 0., 0., 0., 0., 0., 0., 0., 3.22580636e-02, 0., 0., 0.,
          3.22580636e-02, 0., 0., 0., 0., 3.22580636e-02, 0., 0., 0.,
          3.22580636e-02, 0., 6.45161271e-02, 0., 0., 0., 0., 0.,
          3.22580636e-02, 0., 0., 0., 0., 3.22580636e-02, 0., 0., 0., 0.,
          0., 0., 0., 0., 0., 0., 0., 0., 0., 0., 0., 0., 3.22580636e-02,
          0., 0., 0., 0., 0., 0., 0., 3.22580636e-02, 0., 0., 0., 0., 0.,
          0., 3.22580636e-02, 0., 0., 0., 0., 0., 0., 0., 0., 0., 0., 0.,
          0., 0., 0., 0., 0., 0., 0. ]
      - [ 0., 0., 0., 0., 0., 0., 0., 0., 0., 0., 0., 0., 0., 0., 0., 0.,
          3.22580636e-02, 0., 3.22580636e-02, 0., 0., 0., 0., 0., 0., 0.,
          3.22580636e-02, 0., 0., 0., 0., 0., 0., 0., 0., 0., 0., 0., 0.,
          0., 0., 0., 0., 0., 0., 9.67741907e-02, 0., 3.22580636e-02, 0.,
          0., 0., 0., 0., 0., 0., 3.22580636e-02, 0., 0., 0., 0., 0., 0.,
          0., 0., 0., 0., 0., 6.45161271e-02, 0., 0., 0., 3.22580636e-02,
          0., 0., 0., 0., 0., 0., 0., 0., 0., 0., 0., 0., 0., 0., 0., 0.,
          0., 0., 3.22580636e-02, 0., 0., 0., 0., 0., 0., 0., 0., 0.,
          3.22580636e-02, 0., 0., 0., 0., 0., 3.22580636e-02, 0., 0., 0.,
          0., 0., 3.22580636e-02, 0., 0., 0., 3.22580636e-02, 0., 0., 0.,
          0., 3.22580636e-02, 3.22580636e-02, 0., 0., 0., 3.22580636e-02,
          0., 0., 0., 0., 0., 3.22580636e-02, 0., 0., 6.45161271e-02, 0.,
          0., 0., 0., 0., 0., 0., 0., 0., 0., 3.22580636e-02,
          3.22580636e-02, 3.22580636e-02, 0., 3.22580636e-02, 0., 0., 0.,
          0., 3.22580636e-02, 0., 3.22580636e-02, 0., 0., 0., 0.,
          6.45161271e-02, 0., 0., 0., 0., 0., 0., 0., 0., 0., 0., 0., 0.,
          0., 0., 0., 0., 0., 0., 0., 0., 3.22580636e-02, 0., 0. ]
      - [ 0., 0., 0., 2.63157897e-02, 0., 0., 0., 0., 0., 0., 0., 0., 0.,
          0., 0., 0., 0., 0., 0., 0., 0., 2.63157897e-02, 0., 0., 0., 0.,
          0., 0., 0., 2.63157897e-02, 0., 0., 0., 0., 0., 0.,
          2.63157897e-02, 5.26315793e-02, 2.63157897e-02, 0., 0.,
          2.63157897e-02, 0., 0., 0., 0., 0., 0., 0., 0., 0., 0.,
          2.63157897e-02, 0., 0., 0., 0., 0., 0., 0., 0., 5.26315793e-02,
          0., 0., 5.26315793e-02, 0., 0., 2.63157897e-02, 0., 0., 0., 0.,
          0., 0., 0., 2.63157897e-02, 0., 0., 0., 0., 2.63157897e-02,
          2.63157897e-02, 0., 0., 0., 0., 0., 0., 0., 2.63157897e-02, 0.,
          0., 0., 0., 0., 0., 0., 0., 5.26315793e-02, 0., 0., 0., 0., 0.,
          0., 2.63157897e-02, 0., 2.63157897e-02, 0., 0., 0.,
          2.63157897e-02, 0., 2.63157897e-02, 0., 0., 0., 0.,
          2.63157897e-02, 0., 0., 0., 0., 0., 0., 0., 0., 2.63157897e-02,
          0., 0., 0., 2.63157897e-02, 2.63157897e-02, 0., 0.,
          2.63157897e-02, 0., 0., 0., 2.63157897e-02, 0., 0., 0., 0., 0.,
          0., 0., 0., 0., 0., 2.63157897e-02, 0., 0., 0., 0., 0., 0., 0.,
          0., 0., 0., 5.26315793e-02, 0., 0., 0., 2.63157897e-02,
          2.63157897e-02, 0., 0., 0., 0., 0., 0., 0., 0., 2.63157897e-02,
          0., 0., 0., 0., 0., 2.63157897e-02, 0., 0., 2.63157897e-02, 0. ]
      - [ 0., 0., 0., 0., 0., 2.43902430e-02, 2.43902430e-02, 0., 0., 0.,
          0., 0., 0., 0., 2.43902430e-02, 0., 2.43902430e-02, 0., 0.,
          2.43902430e-02, 0., 0., 0., 4.87804860e-02, 0., 0., 0., 0.,
          2.43902430e-02, 0., 0., 4.87804860e-02, 0., 0., 0., 0., 0., 0.,
          0., 0., 0., 0., 0., 0., 0., 2.43902430e-02, 0., 0., 0.,
          2.43902430e-02, 0., 0., 0., 0., 0., 0., 0., 2.43902430e-02,
          2.43902430e-02, 0., 0., 0., 0., 0., 0., 2.43902430e-02, 0., 0.,
          0., 0., 0., 0., 0., 0., 0., 2.43902430e-02, 0., 0., 0., 0., 0.,
          2.43902430e-02, 0., 0., 0., 0., 0., 0., 0., 0., 0., 0., 0., 0.,
          0., 0., 0., 4.87804860e-02, 0., 4.87804860e-02, 0., 0., 0., 0.,
          0., 0., 0., 0., 0., 0., 0., 0., 0., 0., 0., 0., 0.,
          2.43902430e-02, 0., 0., 0., 0., 0., 2.43902430e-02,
          2.43902430e-02, 0., 0., 0., 2.43902430e-02, 0., 2.43902430e-02,
          0., 0., 0., 4.87804860e-02, 2.43902430e-02, 0., 0., 0., 0., 0.,
          0., 0., 0., 0., 0., 0., 0., 2.43902430e-02, 0., 0.,
          2.43902430e-02, 0., 0., 0., 0., 0., 2.43902430e-02, 0., 0., 0.,
          2.43902430e-02, 2.43902430e-02, 0., 0., 0., 2.43902430e-02, 0.,
          0., 0., 0., 4.87804860e-02, 0., 0., 0., 0., 2.43902430e-02, 0.,
          0., 0., 4.87804860e-02, 0., 0., 0., 0., 2.43902430e-02 ]
      - [ 1.00000001e-01, 0., 0., 0., 1.00000001e-01, 0., 0., 0., 0., 0.,
          0., 0., 0., 0., 0., 0., 0., 0., 0., 0., 0., 0., 0., 0., 0., 0.,
          0., 0., 0., 0., 0., 0., 0., 0., 0., 0., 0., 0., 1.00000001e-01,
          0., 0., 0., 0., 0., 0., 0., 0., 0., 0., 0., 0., 0., 0., 0., 0.,
          0., 0., 0., 0., 0., 0., 0., 0., 1.00000001e-01, 0., 0., 0., 0.,
          0., 0., 0., 0., 0., 0., 0., 0., 0., 0., 0., 0., 0., 0., 0., 0.,
          0., 0., 0., 0., 0., 0., 0., 0., 0., 0., 0., 0., 0., 0., 0., 0.,
          0., 0., 0., 0., 0., 0., 0., 0., 0., 0., 1.00000001e-01,
          1.00000001e-01, 0., 0., 0., 0., 0., 0., 0., 0., 0., 0., 0., 0.,
          0., 0., 0., 0., 0., 0., 0., 0., 0., 0., 0., 0., 0., 0., 0., 0.,
          0., 0., 1.00000001e-01, 0., 0., 0., 0., 0., 0., 0., 0., 0., 0.,
          0., 0., 0., 0., 0., 1.00000001e-01, 0., 0., 0., 1.00000001e-01,
          0., 0., 0., 0., 0., 0., 0., 0., 0., 0., 0., 0., 0., 0., 0., 0.,
          0., 0., 1.00000001e-01, 0., 0., 0., 0. ]
      - [ 0., 0., 0., 0., 5.88235296e-02, 0., 0., 0., 0., 0., 0., 0., 0.,
          0., 0., 0., 0., 0., 0., 0., 0., 0., 0., 0., 0., 0., 0., 0., 0.,
          5.88235296e-02, 0., 0., 0., 0., 0., 0., 0., 0., 5.88235296e-02,
          0., 5.88235296e-02, 0., 0., 0., 0., 5.88235296e-02, 0., 0., 0.,
          5.88235296e-02, 0., 0., 0., 0., 0., 0., 0., 5.88235296e-02, 0.,
          0., 0., 0., 0., 0., 0., 5.88235296e-02, 0., 0., 0., 0., 0., 0.,
          0., 0., 0., 0., 0., 0., 0., 0., 0., 0., 0., 0., 0.,
          5.88235296e-02, 0., 0., 0., 0., 0., 0., 0., 0., 0., 0., 0., 0.,
          0., 5.88235296e-02, 0., 0., 0., 0., 0., 5.88235296e-02, 0., 0.,
          5.88235296e-02, 0., 0., 0., 0., 0., 0., 0., 0., 0.,
          5.88235296e-02, 0., 0., 0., 0., 0., 0., 0., 0., 0., 0., 0., 0.,
          5.88235296e-02, 0., 0., 0., 0., 0., 0., 0., 0., 0., 0., 0., 0.,
          0., 0., 0., 0., 0., 0., 0., 0., 0., 0., 0., 0., 0., 0., 0., 0.,
          0., 0., 0., 0., 0., 0., 0., 1.17647059e-01, 0., 0., 0., 0., 0.,
          0., 0., 0., 0., 0., 0., 5.88235296e-02, 0., 0., 0., 0., 0., 0. ]
      - [ 3.57142873e-02, 1.78571437e-02, 0., 0., 0., 1.78571437e-02, 0.,
          0., 0., 1.78571437e-02, 0., 0., 0., 1.78571437e-02, 0., 0., 0.,
          0., 0., 0., 0., 0., 1.78571437e-02, 0., 0., 0., 0.,
          3.57142873e-02, 0., 1.78571437e-02, 0., 1.78571437e-02,
          1.78571437e-02, 0., 0., 0., 0., 0., 1.78571437e-02, 0., 0., 0.,
          0., 0., 0., 1.78571437e-02, 0., 1.78571437e-02, 0.,
          3.57142873e-02, 0., 0., 0., 1.78571437e-02, 1.78571437e-02, 0.,
          0., 0., 1.78571437e-02, 0., 0., 1.78571437e-02, 0., 0., 0., 0.,
          0., 0., 1.78571437e-02, 0., 0., 0., 0., 0., 0., 0., 0., 0., 0.,
          0., 0., 3.57142873e-02, 0., 0., 0., 1.78571437e-02, 0.,
          1.78571437e-02, 1.78571437e-02, 0., 1.78571437e-02, 0., 0., 0.,
          0., 1.78571437e-02, 0., 0., 0., 3.57142873e-02, 0., 0., 0., 0.,
          0., 1.78571437e-02, 0., 0., 0., 0., 0., 3.57142873e-02, 0.,
          3.57142873e-02, 1.78571437e-02, 1.78571437e-02, 0., 0., 0., 0.,
          3.57142873e-02, 0., 0., 0., 0., 0., 0., 0., 0., 0.,
          1.78571437e-02, 0., 0., 0., 0., 1.78571437e-02, 0., 0., 0., 0.,
          0., 0., 0., 0., 0., 0., 0., 0., 0., 0., 3.57142873e-02,
          1.78571437e-02, 0., 1.78571437e-02, 0., 0., 1.78571437e-02, 0.,
          1.78571437e-02, 0., 0., 0., 0., 0., 0., 0., 0., 0., 0., 0., 0.,
          1.78571437e-02, 1.78571437e-02, 1.78571437e-02, 0., 0.,
          5.35714328e-02, 0., 0., 0., 0., 3.57142873e-02, 0., 0., 0., 0. ]
      - [ 0., 0., 0., 0., 2.85714287e-02, 0., 0., 0., 0., 0., 0., 0., 0.,
          2.85714287e-02, 2.85714287e-02, 0., 0., 0., 0., 0., 0., 0., 0.,
          0., 0., 0., 0., 0., 0., 0., 0., 0., 0., 0., 0., 0., 0., 0., 0.,
          0., 2.85714287e-02, 2.85714287e-02, 0., 0., 2.85714287e-02, 0.,
          0., 0., 0., 0., 0., 0., 0., 2.85714287e-02, 2.85714287e-02, 0.,
          2.85714287e-02, 0., 0., 0., 0., 0., 0., 0., 0., 2.85714287e-02,
          5.71428575e-02, 0., 0., 0., 2.85714287e-02, 0., 0., 0., 0.,
          2.85714287e-02, 0., 2.85714287e-02, 0., 0., 0., 0.,
          2.85714287e-02, 0., 0., 0., 0., 0., 0., 0., 0., 0., 0., 0., 0.,
          0., 0., 0., 0., 0., 0., 0., 0., 0., 2.85714287e-02, 0.,
          2.85714287e-02, 0., 0., 2.85714287e-02, 0., 0., 0.,
          2.85714287e-02, 0., 0., 0., 0., 0., 2.85714287e-02, 0.,
          2.85714287e-02, 5.71428575e-02, 0., 0., 2.85714287e-02, 0., 0.,
          2.85714287e-02, 0., 0., 0., 0., 0., 0., 0., 0., 0., 0., 0.,
          2.85714287e-02, 2.85714287e-02, 2.85714287e-02, 0., 0., 0., 0.,
          0., 0., 0., 0., 0., 0., 0., 0., 0., 0., 0., 0., 0., 0., 0.,
          2.85714287e-02, 0., 0., 0., 0., 0., 2.85714287e-02, 0., 0., 0.,
          5.71428575e-02, 0., 0., 2.85714287e-02, 0., 0., 0., 0.,
          2.85714287e-02, 0., 0., 0., 0., 0. ]
      - [ 0., 0., 0., 0., 2.94117648e-02, 0., 2.94117648e-02, 0.,
          2.94117648e-02, 0., 0., 0., 0., 0., 0., 2.94117648e-02, 0., 0.,
          0., 0., 0., 0., 0., 0., 0., 0., 0., 0., 2.94117648e-02, 0., 0.,
          0., 0., 0., 2.94117648e-02, 0., 0., 0., 0., 0., 0., 0., 0., 0.,
          0., 0., 0., 0., 2.94117648e-02, 5.88235296e-02, 0., 0., 0.,
          5.88235296e-02, 0., 0., 2.94117648e-02, 2.94117648e-02, 0., 0.,
          0., 2.94117648e-02, 0., 2.94117648e-02, 2.94117648e-02, 0., 0.,
          0., 0., 0., 0., 2.94117648e-02, 0., 0., 0., 0., 0.,
          2.94117648e-02, 0., 0., 2.94117648e-02, 0., 0., 0., 0., 0., 0.,
          0., 0., 2.94117648e-02, 0., 0., 0., 0., 0., 0., 0., 0., 0., 0.,
          5.88235296e-02, 0., 0., 0., 0., 0., 0., 0., 0., 2.94117648e-02,
          0., 0., 0., 0., 2.94117648e-02, 0., 2.94117648e-02, 0., 0., 0.,
          0., 2.94117648e-02, 0., 0., 2.94117648e-02, 0., 0., 0., 0., 0.,
          0., 0., 0., 0., 0., 0., 0., 0., 0., 0., 0., 0., 0., 0., 0., 0.,
          0., 0., 0., 0., 0., 0., 0., 2.94117648e-02, 0., 0., 0., 0., 0.,
          5.88235296e-02, 0., 0., 2.94117648e-02, 0., 0., 0., 0., 0., 0.,
          0., 0., 0., 0., 2.94117648e-02, 0., 2.94117648e-02,
          2.94117648e-02, 0., 0., 0., 0., 0., 0., 0., 0., 0. ]
      - [ 0., 0., 0., 0., 0., 0., 9.52380970e-02, 4.76190485e-02, 0., 0.,
          0., 0., 0., 0., 0., 0., 0., 0., 0., 4.76190485e-02, 0., 0., 0.,
          0., 0., 0., 0., 0., 0., 0., 0., 0., 0., 0., 0., 0.,
          1.90476194e-01, 4.76190485e-02, 0., 0., 4.76190485e-02, 0., 0.,
          0., 0., 0., 4.76190485e-02, 0., 0., 0., 0., 0., 0., 0., 0., 0.,
          0., 0., 0., 0., 0., 0., 0., 4.76190485e-02, 4.76190485e-02, 0.,
          0., 0., 0., 0., 0., 0., 0., 0., 0., 0., 0., 0., 0., 0., 0., 0.,
          0., 0., 0., 0., 0., 4.76190485e-02, 0., 0., 0., 0., 0., 0., 0.,
          0., 0., 0., 0., 4.76190485e-02, 0., 0., 0., 0., 4.76190485e-02,
          4.76190485e-02, 0., 0., 0., 4.76190485e-02, 0., 0., 0., 0., 0.,
          0., 0., 0., 0., 0., 0., 4.76190485e-02, 0., 0., 0., 0., 0., 0.,
          0., 0., 0., 0., 0., 0., 0., 4.76190485e-02, 0., 0., 0., 0., 0.,
          0., 0., 0., 0., 0., 0., 0., 0., 0., 0., 4.76190485e-02, 0., 0.,
          0., 0., 0., 0., 0., 0., 0., 0., 0., 0., 0., 0., 0., 0., 0., 0.,
          0., 0., 0., 0., 0., 0., 0., 0., 0., 0., 0., 0., 0., 0., 0., 0. ]
      - [ 4.34782617e-02, 0., 0., 0., 0., 0., 0., 0., 0., 0., 0., 0., 0.,
          0., 4.34782617e-02, 0., 0., 0., 0., 0., 0., 0., 0., 0., 0.,
          4.34782617e-02, 0., 0., 0., 4.34782617e-02, 0., 0., 0., 0., 0.,
          0., 0., 0., 0., 0., 0., 0., 0., 0., 0., 0., 0., 4.34782617e-02,
          8.69565234e-02, 0., 0., 4.34782617e-02, 0., 0., 0., 0., 0., 0.,
          0., 0., 0., 0., 0., 4.34782617e-02, 0., 4.34782617e-02, 0., 0.,
          0., 0., 4.34782617e-02, 0., 0., 0., 0., 0., 0., 0., 0., 0., 0.,
          0., 0., 0., 4.34782617e-02, 0., 0., 0., 0., 4.34782617e-02, 0.,
          0., 0., 0., 0., 0., 0., 0., 0., 0., 0., 0., 0., 0., 0., 0., 0.,
          0., 0., 4.34782617e-02, 0., 4.34782617e-02, 0., 0., 0., 0., 0.,
          0., 0., 0., 0., 0., 0., 0., 0., 0., 4.34782617e-02, 0.,
          4.34782617e-02, 0., 0., 0., 0., 0., 0., 0., 0., 0., 0., 0., 0.,
          0., 0., 0., 0., 0., 0., 0., 0., 0., 4.34782617e-02, 0., 0., 0.,
          0., 0., 0., 0., 0., 0., 0., 0., 4.34782617e-02, 0., 0., 0., 0.,
          4.34782617e-02, 0., 0., 4.34782617e-02, 4.34782617e-02, 0., 0.,
          0., 0., 0., 0., 0., 0., 4.34782617e-02, 0., 0., 0., 0., 0. ]
      - [ 7.14285746e-02, 0., 0., 0., 0., 0., 0., 0., 0., 0., 0., 0., 0.,
          0., 0., 0., 0., 0., 0., 0., 0., 0., 0., 0., 0., 0., 0.,
          7.14285746e-02, 0., 0., 0., 0., 0., 0., 0., 0., 0., 0., 0., 0.,
          0., 0., 0., 0., 0., 0., 0., 0., 7.14285746e-02, 0., 0., 0., 0.,
          0., 7.14285746e-02, 0., 7.14285746e-02, 7.14285746e-02, 0., 0.,
          0., 0., 0., 0., 0., 0., 0., 0., 7.14285746e-02, 0., 0., 0., 0.,
          0., 0., 0., 0., 0., 0., 0., 0., 0., 0., 0., 0., 0., 0., 0., 0.,
          0., 0., 0., 0., 0., 0., 0., 7.14285746e-02, 0., 0., 0., 0., 0.,
          0., 2.14285731e-01, 0., 7.14285746e-02, 0., 0., 0.,
          7.14285746e-02, 0., 0., 0., 0., 0., 0., 0., 0., 0., 0., 0., 0.,
          0., 0., 0., 0., 0., 0., 0., 0., 0., 0., 0., 0., 0., 0., 0., 0.,
          0., 0., 0., 0., 0., 0., 0., 0., 0., 0., 0., 0., 0., 0., 0., 0.,
          0., 0., 0., 0., 7.14285746e-02, 0., 0., 0., 0., 0., 0., 0., 0.,
          0., 0., 0., 0., 0., 0., 0., 0., 0., 0., 0., 0., 0., 0., 0., 0.,
          0., 0., 0. ]
      - [ 0., 0., 7.69230798e-02, 0., 0., 0., 0., 0., 0., 0., 0., 0., 0.,
          0., 0., 0., 0., 0., 0., 0., 0., 0., 0., 0., 0., 0., 0., 0., 0.,
          0., 0., 0., 0., 0., 0., 0., 0., 0., 0., 0., 7.69230798e-02, 0.,
          0., 0., 0., 0., 0., 0., 0., 0., 0., 0., 0., 0., 0., 0., 0., 0.,
          0., 0., 7.69230798e-02, 2.30769247e-01, 0., 0., 0., 0., 0., 0.,
          0., 0., 0., 0., 0., 0., 0., 0., 0., 0., 0., 0., 7.69230798e-02,
          7.69230798e-02, 0., 0., 0., 0., 0., 0., 0., 0., 0., 0., 0., 0.,
          0., 0., 0., 0., 0., 0., 0., 0., 0., 0., 0., 0., 0., 0., 0., 0.,
          0., 0., 0., 0., 0., 0., 0., 0., 0., 0., 0., 0., 7.69230798e-02,
          0., 0., 7.69230798e-02, 0., 0., 0., 0., 0., 0., 0., 0., 0., 0.,
          0., 0., 0., 7.69230798e-02, 0., 0., 0., 0., 0., 0., 0., 0., 0.,
          0., 0., 0., 0., 0., 0., 0., 0., 0., 0., 0., 0., 0., 0., 0., 0.,
          0., 0., 0., 0., 0., 0., 0., 0., 0., 0., 0., 7.69230798e-02, 0.,
          0., 0., 7.69230798e-02, 0., 0., 0., 0., 0. ]
      - [ 4.25531901e-02, 0., 2.12765951e-02, 0., 0., 0., 0.,
          2.12765951e-02, 0., 0., 0., 0., 0., 0., 0., 0., 2.12765951e-02,
          0., 0., 0., 0., 2.12765951e-02, 0., 4.25531901e-02, 0., 0., 0.,
          0., 0., 0., 0., 0., 2.12765951e-02, 2.12765951e-02, 0., 0., 0.,
          2.12765951e-02, 0., 0., 4.25531901e-02, 0., 0., 2.12765951e-02,
          0., 0., 0., 0., 0., 0., 0., 0., 0., 4.25531901e-02, 0., 0.,
          2.12765951e-02, 0., 0., 4.25531901e-02, 0., 0., 2.12765951e-02,
          0., 0., 0., 0., 0., 0., 0., 6.38297871e-02, 0., 0., 0.,
          2.12765951e-02, 0., 6.38297871e-02, 0., 2.12765951e-02, 0., 0.,
          0., 0., 0., 0., 0., 2.12765951e-02, 0., 0., 0., 0., 0., 0., 0.,
          0., 0., 0., 0., 2.12765951e-02, 0., 0., 0., 0., 2.12765951e-02,
          2.12765951e-02, 0., 0., 0., 0., 0., 2.12765951e-02,
          4.25531901e-02, 0., 0., 0., 0., 0., 0., 0., 0., 0., 0., 0., 0.,
          0., 0., 0., 0., 0., 0., 0., 0., 0., 0., 0., 0., 0., 0., 0., 0.,
          2.12765951e-02, 0., 0., 0., 0., 0., 0., 0., 2.12765951e-02, 0.,
          2.12765951e-02, 0., 0., 0., 0., 0., 0., 0., 0., 0., 0.,
          2.12765951e-02, 2.12765951e-02, 2.12765951e-02, 0.,
          2.12765951e-02, 0., 2.12765951e-02, 2.12765951e-02, 0., 0., 0.,
          2.12765951e-02, 0., 0., 0., 0., 0., 0., 0., 0., 2.12765951e-02,
          0., 0., 0., 2.12765951e-02 ]
      - [ 2.70270277e-02, 0., 0., 0., 0., 0., 2.70270277e-02, 0., 0., 0.,
