%YAML:1.0
my_svm: !!opencv-ml-svm
   svm_type: C_SVC
   kernel: { type:LINEAR }
   C: 6.2500000000000000e+01
   term_criteria: { epsilon:9.9999999747524271e-07, iterations:1000 }
   var_all: 186
   var_count: 186
   class_count: 2
   class_labels: !!opencv-matrix
      rows: 1
      cols: 2
      dt: i
      data: [ 0, 1 ]
   sv_total: 150
   support_vectors:
      - [ 7.04225339e-03, 7.04225339e-03, 7.04225339e-03, 7.04225339e-03,
          0., 0., 0., 0., 0., 0., 1.40845068e-02, 0., 7.04225339e-03, 0.,
          0., 0., 7.04225339e-03, 0., 1.40845068e-02, 7.04225339e-03, 0.,
          0., 0., 3.52112651e-02, 0., 1.40845068e-02, 7.04225339e-03,
          7.04225339e-03, 0., 0., 0., 1.40845068e-02, 0., 0., 0.,
          1.40845068e-02, 7.04225339e-03, 7.04225339e-03, 7.04225339e-03,
          0., 0., 1.40845068e-02, 0., 0., 0., 7.04225339e-03,
          7.04225339e-03, 0., 1.40845068e-02, 7.04225339e-03, 0.,
          2.11267602e-02, 0., 0., 7.04225339e-03, 7.04225339e-03,
          3.52112651e-02, 1.40845068e-02, 0., 7.04225339e-03,
          7.04225339e-03, 0., 0., 0., 7.04225339e-03, 1.40845068e-02,
          1.40845068e-02, 7.04225339e-03, 7.04225339e-03, 0.,
          7.04225339e-03, 7.04225339e-03, 2.11267602e-02, 7.04225339e-03,
          0., 1.40845068e-02, 0., 0., 0., 7.04225339e-03, 7.04225339e-03,
          7.04225339e-03, 7.04225339e-03, 7.04225339e-03, 7.04225339e-03,
          7.04225339e-03, 0., 0., 0., 0., 0., 1.40845068e-02,
          2.11267602e-02, 2.81690136e-02, 0., 0., 0., 7.04225339e-03, 0.,
          0., 7.04225339e-03, 0., 0., 7.04225339e-03, 7.04225339e-03,
          1.40845068e-02, 0., 0., 0., 0., 0., 7.04225339e-03, 0.,
          1.40845068e-02, 0., 1.40845068e-02, 1.40845068e-02, 0.,
          7.04225339e-03, 0., 7.04225339e-03, 7.04225339e-03, 0., 0.,
          1.40845068e-02, 0., 0., 7.04225339e-03, 1.40845068e-02,
          7.04225339e-03, 7.04225339e-03, 0., 0., 0., 3.52112651e-02, 0.,
          0., 7.04225339e-03, 7.04225339e-03, 0., 0., 0., 7.04225339e-03,
          7.04225339e-03, 0., 7.04225339e-03, 2.81690136e-02,
          7.04225339e-03, 0., 7.04225339e-03, 0., 0., 0., 7.04225339e-03,
          0., 7.04225339e-03, 0., 7.04225339e-03, 0., 0., 1.40845068e-02,
          0., 1.40845068e-02, 7.04225339e-03, 0., 7.04225339e-03, 0., 0.,
          0., 7.04225339e-03, 0., 0., 1.40845068e-02, 0., 0., 0., 0.,
          1.40845068e-02, 0., 0., 0., 7.04225339e-03, 0., 0.,
          7.04225339e-03, 5.63380271e-02 ]
      - [ 0., 0., 0., 0., 0., 0., 0., 0., 0., 0., 0., 0., 1.12359554e-01,
          2.24719103e-02, 0., 0., 0., 1.12359552e-02, 0., 0., 0., 0., 0.,
          2.24719103e-02, 2.24719103e-02, 0., 0., 0., 0., 0., 0., 0., 0.,
          0., 0., 0., 3.37078646e-02, 0., 0., 0., 0., 0., 1.12359552e-02,
          0., 2.24719103e-02, 0., 5.61797768e-02, 1.12359552e-02, 0., 0.,
          1.12359552e-02, 0., 0., 0., 0., 0., 0., 0., 0., 0., 0., 0., 0.,
          0., 0., 0., 0., 0., 0., 0., 0., 0., 0., 0., 0., 0., 0., 0.,
          1.12359552e-02, 1.12359552e-02, 0., 0., 0., 0., 2.24719103e-02,
          0., 0., 0., 0., 0., 0., 0., 0., 3.37078646e-02, 0., 0., 0., 0.,
          0., 1.12359552e-02, 0., 1.12359552e-02, 0., 0., 0.,
          6.74157292e-02, 0., 4.49438207e-02, 0., 0., 0., 0., 0.,
          1.12359552e-02, 0., 0., 0., 0., 0., 1.12359552e-02, 0., 0.,
          4.49438207e-02, 1.12359552e-02, 0., 0., 0., 0., 0., 0., 0., 0.,
          0., 0., 3.37078646e-02, 1.12359552e-02, 0., 1.12359552e-02, 0.,
          2.24719103e-02, 0., 0., 0., 0., 0., 0., 6.74157292e-02, 0., 0.,
          0., 0., 0., 0., 0., 0., 2.24719103e-02, 2.24719103e-02,
          2.24719103e-02, 0., 0., 0., 0., 0., 0., 0., 1.12359552e-02, 0.,
          0., 1.12359552e-02, 0., 1.12359552e-02, 0., 0., 0., 0., 0., 0.,
          0., 0., 0., 3.37078646e-02, 0., 0., 0., 2.24719103e-02,
          6.74157292e-02 ]
      - [ 1.33333337e-02, 0., 0., 0., 0., 0., 0., 0., 0., 0.,
          1.33333337e-02, 0., 0., 0., 1.33333337e-02, 0., 2.66666673e-02,
          0., 0., 0., 0., 1.33333337e-02, 1.33333337e-02, 1.33333337e-02,
          0., 0., 2.66666673e-02, 0., 0., 0., 0., 0., 0., 0., 0.,
          1.33333337e-02, 0., 1.33333337e-02, 0., 0., 1.33333337e-02,
          1.33333337e-02, 0., 0., 1.33333337e-02, 1.33333337e-02, 0.,
          1.33333337e-02, 0., 0., 0., 0., 1.33333337e-02, 0.,
          1.33333337e-02, 0., 1.33333337e-02, 1.33333337e-02, 0., 0., 0.,
          0., 0., 1.33333337e-02, 0., 1.33333337e-02, 1.33333337e-02, 0.,
          0., 0., 2.66666673e-02, 0., 0., 2.66666673e-02, 0.,
          1.33333337e-02, 0., 0., 1.33333337e-02, 0., 1.33333337e-02, 0.,
          0., 0., 0., 0., 0., 0., 1.33333337e-02, 1.33333337e-02, 0., 0.,
          0., 0., 0., 1.33333337e-02, 0., 1.33333337e-02, 0., 0., 0., 0.,
          1.33333337e-02, 0., 0., 0., 0., 1.33333337e-02, 2.66666673e-02,
          0., 0., 0., 0., 1.33333337e-02, 0., 1.33333337e-02, 0., 0., 0.,
          0., 1.33333337e-02, 1.33333337e-02, 0., 2.66666673e-02, 0.,
          2.66666673e-02, 0., 0., 2.66666673e-02, 5.33333346e-02,
          1.33333337e-02, 0., 0., 3.99999991e-02, 1.33333337e-02,
          3.99999991e-02, 0., 1.33333337e-02, 0., 0., 2.66666673e-02, 0.,
          0., 0., 0., 0., 0., 0., 0., 0., 0., 0., 0., 0., 1.33333337e-02,
          0., 0., 0., 0., 0., 0., 2.66666673e-02, 0., 0., 0.,
          2.66666673e-02, 1.33333337e-02, 0., 0., 0., 0., 0.,
          1.33333337e-02, 0., 1.33333337e-02, 0., 0., 0., 0., 0., 0., 0.,
          0., 0., 2.66666673e-02, 1.33333337e-02 ]
      - [ 0., 0., 0., 0., 0., 0., 1.11111112e-01, 0., 0., 0., 0., 0., 0.,
          0., 0., 0., 0., 0., 0., 0., 0., 0., 0., 0., 1.11111112e-01, 0.,
          0., 0., 0., 0., 0., 0., 0., 0., 0., 0., 0., 0., 0., 0., 0., 0.,
          1.11111112e-01, 0., 0., 0., 0., 0., 0., 0., 0., 0., 0., 0., 0.,
          0., 0., 0., 0., 0., 0., 0., 0., 0., 0., 0., 0., 0., 0., 0., 0.,
          0., 0., 0., 0., 0., 0., 0., 0., 0., 0., 0., 0., 0., 0., 0., 0.,
          0., 0., 0., 0., 0., 0., 0., 0., 0., 0., 1.11111112e-01, 0., 0.,
          0., 0., 0., 1.11111112e-01, 0., 0., 0., 0., 0., 0., 0., 0., 0.,
          0., 0., 0., 0., 0., 0., 0., 0., 0., 0., 0., 1.11111112e-01, 0.,
          0., 0., 0., 0., 0., 0., 0., 0., 0., 0., 0., 0., 0., 0., 0., 0.,
          0., 1.11111112e-01, 0., 0., 0., 0., 0., 1.11111112e-01, 0., 0.,
          0., 0., 0., 0., 0., 0., 0., 0., 0., 0., 0., 0., 0., 0., 0., 0.,
          0., 0., 0., 0., 0., 0., 1.11111112e-01, 0., 0., 0., 0., 0., 0.,
          0., 0., 0., 0., 0. ]
      - [ 0., 0., 0., 0., 0., 0., 0., 0., 1.53846154e-02, 1.53846154e-02,
          0., 1.53846154e-02, 4.61538471e-02, 0., 1.53846154e-02, 0., 0.,
          1.53846154e-02, 0., 0., 0., 0., 0., 3.07692308e-02, 0., 0., 0.,
          0., 0., 0., 0., 0., 0., 0., 0., 0., 3.07692308e-02,
          3.07692308e-02, 0., 0., 0., 3.07692308e-02, 0., 0., 0., 0.,
          3.07692308e-02, 3.07692308e-02, 0., 0., 1.53846154e-02, 0., 0.,
          0., 0., 0., 1.53846154e-02, 3.07692308e-02, 1.53846154e-02, 0.,
          0., 1.53846154e-02, 4.61538471e-02, 0., 0., 0., 1.53846154e-02,
          0., 0., 0., 0., 0., 0., 0., 0., 0., 0., 1.53846154e-02,
          3.07692308e-02, 0., 1.53846154e-02, 1.53846154e-02, 0., 0.,
          1.53846154e-02, 0., 0., 0., 0., 0., 0., 1.53846154e-02, 0.,
          1.53846154e-02, 0., 0., 0., 1.53846154e-02, 0., 0., 0., 0., 0.,
          0., 0., 0., 0., 1.53846154e-02, 0., 0., 0., 0., 3.07692308e-02,
          0., 0., 0., 1.53846154e-02, 1.53846154e-02, 1.53846154e-02,
          1.53846154e-02, 0., 0., 3.07692308e-02, 1.53846154e-02, 0., 0.,
          0., 0., 0., 0., 1.53846154e-02, 0., 0., 0., 3.07692308e-02, 0.,
          0., 3.07692308e-02, 1.53846154e-02, 0., 1.53846154e-02, 0., 0.,
          0., 0., 0., 0., 0., 0., 0., 0., 0., 0., 0., 0., 0.,
          1.53846154e-02, 0., 0., 1.53846154e-02, 0., 0., 0., 0., 0., 0.,
          0., 1.53846154e-02, 0., 1.53846154e-02, 0., 0., 0., 0., 0., 0.,
          0., 0., 0., 1.53846154e-02, 1.53846154e-02, 0., 1.53846154e-02,
          0., 0., 3.07692308e-02 ]
      - [ 1.47058824e-02, 0., 1.47058824e-02, 0., 1.47058824e-02, 0.,
          1.47058824e-02, 0., 1.47058824e-02, 0., 0., 0., 1.47058824e-02,
          0., 0., 0., 0., 0., 0., 0., 0., 0., 0., 0., 0., 1.47058824e-02,
          0., 0., 0., 0., 0., 1.47058824e-02, 0., 0., 0., 1.47058824e-02,
          0., 1.47058824e-02, 0., 0., 0., 0., 0., 0., 1.47058824e-02, 0.,
          0., 0., 0., 0., 1.47058824e-02, 0., 0., 0., 0., 0., 0., 0., 0.,
          1.47058824e-02, 0., 0., 1.47058824e-02, 1.47058824e-02, 0.,
          1.47058824e-02, 0., 0., 0., 0., 0., 0., 0., 2.94117648e-02, 0.,
          2.94117648e-02, 0., 0., 0., 2.94117648e-02, 4.41176482e-02, 0.,
          1.47058824e-02, 0., 0., 1.47058824e-02, 0., 0., 1.47058824e-02,
          1.47058824e-02, 0., 1.47058824e-02, 0., 0., 0., 0.,
          1.47058824e-02, 0., 1.47058824e-02, 1.47058824e-02,
          1.47058824e-02, 1.47058824e-02, 0., 0., 0., 0., 0.,
          2.94117648e-02, 0., 0., 0., 0., 0., 4.41176482e-02, 0., 0.,
          1.47058824e-02, 1.47058824e-02, 4.41176482e-02, 0.,
          1.47058824e-02, 4.41176482e-02, 0., 0., 1.47058824e-02, 0., 0.,
          0., 0., 1.47058824e-02, 0., 0., 1.47058824e-02, 0.,
          1.47058824e-02, 0., 1.47058824e-02, 1.47058824e-02,
          2.94117648e-02, 0., 0., 0., 0., 1.47058824e-02, 1.47058824e-02,
          0., 0., 0., 0., 0., 1.47058824e-02, 0., 0., 0., 0., 0., 0., 0.,
          0., 0., 0., 0., 1.47058824e-02, 0., 0., 0., 0., 1.47058824e-02,
          0., 0., 0., 0., 0., 0., 2.94117648e-02, 0., 0., 0., 0., 0.,
          1.47058824e-02, 1.47058824e-02, 1.47058824e-02, 0.,
          1.47058824e-02, 0. ]
      - [ 0., 0., 0., 0., 0., 0., 3.12500000e-02, 0., 0., 0., 0., 0., 0.,
          0., 0., 0., 0., 0., 0., 0., 0., 0., 0., 0., 0., 0., 0., 0., 0.,
          0., 3.12500000e-02, 0., 0., 0., 0., 0., 0., 0., 0., 0., 0., 0.,
          0., 0., 0., 3.12500000e-02, 0., 0., 0., 0., 0., 0., 0., 0.,
          9.37500000e-02, 0., 0., 3.12500000e-02, 0., 0., 0., 0., 0., 0.,
          0., 0., 0., 0., 0., 0., 0., 0., 0., 0., 0., 0., 3.12500000e-02,
          0., 0., 0., 0., 0., 0., 0., 0., 0., 0., 0., 0., 0., 0., 0., 0.,
          0., 1.56250000e-01, 0., 0., 0., 0., 0., 0., 0., 0., 0.,
          6.25000000e-02, 0., 0., 0., 0., 0., 0., 0., 0., 0., 0., 0., 0.,
          0., 6.25000000e-02, 0., 0., 0., 0., 0., 0., 0., 0., 0., 0., 0.,
          0., 3.12500000e-02, 0., 0., 0., 0., 0., 0., 9.37500000e-02, 0.,
          1.56250000e-01, 3.12500000e-02, 0., 0., 0., 0., 0., 0.,
          3.12500000e-02, 0., 0., 0., 0., 0., 3.12500000e-02, 0., 0., 0.,
          0., 0., 0., 0., 0., 0., 0., 0., 3.12500000e-02, 0., 0., 0., 0.,
          0., 0., 0., 0., 0., 0., 0., 0., 6.25000000e-02, 0., 0., 0., 0.,
          0., 0. ]
      - [ 0., 0., 5.40540554e-02, 2.70270277e-02, 0., 0., 0., 0., 0., 0.,
          0., 0., 2.70270277e-02, 0., 0., 0., 0., 2.70270277e-02, 0., 0.,
          0., 0., 2.70270277e-02, 0., 0., 2.70270277e-02, 0., 0., 0.,
          2.70270277e-02, 0., 2.70270277e-02, 0., 2.70270277e-02, 0.,
          2.70270277e-02, 0., 2.70270277e-02, 0., 0., 0., 0., 0.,
          2.70270277e-02, 0., 0., 2.70270277e-02, 0., 0., 0.,
          2.70270277e-02, 0., 0., 0., 0., 0., 2.70270277e-02, 0., 0., 0.,
          0., 0., 0., 0., 0., 2.70270277e-02, 0., 0., 0., 0.,
          5.40540554e-02, 0., 0., 0., 0., 0., 0., 0., 0., 0., 0., 0., 0.,
          0., 0., 0., 0., 0., 0., 0., 0., 0., 0., 0., 0., 0.,
          5.40540554e-02, 0., 0., 2.70270277e-02, 0., 0., 0., 0., 0., 0.,
          2.70270277e-02, 2.70270277e-02, 2.70270277e-02, 0., 0., 0., 0.,
          0., 0., 0., 2.70270277e-02, 0., 2.70270277e-02, 0.,
          2.70270277e-02, 0., 0., 0., 0., 0., 0., 0., 0., 2.70270277e-02,
          0., 2.70270277e-02, 0., 0., 0., 0., 0., 2.70270277e-02, 0., 0.,
          0., 0., 0., 0., 0., 0., 0., 0., 0., 0., 0., 5.40540554e-02, 0.,
          0., 0., 0., 0., 0., 0., 0., 2.70270277e-02, 0., 0., 0., 0., 0.,
          2.70270277e-02, 0., 0., 0., 0., 2.70270277e-02, 0., 0., 0., 0.,
          2.70270277e-02, 0., 0., 0., 0., 0., 0., 0., 0., 0. ]
      - [ 1.76991150e-02, 0., 2.65486725e-02, 0., 1.76991150e-02,
          8.84955749e-03, 8.84955749e-03, 0., 0., 0., 0., 0., 0., 0., 0.,
          0., 8.84955749e-03, 0., 0., 0., 0., 0., 0., 0., 0., 0., 0.,
          8.84955749e-03, 0., 0., 0., 0., 0., 1.76991150e-02, 0.,
          8.84955749e-03, 0., 0., 0., 1.76991150e-02, 1.76991150e-02,
          1.76991150e-02, 8.84955749e-03, 0., 0., 1.76991150e-02, 0.,
          1.76991150e-02, 0., 1.76991150e-02, 8.84955749e-03, 0., 0.,
          1.76991150e-02, 2.65486725e-02, 0., 0., 0., 0., 0., 0., 0.,
          1.76991150e-02, 0., 8.84955749e-03, 8.84955749e-03, 0.,
          8.84955749e-03, 0., 0., 2.65486725e-02, 0., 1.76991150e-02,
          1.76991150e-02, 0., 1.76991150e-02, 8.84955749e-03, 0., 0., 0.,
          0., 8.84955749e-03, 1.76991150e-02, 0., 0., 1.76991150e-02, 0.,
          1.76991150e-02, 0., 0., 0., 8.84955749e-03, 0., 0.,
          1.76991150e-02, 2.65486725e-02, 0., 8.84955749e-03, 0., 0.,
          3.53982300e-02, 8.84955749e-03, 0., 0., 8.84955749e-03,
          8.84955749e-03, 0., 8.84955749e-03, 0., 0., 0., 8.84955749e-03,
          8.84955749e-03, 2.65486725e-02, 0., 0., 0., 0., 2.65486725e-02,
          1.76991150e-02, 0., 8.84955749e-03, 1.76991150e-02, 0., 0., 0.,
          0., 0., 0., 0., 0., 0., 0., 0., 0., 0., 0., 0., 1.76991150e-02,
          8.84955749e-03, 1.76991150e-02, 0., 8.84955749e-03,
          8.84955749e-03, 0., 0., 0., 0., 8.84955749e-03, 0.,
          1.76991150e-02, 0., 0., 0., 1.76991150e-02, 8.84955749e-03, 0.,
          0., 8.84955749e-03, 0., 0., 1.76991150e-02, 0., 0., 0., 0., 0.,
          8.84955749e-03, 0., 0., 0., 1.76991150e-02, 1.76991150e-02, 0.,
          5.30973449e-02, 0., 0., 0., 0., 1.76991150e-02, 0., 0., 0., 0.,
          8.84955749e-03, 0. ]
      - [ 0., 0., 3.79746854e-02, 0., 0., 0., 0., 0., 0., 0., 0., 0.,
          1.26582282e-02, 0., 1.26582282e-02, 0., 0., 0., 0., 0., 0., 0.,
          0., 1.26582282e-02, 3.79746854e-02, 1.26582282e-02,
          1.26582282e-02, 0., 1.26582282e-02, 2.53164563e-02,
          2.53164563e-02, 1.26582282e-02, 1.26582282e-02, 0., 0., 0., 0.,
          0., 1.26582282e-02, 0., 2.53164563e-02, 1.26582282e-02, 0., 0.,
          1.26582282e-02, 0., 0., 0., 0., 0., 0., 0., 1.26582282e-02, 0.,
          0., 0., 0., 2.53164563e-02, 1.26582282e-02, 1.26582282e-02,
          1.26582282e-02, 2.53164563e-02, 2.53164563e-02, 0.,
          2.53164563e-02, 1.26582282e-02, 0., 0., 1.26582282e-02, 0., 0.,
          0., 0., 0., 0., 1.26582282e-02, 0., 0., 0., 0., 0., 0.,
          1.26582282e-02, 0., 0., 0., 0., 0., 0., 0., 0., 0., 0.,
          1.26582282e-02, 0., 0., 0., 1.26582282e-02, 0., 1.26582282e-02,
          0., 0., 0., 1.26582282e-02, 0., 2.53164563e-02, 1.26582282e-02,
          1.26582282e-02, 0., 0., 0., 1.26582282e-02, 1.26582282e-02, 0.,
          0., 1.26582282e-02, 2.53164563e-02, 0., 0., 0., 1.26582282e-02,
          1.26582282e-02, 0., 3.79746854e-02, 1.26582282e-02, 0.,
          1.26582282e-02, 0., 0., 0., 1.26582282e-02, 2.53164563e-02, 0.,
          0., 0., 0., 0., 1.26582282e-02, 0., 0., 0., 0., 1.26582282e-02,
          1.26582282e-02, 1.26582282e-02, 0., 1.26582282e-02, 0., 0., 0.,
          0., 0., 0., 0., 0., 1.26582282e-02, 0., 1.26582282e-02, 0., 0.,
          0., 0., 0., 1.26582282e-02, 0., 1.26582282e-02, 0., 0., 0., 0.,
          0., 2.53164563e-02, 1.26582282e-02, 0., 0., 1.26582282e-02,
          1.26582282e-02, 0., 0., 0., 0., 0., 1.26582282e-02, 0.,
          1.26582282e-02, 1.26582282e-02 ]
      - [ 0., 0., 0., 2.58620679e-02, 0., 8.62068962e-03, 0.,
          1.72413792e-02, 8.62068962e-03, 8.62068962e-03, 8.62068962e-03,
          0., 8.62068962e-03, 1.72413792e-02, 8.62068962e-03, 0., 0., 0.,
          0., 0., 0., 0., 8.62068962e-03, 1.72413792e-02, 8.62068962e-03,
          8.62068962e-03, 0., 0., 8.62068962e-03, 8.62068962e-03, 0.,
          8.62068962e-03, 0., 0., 0., 8.62068962e-03, 0., 8.62068962e-03,
          0., 0., 4.31034490e-02, 0., 8.62068962e-03, 0., 8.62068962e-03,
          8.62068962e-03, 8.62068962e-03, 0., 0., 8.62068962e-03, 0., 0.,
          8.62068962e-03, 0., 8.62068962e-03, 0., 1.72413792e-02, 0., 0.,
          0., 0., 8.62068962e-03, 1.72413792e-02, 0., 8.62068962e-03,
          2.58620679e-02, 0., 2.58620679e-02, 0., 8.62068962e-03, 0., 0.,
          8.62068962e-03, 8.62068962e-03, 0., 8.62068962e-03, 0., 0.,
          8.62068962e-03, 1.72413792e-02, 0., 1.72413792e-02,
          8.62068962e-03, 8.62068962e-03, 8.62068962e-03, 0., 0., 0., 0.,
          8.62068962e-03, 1.72413792e-02, 0., 0., 8.62068962e-03,
          8.62068962e-03, 0., 0., 8.62068962e-03, 0., 8.62068962e-03,
          8.62068962e-03, 0., 8.62068962e-03, 8.62068962e-03, 0.,
          8.62068962e-03, 1.72413792e-02, 0., 0., 0., 8.62068962e-03, 0.,
          1.72413792e-02, 8.62068962e-03, 0., 0., 2.58620679e-02, 0.,
          8.62068962e-03, 8.62068962e-03, 0., 0., 8.62068962e-03,
          1.72413792e-02, 0., 1.72413792e-02, 0., 0., 8.62068962e-03, 0.,
          8.62068962e-03, 0., 0., 0., 0., 1.72413792e-02, 8.62068962e-03,
          0., 8.62068962e-03, 8.62068962e-03, 8.62068962e-03, 0., 0., 0.,
          0., 0., 8.62068962e-03, 0., 0., 1.72413792e-02, 0., 0.,
          8.62068962e-03, 0., 0., 8.62068962e-03, 8.62068962e-03, 0.,
          8.62068962e-03, 0., 0., 0., 0., 0., 0., 2.58620679e-02,
          8.62068962e-03, 0., 8.62068962e-03, 0., 0., 0., 8.62068962e-03,
          0., 0., 0., 0., 0., 8.62068962e-03, 1.72413792e-02,
          8.62068962e-03, 0., 0., 8.62068962e-03, 2.58620679e-02,
          8.62068962e-03 ]
      - [ 0., 0., 0., 0., 0., 0., 0., 0., 0., 0., 0., 1.00000001e-01, 0.,
          0., 1.00000001e-01, 0., 0., 0., 0., 0., 0., 1.00000001e-01, 0.,
          0., 0., 0., 0., 0., 0., 0., 0., 0., 0., 1.00000001e-01, 0., 0.,
          0., 0., 0., 0., 0., 0., 0., 0., 0., 0., 0., 0., 0., 0., 0., 0.,
          0., 0., 0., 0., 0., 0., 0., 0., 0., 0., 0., 0., 0., 0., 0., 0.,
          0., 0., 0., 0., 0., 0., 0., 0., 0., 0., 0., 0., 0., 0., 0., 0.,
          1.00000001e-01, 0., 0., 0., 0., 0., 0., 0., 0., 0., 0., 0., 0.,
          0., 0., 0., 0., 0., 0., 0., 0., 0., 0., 0., 0., 0., 0., 0., 0.,
          0., 0., 0., 1.00000001e-01, 0., 0., 0., 0., 0., 0., 0., 0.,
          1.00000001e-01, 0., 0., 0., 0., 0., 0., 0., 0., 0., 0., 0., 0.,
          0., 0., 1.00000001e-01, 0., 0., 0., 0., 0., 0., 0., 0., 0., 0.,
          0., 0., 1.00000001e-01, 0., 0., 0., 0., 0., 0., 0., 0., 0., 0.,
          0., 0., 0., 0., 0., 0., 0., 0., 0., 0., 0., 0., 0., 0., 0., 0.,
          0., 0., 0., 1.00000001e-01, 0., 0. ]
      - [ 0., 0., 0., 0., 0., 0., 0., 0., 0., 8.69565234e-02, 0., 0., 0.,
          0., 0., 0., 0., 0., 0., 0., 0., 0., 8.69565234e-02, 0., 0., 0.,
          0., 0., 8.69565234e-02, 0., 0., 0., 0., 0., 0., 0., 0.,
          4.34782617e-02, 0., 0., 0., 0., 0., 0., 0., 4.34782617e-02,
          4.34782617e-02, 0., 0., 0., 0., 0., 0., 0., 0., 0.,
          4.34782617e-02, 0., 0., 0., 4.34782617e-02, 0., 0., 0., 0., 0.,
          0., 0., 0., 0., 0., 0., 0., 0., 0., 0., 0., 0., 0., 0., 0., 0.,
          0., 0., 4.34782617e-02, 0., 0., 0., 0., 0., 0., 0., 0., 0., 0.,
          0., 0., 0., 0., 0., 0., 0., 0., 0., 0., 0., 4.34782617e-02, 0.,
          0., 0., 0., 0., 0., 0., 0., 0., 0., 0., 4.34782617e-02, 0., 0.,
          0., 0., 0., 4.34782617e-02, 0., 0., 0., 0., 0., 0., 0., 0., 0.,
          0., 0., 8.69565234e-02, 4.34782617e-02, 0., 8.69565234e-02, 0.,
          0., 0., 0., 0., 0., 8.69565234e-02, 0., 0., 0., 0., 0., 0., 0.,
          0., 0., 0., 0., 0., 0., 0., 0., 0., 0., 0., 0., 0., 0., 0., 0.,
          0., 0., 0., 0., 4.34782617e-02, 0., 0., 0., 0., 0., 0., 0., 0.,
          0., 0., 0. ]
      - [ 0., 1.72413792e-02, 1.72413792e-02, 0., 0., 0., 1.72413792e-02,
          1.72413792e-02, 0., 3.44827585e-02, 0., 0., 3.44827585e-02, 0.,
          1.72413792e-02, 0., 0., 0., 0., 0., 0., 1.72413792e-02, 0.,
          1.72413792e-02, 0., 1.72413792e-02, 0., 0., 0., 0., 0., 0., 0.,
          0., 0., 1.72413792e-02, 0., 1.72413792e-02, 0., 0., 0.,
          1.72413792e-02, 0., 0., 0., 0., 0., 0., 0., 0., 0., 0., 0., 0.,
          0., 1.72413792e-02, 1.72413792e-02, 0., 0., 0., 3.44827585e-02,
          0., 0., 0., 0., 0., 0., 0., 0., 0., 0., 0., 0., 1.72413792e-02,
          0., 0., 0., 0., 0., 0., 0., 0., 0., 1.72413792e-02,
          1.72413792e-02, 1.72413792e-02, 0., 0., 1.72413792e-02, 0., 0.,
          0., 0., 0., 0., 0., 0., 0., 0., 0., 0., 1.72413792e-02, 0.,
          1.72413792e-02, 0., 1.72413792e-02, 0., 1.72413792e-02, 0., 0.,
          1.72413792e-02, 0., 0., 1.72413792e-02, 0., 0., 3.44827585e-02,
          1.72413792e-02, 0., 0., 0., 0., 3.44827585e-02, 1.72413792e-02,
          0., 0., 0., 1.72413792e-02, 1.72413792e-02, 0., 0., 0., 0., 0.,
          0., 0., 0., 1.72413792e-02, 1.72413792e-02, 5.17241359e-02, 0.,
          0., 0., 1.72413792e-02, 0., 1.72413792e-02, 1.72413792e-02, 0.,
          1.72413792e-02, 0., 0., 0., 1.72413792e-02, 1.72413792e-02, 0.,
          0., 0., 0., 0., 0., 0., 5.17241359e-02, 0., 1.72413792e-02, 0.,
          3.44827585e-02, 0., 0., 0., 0., 1.72413792e-02, 0., 0., 0., 0.,
          0., 0., 0., 0., 0., 0., 0., 1.72413792e-02, 0., 0.,
          1.72413792e-02 ]
      - [ 0., 3.12500000e-02, 0., 0., 0., 0., 0., 0., 0., 3.12500000e-02,
          0., 0., 0., 0., 0., 0., 0., 0., 0., 0., 0., 0., 0., 0., 0., 0.,
          0., 0., 0., 0., 0., 0., 0., 3.12500000e-02, 0., 0., 0., 0.,
          3.12500000e-02, 0., 0., 0., 0., 0., 0., 0., 0., 0., 0., 0., 0.,
          0., 0., 0., 0., 0., 0., 0., 0., 0., 0., 0., 0., 3.12500000e-02,
          3.12500000e-02, 0., 0., 0., 0., 0., 0., 0., 0., 0., 0., 0., 0.,
          0., 3.12500000e-02, 0., 0., 0., 0., 0., 3.12500000e-02, 0., 0.,
          0., 0., 0., 0., 0., 0., 0., 0., 0., 0., 0., 0., 0., 0., 0., 0.,
          0., 0., 0., 9.37500000e-02, 0., 0., 0., 0., 3.12500000e-02, 0.,
          1.25000000e-01, 0., 0., 3.12500000e-02, 0., 0., 0., 0., 0., 0.,
          0., 0., 0., 0., 0., 0., 0., 0., 0., 0., 0., 6.25000000e-02, 0.,
          0., 3.12500000e-02, 6.25000000e-02, 0., 0., 0., 0., 0., 0., 0.,
          0., 0., 0., 0., 0., 0., 0., 0., 0., 0., 0., 0., 0., 0., 0., 0.,
          0., 0., 0., 0., 3.12500000e-02, 6.25000000e-02, 0., 0., 0., 0.,
          0., 0., 0., 0., 0., 0., 0., 0., 0., 0., 3.12500000e-02, 0.,
          3.12500000e-02, 1.56250000e-01 ]
      - [ 0., 0., 0., 0., 0., 0., 0., 0., 0., 0., 0., 0., 4.54545468e-02,
          0., 4.54545468e-02, 0., 0., 0., 0., 0., 0., 0., 0., 0., 0., 0.,
          0., 0., 0., 0., 0., 0., 4.54545468e-02, 0., 0., 0., 0., 0., 0.,
          0., 0., 4.54545468e-02, 0., 0., 0., 0., 0., 0., 0., 0., 0., 0.,
          0., 0., 0., 0., 0., 0., 4.54545468e-02, 0., 0., 0., 0., 0.,
          4.54545468e-02, 0., 0., 0., 0., 0., 0., 0., 0., 4.54545468e-02,
          0., 0., 0., 0., 0., 0., 0., 4.54545468e-02, 0., 4.54545468e-02,
          0., 4.54545468e-02, 0., 0., 0., 0., 0., 0., 0., 4.54545468e-02,
          0., 0., 0., 0., 0., 0., 4.54545468e-02, 0., 0., 0., 0., 0., 0.,
          0., 0., 0., 0., 0., 0., 4.54545468e-02, 0., 0., 4.54545468e-02,
          0., 0., 0., 0., 0., 4.54545468e-02, 0., 0., 9.09090936e-02, 0.,
          0., 0., 0., 0., 0., 0., 0., 0., 0., 0., 4.54545468e-02, 0., 0.,
          0., 0., 0., 0., 0., 0., 0., 0., 0., 0., 0., 0., 0., 0., 0., 0.,
          4.54545468e-02, 0., 0., 0., 0., 0., 0., 0., 0., 0., 0., 0., 0.,
          0., 0., 0., 0., 0., 4.54545468e-02, 0., 0., 0., 0., 0., 0., 0.,
          0., 0., 0., 9.09090936e-02 ]
      - [ 0., 0., 0., 0., 0., 0., 0., 0., 2.63157897e-02, 0., 0., 0., 0.,
          2.63157897e-02, 0., 0., 0., 0., 0., 0., 0., 0., 0., 0., 0., 0.,
          0., 0., 0., 0., 0., 0., 0., 5.26315793e-02, 0., 5.26315793e-02,
          0., 0., 0., 0., 0., 0., 0., 0., 0., 0., 2.63157897e-02, 0., 0.,
          0., 0., 0., 0., 0., 2.63157897e-02, 0., 0., 2.63157897e-02,
          2.63157897e-02, 0., 0., 2.63157897e-02, 0., 0., 0., 0., 0., 0.,
          0., 0., 0., 0., 0., 0., 2.63157897e-02, 0., 0., 0.,
          2.63157897e-02, 0., 0., 2.63157897e-02, 0., 0., 2.63157897e-02,
          2.63157897e-02, 0., 0., 2.63157897e-02, 2.63157897e-02, 0.,
          5.26315793e-02, 0., 2.63157897e-02, 0., 0., 0., 0., 0., 0., 0.,
          0., 0., 0., 0., 0., 0., 0., 0., 0., 0., 0., 0., 0., 0., 0.,
          7.89473653e-02, 2.63157897e-02, 0., 0., 0., 0., 0.,
          2.63157897e-02, 0., 0., 0., 2.63157897e-02, 0., 0., 0., 0., 0.,
          0., 2.63157897e-02, 0., 0., 0., 2.63157897e-02, 0.,
          2.63157897e-02, 0., 0., 0., 0., 0., 0., 0., 0., 0., 0., 0., 0.,
          0., 5.26315793e-02, 0., 0., 0., 0., 0., 2.63157897e-02, 0., 0.,
          0., 0., 5.26315793e-02, 0., 0., 0., 0., 0., 0., 0., 0., 0., 0.,
          0., 0., 0., 0., 5.26315793e-02, 0., 0., 0., 0., 2.63157897e-02 ]
      - [ 0., 0., 0., 0., 0., 0., 0., 0., 0., 0., 0., 0., 0., 0., 0., 0.,
          0., 0., 0., 0., 0., 0., 0., 0., 0., 0., 0., 0., 0., 0., 0., 0.,
          0., 0., 0., 0., 0., 0., 2.50000000e-01, 0., 0., 0., 0., 0., 0.,
          0., 0., 0., 0., 0., 0., 0., 0., 0., 0., 0., 0., 0., 0., 0., 0.,
          0., 0., 0., 0., 0., 0., 0., 0., 0., 0., 0., 0., 0., 0., 0., 0.,
          0., 0., 0., 0., 0., 0., 0., 0., 0., 0., 0., 0., 2.50000000e-01,
          0., 0., 0., 0., 0., 0., 0., 0., 0., 0., 0., 0., 0., 0., 0., 0.,
          0., 0., 0., 0., 0., 0., 0., 2.50000000e-01, 0., 0., 0., 0., 0.,
          0., 0., 0., 0., 0., 0., 0., 0., 0., 0., 0., 0., 0., 0., 0., 0.,
          0., 2.50000000e-01, 0., 0., 0., 0., 0., 0., 0., 0., 0., 0., 0.,
          0., 0., 0., 0., 0., 0., 0., 0., 0., 0., 0., 0., 0., 0., 0., 0.,
          0., 0., 0., 0., 0., 0., 0., 0., 0., 0., 0., 0., 0., 0., 0., 0.,
          0., 0., 0., 0., 0., 0. ]
      - [ 0., 0., 0., 1.11111112e-01, 0., 0., 0., 0., 0., 0., 0., 0., 0.,
          0., 0., 0., 0., 0., 0., 0., 0., 0., 0., 0., 0., 0., 0., 0., 0.,
          0., 0., 0., 0., 0., 0., 0., 0., 0., 0., 0., 1.11111112e-01, 0.,
          0., 0., 0., 0., 0., 0., 0., 0., 0., 0., 0., 0., 0., 0., 0., 0.,
          0., 0., 0., 0., 0., 0., 0., 0., 0., 0., 0., 0., 1.11111112e-01,
          0., 0., 0., 0., 0., 0., 0., 0., 0., 0., 0., 0., 0.,
          1.11111112e-01, 0., 0., 0., 0., 0., 0., 0., 0., 0., 0., 0., 0.,
          0., 0., 0., 0., 0., 0., 0., 0., 0., 0., 0., 0., 0., 0., 0., 0.,
          0., 0., 0., 1.11111112e-01, 0., 0., 0., 0., 0., 0., 0., 0., 0.,
          0., 0., 0., 0., 1.11111112e-01, 0., 0., 0., 0., 0., 0., 0., 0.,
          0., 0., 0., 0., 0., 0., 0., 0., 0., 0., 1.11111112e-01, 0., 0.,
          0., 0., 0., 0., 0., 0., 0., 0., 0., 0., 0., 0., 0., 0., 0., 0.,
          0., 0., 0., 0., 0., 0., 0., 0., 0., 0., 0., 0., 1.11111112e-01,
          0., 0., 0., 0., 1.11111112e-01 ]
      - [ 0., 0., 0., 0., 0., 0., 7.35294120e-03, 0., 0., 0.,
          7.35294120e-03, 0., 7.35294120e-03, 7.35294120e-03, 0., 0.,
          7.35294120e-03, 0., 0., 0., 1.47058824e-02, 0., 0., 0., 0.,
          7.35294120e-03, 0., 0., 0., 7.35294120e-03, 0., 0., 0., 0., 0.,
          0., 0., 2.94117648e-02, 0., 0., 0., 0., 2.20588241e-02,
          5.88235296e-02, 0., 0., 0., 2.94117648e-02, 0., 0.,
          2.20588241e-02, 0., 0., 0., 0., 0., 0., 7.35294120e-03, 0., 0.,
          0., 0., 0., 0., 7.35294120e-03, 0., 0., 0., 0., 0., 0., 0., 0.,
          0., 0., 6.61764741e-02, 0., 0., 7.35294120e-03, 1.47058824e-02,
          0., 0., 0., 0., 7.35294120e-03, 0., 0., 0., 0., 0.,
          7.35294148e-02, 0., 0., 2.20588241e-02, 7.35294120e-03, 0., 0.,
          0., 0., 0., 0., 2.94117648e-02, 0., 0., 0., 0., 0.,
          1.47058824e-02, 0., 0., 0., 7.35294120e-03, 0., 7.35294120e-03,
          0., 0., 1.47058824e-02, 7.35294120e-03, 7.35294120e-03, 0., 0.,
          0., 0., 2.20588241e-02, 7.35294120e-03, 0., 0., 0., 0., 0.,
          7.35294120e-03, 1.47058824e-02, 0., 0., 0., 0., 7.35294120e-03,
          0., 0., 2.20588241e-02, 0., 0., 0., 7.35294120e-03, 0.,
          1.47058824e-02, 0., 0., 0., 0., 0., 0., 0., 7.35294120e-03, 0.,
          7.35294120e-03, 0., 0., 0., 0., 0., 0., 0., 0., 0., 0., 0., 0.,
          0., 0., 0., 0., 0., 0., 0., 7.35294120e-03, 0., 0.,
          3.30882341e-01, 0., 0., 0., 0., 0., 0., 1.47058824e-02 ]
      - [ 0., 2.94117648e-02, 0., 0., 2.94117648e-02, 0., 0., 0., 0., 0.,
          0., 0., 0., 2.94117648e-02, 0., 0., 0., 0., 2.94117648e-02, 0.,
          0., 0., 5.88235296e-02, 0., 0., 0., 0., 0., 0., 0.,
          2.94117648e-02, 0., 0., 2.94117648e-02, 0., 5.88235296e-02, 0.,
          2.94117648e-02, 0., 0., 0., 0., 0., 0., 0., 5.88235296e-02, 0.,
          0., 0., 2.94117648e-02, 0., 0., 0., 0., 0., 0., 2.94117648e-02,
          2.94117648e-02, 0., 0., 0., 0., 0., 0., 2.94117648e-02, 0., 0.,
          0., 0., 0., 0., 0., 0., 0., 0., 0., 0., 0., 0., 0., 0., 0.,
          2.94117648e-02, 0., 0., 0., 0., 0., 0., 0., 0., 0., 0., 0., 0.,
          0., 2.94117648e-02, 0., 0., 0., 2.94117648e-02, 0.,
          2.94117648e-02, 0., 0., 2.94117648e-02, 0., 0., 0., 0., 0., 0.,
          0., 5.88235296e-02, 0., 0., 0., 0., 0., 0., 0., 0.,
          5.88235296e-02, 0., 2.94117648e-02, 2.94117648e-02, 0., 0., 0.,
          0., 2.94117648e-02, 0., 0., 0., 0., 0., 0., 0., 0.,
          2.94117648e-02, 2.94117648e-02, 0., 0., 0., 0., 2.94117648e-02,
          2.94117648e-02, 0., 0., 0., 0., 0., 0., 0., 0., 0., 0., 0., 0.,
          0., 0., 2.94117648e-02, 0., 0., 0., 0., 0., 0., 0., 0., 0., 0.,
          0., 0., 0., 0., 0., 0., 0., 0., 0., 0., 0., 0., 0., 0. ]
      - [ 0., 0., 3.33333351e-02, 0., 0., 0., 1.66666675e-02,
          3.33333351e-02, 0., 0., 0., 0., 1.66666675e-02, 0., 0., 0., 0.,
          0., 0., 0., 0., 0., 5.00000045e-02, 3.33333351e-02, 0., 0., 0.,
          0., 1.66666675e-02, 0., 0., 1.66666675e-02, 0., 0., 0.,
          1.66666675e-02, 1.66666675e-02, 0., 0., 1.66666675e-02, 0., 0.,
          0., 0., 1.66666675e-02, 0., 0., 0., 0., 1.66666675e-02, 0., 0.,
          0., 0., 1.66666675e-02, 1.66666675e-02, 0., 0., 1.66666675e-02,
          1.66666675e-02, 0., 0., 0., 0., 1.66666675e-02, 0.,
          3.33333351e-02, 0., 0., 0., 1.66666675e-02, 0., 0., 0., 0.,
          1.66666675e-02, 0., 0., 0., 0., 0., 3.33333351e-02, 0., 0., 0.,
          0., 0., 0., 0., 0., 1.66666675e-02, 0., 1.66666675e-02, 0., 0.,
          0., 1.66666675e-02, 0., 0., 0., 0., 0., 0., 0., 0., 0.,
          1.66666675e-02, 1.66666675e-02, 0., 0., 0., 0., 0., 0.,
          1.66666675e-02, 0., 1.66666675e-02, 5.00000045e-02, 0., 0., 0.,
          0., 0., 0., 0., 0., 0., 0., 0., 0., 0., 1.66666675e-02, 0., 0.,
          1.66666675e-02, 1.66666675e-02, 1.66666675e-02, 0., 0.,
          1.66666675e-02, 1.66666675e-02, 0., 0., 0., 0., 3.33333351e-02,
          1.66666675e-02, 0., 0., 0., 0., 0., 0., 0., 0., 0., 0., 0., 0.,
          0., 0., 1.66666675e-02, 1.66666675e-02, 0., 0., 3.33333351e-02,
          0., 0., 3.33333351e-02, 0., 0., 0., 0., 0., 0., 0., 0.,
          1.66666675e-02, 0., 1.66666675e-02, 3.33333351e-02, 0.,
          1.66666675e-02, 1.66666675e-02, 0., 0. ]
      - [ 0., 0., 0., 0., 0., 7.99999982e-02, 0., 0., 0., 0., 0., 0.,
          7.99999982e-02, 3.99999991e-02, 0., 0., 0., 0., 0., 0., 0.,
          3.99999991e-02, 0., 0., 3.99999991e-02, 3.99999991e-02, 0., 0.,
          0., 0., 0., 0., 3.99999991e-02, 0., 0., 0., 0., 0., 0., 0., 0.,
          0., 0., 0., 0., 0., 0., 3.99999991e-02, 0., 0., 0., 0., 0., 0.,
          0., 0., 0., 0., 0., 0., 0., 0., 0., 0., 0., 0., 0., 0., 0., 0.,
          0., 0., 0., 0., 0., 0., 0., 0., 0., 0., 0., 0., 0., 0., 0., 0.,
          0., 3.99999991e-02, 0., 0., 3.99999991e-02, 0., 0., 0., 0.,
          3.99999991e-02, 0., 0., 0., 0., 0., 0., 0., 0., 0., 0., 0., 0.,
          0., 0., 0., 0., 0., 0., 0., 0., 3.99999991e-02, 0.,
          3.99999991e-02, 0., 0., 0., 3.99999991e-02, 3.99999991e-02, 0.,
          0., 0., 0., 0., 0., 0., 0., 3.99999991e-02, 0., 0., 0.,
          3.99999991e-02, 0., 0., 0., 0., 3.99999991e-02, 0., 0., 0.,
          3.99999991e-02, 0., 0., 0., 0., 7.99999982e-02, 0., 0.,
          3.99999991e-02, 0., 0., 0., 0., 0., 0., 0., 0., 0., 0., 0., 0.,
          0., 0., 0., 0., 3.99999991e-02, 0., 0., 0., 0., 0., 0., 0., 0.,
          0., 0., 0., 0., 0., 0., 0. ]
      - [ 0., 0., 0., 0., 0., 0., 0., 0., 0., 0., 0., 0., 0., 0., 0., 0.,
          0., 0., 0., 0., 0., 0., 0., 0., 0., 0., 0., 0., 0., 0., 0., 0.,
          0., 0., 0., 0., 0., 0., 0., 0., 0., 0., 0., 0., 0., 0.,
          3.33333343e-01, 0., 0., 0., 3.33333343e-01, 0., 0., 0., 0., 0.,
          0., 0., 0., 0., 0., 0., 0., 0., 0., 0., 0., 0., 0., 0., 0., 0.,
          0., 0., 0., 0., 0., 0., 0., 0., 0., 0., 0., 0., 0., 0., 0., 0.,
          0., 0., 0., 0., 0., 0., 0., 0., 0., 0., 0., 0., 0., 0., 0., 0.,
          0., 0., 0., 0., 0., 0., 0., 0., 0., 0., 0., 0., 0., 0., 0., 0.,
          0., 0., 0., 0., 0., 0., 0., 0., 0., 0., 0., 0., 0., 0., 0., 0.,
          0., 0., 0., 3.33333343e-01, 0., 0., 0., 0., 0., 0., 0., 0., 0.,
          0., 0., 0., 0., 0., 0., 0., 0., 0., 0., 0., 0., 0., 0., 0., 0.,
          0., 0., 0., 0., 0., 0., 0., 0., 0., 0., 0., 0., 0., 0., 0., 0.,
          0., 0., 0., 0., 0. ]
      - [ 0., 0., 4.34782617e-02, 0., 0., 0., 0., 0., 0., 0., 0., 0.,
          2.17391308e-02, 0., 2.17391308e-02, 0., 0., 2.17391308e-02, 0.,
          0., 0., 2.17391308e-02, 0., 8.69565234e-02, 0., 2.17391308e-02,
          0., 0., 0., 0., 0., 0., 0., 0., 0., 0., 0., 0., 0.,
          2.17391308e-02, 0., 0., 0., 2.17391308e-02, 0., 0.,
          2.17391308e-02, 0., 2.17391308e-02, 0., 0., 0., 0., 0.,
          2.17391308e-02, 0., 0., 0., 0., 0., 0., 0., 2.17391308e-02, 0.,
          2.17391308e-02, 0., 0., 0., 0., 0., 0., 0., 0., 0., 0., 0., 0.,
          0., 2.17391308e-02, 0., 0., 0., 0., 0., 0., 4.34782617e-02, 0.,
          0., 0., 0., 0., 0., 0., 2.17391308e-02, 0., 0., 0., 0., 0., 0.,
          0., 2.17391308e-02, 0., 0., 0., 0., 0., 0., 2.17391308e-02,
          2.17391308e-02, 2.17391308e-02, 0., 0., 0., 0., 2.17391308e-02,
          0., 4.34782617e-02, 0., 4.34782617e-02, 2.17391308e-02, 0.,
          2.17391308e-02, 2.17391308e-02, 0., 0., 0., 0., 0., 0., 0., 0.,
          2.17391308e-02, 0., 2.17391308e-02, 0., 2.17391308e-02, 0., 0.,
          0., 0., 2.17391308e-02, 0., 0., 0., 2.17391308e-02, 0., 0., 0.,
          0., 2.17391308e-02, 0., 0., 0., 0., 0., 0., 0., 0., 0., 0., 0.,
          0., 0., 0., 2.17391308e-02, 0., 0., 2.17391308e-02, 0., 0., 0.,
          0., 0., 0., 0., 0., 0., 0., 0., 2.17391308e-02, 0., 0., 0.,
          2.17391308e-02, 4.34782617e-02 ]
      - [ 9.43396240e-03, 0., 0., 0., 0., 0., 0., 0., 0., 0.,
          9.43396240e-03, 9.43396240e-03, 2.83018872e-02, 0., 0., 0., 0.,
          0., 9.43396240e-03, 9.43396240e-03, 9.43396240e-03,
          9.43396240e-03, 1.88679248e-02, 1.88679248e-02, 0.,
          9.43396240e-03, 0., 0., 9.43396240e-03, 9.43396240e-03, 0., 0.,
          9.43396240e-03, 0., 0., 9.43396240e-03, 1.88679248e-02, 0., 0.,
          1.88679248e-02, 9.43396240e-03, 9.43396240e-03, 0., 0.,
          9.43396240e-03, 1.88679248e-02, 9.43396240e-03, 1.88679248e-02,
          0., 9.43396240e-03, 0., 9.43396240e-03, 0., 0., 0., 0., 0., 0.,
          0., 0., 9.43396240e-03, 0., 0., 0., 1.88679248e-02,
          9.43396240e-03, 0., 0., 0., 0., 0., 0., 0., 9.43396240e-03, 0.,
          9.43396240e-03, 0., 1.88679248e-02, 1.88679248e-02,
          9.43396240e-03, 0., 0., 9.43396240e-03, 0., 0., 9.43396240e-03,
          0., 0., 0., 0., 9.43396240e-03, 0., 0., 9.43396240e-03,
          1.88679248e-02, 9.43396240e-03, 9.43396240e-03, 0.,
          9.43396240e-03, 9.43396240e-03, 0., 1.88679248e-02, 0., 0., 0.,
          0., 0., 2.83018872e-02, 9.43396240e-03, 1.88679248e-02, 0., 0.,
          0., 0., 9.43396240e-03, 0., 1.88679248e-02, 9.43396240e-03, 0.,
          9.43396240e-03, 0., 0., 9.43396240e-03, 1.88679248e-02,
          9.43396240e-03, 9.43396240e-03, 9.43396240e-03, 0.,
          9.43396240e-03, 0., 0., 0., 0., 9.43396240e-03, 9.43396240e-03,
          0., 1.88679248e-02, 0., 9.43396240e-03, 1.88679248e-02, 0.,
          9.43396240e-03, 0., 1.88679248e-02, 2.83018872e-02,
          9.43396240e-03, 1.88679248e-02, 0., 0., 9.43396240e-03, 0., 0.,
          0., 0., 9.43396240e-03, 9.43396240e-03, 0., 9.43396240e-03,
          9.43396240e-03, 0., 0., 0., 0., 0., 0., 0., 9.43396240e-03,
          9.43396240e-03, 0., 0., 1.88679248e-02, 0., 9.43396240e-03, 0.,
          0., 0., 0., 9.43396240e-03, 0., 9.43396240e-03, 0., 0.,
          9.43396240e-03, 9.43396240e-03, 9.43396240e-03, 9.43396240e-03 ]
      - [ 0., 1.56250000e-02, 0., 0., 0., 1.56250000e-02, 0., 0., 0., 0.,
          0., 0., 0., 1.56250000e-02, 0., 0., 0., 0., 0., 0., 0., 0., 0.,
          0., 1.56250000e-02, 0., 0., 0., 0., 0., 0., 0., 0.,
          1.56250000e-02, 0., 0., 1.56250000e-02, 1.56250000e-02, 0., 0.,
          0., 3.12500000e-02, 0., 0., 3.12500000e-02, 4.68750000e-02,
          3.12500000e-02, 4.68750000e-02, 1.56250000e-02, 0.,
          1.56250000e-02, 0., 0., 0., 0., 0., 1.56250000e-02,
          1.56250000e-02, 1.56250000e-02, 1.56250000e-02, 0., 0.,
          1.56250000e-02, 0., 1.56250000e-02, 0., 0., 0., 0., 0., 0.,
          1.56250000e-02, 0., 3.12500000e-02, 0., 0., 0., 0.,
          1.56250000e-02, 0., 0., 0., 0., 0., 0., 0., 0., 1.56250000e-02,
          0., 0., 0., 0., 0., 6.25000000e-02, 0., 0., 0., 0., 0., 0., 0.,
          0., 0., 0., 0., 0., 0., 0., 0., 0., 0., 0., 0., 0., 0., 0.,
          3.12500000e-02, 0., 0., 0., 0., 0., 1.56250000e-02,
          1.56250000e-02, 0., 1.56250000e-02, 0., 0., 0., 0., 0., 0., 0.,
          0., 1.56250000e-02, 1.56250000e-02, 0., 0., 0., 1.56250000e-02,
          0., 0., 0., 0., 0., 0., 0., 0., 0., 1.56250000e-02, 0., 0., 0.,
          0., 0., 0., 4.68750000e-02, 0., 1.56250000e-02, 0., 0., 0., 0.,
          0., 0., 0., 0., 0., 1.56250000e-02, 0., 4.68750000e-02,
          1.56250000e-02, 0., 0., 0., 0., 1.56250000e-02, 0., 0., 0.,
          1.56250000e-02, 0., 1.56250000e-02, 1.56250000e-02,
          4.68750000e-02, 4.68750000e-02 ]
      - [ 0., 3.03030312e-02, 0., 3.03030312e-02, 0., 0., 3.03030312e-02,
          0., 3.03030312e-02, 0., 0., 0., 0., 0., 0., 0., 6.06060624e-02,
          0., 0., 0., 0., 3.03030312e-02, 0., 0., 0., 0., 0., 0., 0., 0.,
          0., 0., 0., 0., 0., 0., 0., 0., 0., 0., 0., 0., 3.03030312e-02,
          0., 0., 0., 0., 0., 0., 0., 0., 0., 0., 0., 0., 0.,
          3.03030312e-02, 0., 0., 0., 0., 0., 0., 0., 0., 3.03030312e-02,
          0., 0., 0., 0., 0., 0., 0., 0., 0., 0., 0., 3.03030312e-02, 0.,
          0., 0., 3.03030312e-02, 0., 0., 0., 0., 0., 0., 0., 0.,
          6.06060624e-02, 3.03030312e-02, 0., 0., 0., 0., 0., 0., 0.,
          3.03030312e-02, 0., 0., 0., 0., 0., 0., 0., 0., 0., 0., 0.,
          3.03030312e-02, 0., 0., 0., 0., 3.03030312e-02, 0., 0.,
          6.06060624e-02, 0., 0., 3.03030312e-02, 3.03030312e-02, 0., 0.,
          3.03030312e-02, 0., 0., 0., 0., 0., 0., 0., 3.03030312e-02, 0.,
          3.03030312e-02, 0., 0., 0., 0., 0., 0., 0., 0., 0., 0., 0., 0.,
          3.03030312e-02, 3.03030312e-02, 0., 3.03030312e-02, 0., 0., 0.,
          0., 0., 0., 3.03030312e-02, 0., 3.03030312e-02, 0., 0., 0., 0.,
          0., 0., 0., 0., 0., 3.03030312e-02, 3.03030312e-02, 0., 0., 0.,
          0., 0., 0., 0., 0., 0., 0., 0., 0., 3.03030312e-02 ]
      - [ 0., 2.53164563e-02, 0., 0., 0., 0., 0., 0., 0., 0.,
          2.53164563e-02, 2.53164563e-02, 0., 0., 0., 0., 0., 0., 0., 0.,
          0., 0., 0., 0., 0., 2.53164563e-02, 0., 0., 1.26582282e-02, 0.,
          0., 0., 0., 1.26582282e-02, 0., 0., 0., 2.53164563e-02,
          1.26582282e-02, 0., 1.26582282e-02, 2.53164563e-02, 0., 0., 0.,
          2.53164563e-02, 0., 0., 0., 1.26582282e-02, 0., 0.,
          1.26582282e-02, 0., 0., 3.79746854e-02, 0., 2.53164563e-02, 0.,
          0., 0., 0., 0., 0., 0., 1.26582282e-02, 0., 0., 0.,
          1.26582282e-02, 0., 0., 0., 3.79746854e-02, 0., 2.53164563e-02,
          1.26582282e-02, 0., 0., 0., 1.26582282e-02, 2.53164563e-02, 0.,
          0., 1.26582282e-02, 3.79746854e-02, 0., 0., 0., 1.26582282e-02,
          0., 0., 1.26582282e-02, 0., 0., 0., 1.26582282e-02,
          1.26582282e-02, 0., 1.26582282e-02, 0., 0., 0., 0., 0.,
          2.53164563e-02, 1.26582282e-02, 0., 0., 1.26582282e-02, 0., 0.,
          0., 3.79746854e-02, 0., 0., 0., 0., 0., 3.79746854e-02, 0., 0.,
          0., 0., 0., 3.79746854e-02, 0., 1.26582282e-02, 0., 0., 0., 0.,
          1.26582282e-02, 0., 0., 0., 1.26582282e-02, 0., 1.26582282e-02,
          0., 0., 0., 0., 1.26582282e-02, 0., 0., 0., 0., 1.26582282e-02,
          0., 0., 0., 0., 1.26582282e-02, 0., 0., 1.26582282e-02,
          1.26582282e-02, 1.26582282e-02, 0., 0., 1.26582282e-02, 0.,
          1.26582282e-02, 0., 1.26582282e-02, 0., 0., 1.26582282e-02, 0.,
          0., 1.26582282e-02, 0., 0., 1.26582282e-02, 1.26582282e-02, 0.,
          0., 0., 0., 0., 0., 0., 0., 2.53164563e-02, 2.53164563e-02 ]
      - [ 0., 0., 0., 0., 0., 0., 0., 0., 0., 0., 0., 0., 0., 0., 0., 0.,
          0., 0., 0., 0., 0., 0., 0., 0., 0., 0., 0., 0., 0.,
          3.70370373e-02, 0., 0., 0., 0., 0., 0., 0., 0., 0., 0., 0., 0.,
          0., 0., 0., 0., 0., 0., 0., 0., 0., 0., 0., 0., 3.70370373e-02,
          0., 0., 0., 0., 0., 0., 3.70370373e-02, 0., 7.40740746e-02, 0.,
          3.70370373e-02, 0., 0., 0., 0., 0., 0., 0., 0., 0., 0., 0., 0.,
          0., 0., 0., 3.70370373e-02, 0., 0., 3.70370373e-02, 0., 0.,
          7.40740746e-02, 0., 0., 0., 0., 0., 0., 0., 0., 0., 0., 0., 0.,
          0., 0., 0., 0., 3.70370373e-02, 0., 0., 0., 0., 0., 0.,
          3.70370373e-02, 0., 1.11111112e-01, 0., 0., 0., 0., 0.,
          7.40740746e-02, 0., 0., 0., 3.70370373e-02, 0., 0., 0., 0., 0.,
          0., 0., 0., 0., 0., 0., 0., 0., 0., 7.40740746e-02, 0., 0.,
          3.70370373e-02, 0., 0., 0., 0., 3.70370373e-02, 0.,
          3.70370373e-02, 0., 0., 0., 0., 0., 7.40740746e-02, 0., 0., 0.,
          0., 0., 0., 0., 0., 0., 0., 0., 3.70370373e-02, 0.,
          3.70370373e-02, 0., 0., 0., 0., 0., 0., 0., 0., 0., 0., 0., 0.,
          0., 0., 0., 0., 0. ]
      - [ 0., 0., 0., 0., 0., 0., 0., 0., 0., 0., 0., 0., 5.00000000e-01,
          0., 0., 0., 0., 0., 0., 0., 0., 0., 0., 5.00000000e-01, 0., 0.,
          0., 0., 0., 0., 0., 0., 0., 0., 0., 0., 0., 0., 0., 0., 0., 0.,
          0., 0., 0., 0., 0., 0., 0., 0., 0., 0., 0., 0., 0., 0., 0., 0.,
          0., 0., 0., 0., 0., 0., 0., 0., 0., 0., 0., 0., 0., 0., 0., 0.,
          0., 0., 0., 0., 0., 0., 0., 0., 0., 0., 0., 0., 0., 0., 0., 0.,
          0., 0., 0., 0., 0., 0., 0., 0., 0., 0., 0., 0., 0., 0., 0., 0.,
          0., 0., 0., 0., 0., 0., 0., 0., 0., 0., 0., 0., 0., 0., 0., 0.,
          0., 0., 0., 0., 0., 0., 0., 0., 0., 0., 0., 0., 0., 0., 0., 0.,
          0., 0., 0., 0., 0., 0., 0., 0., 0., 0., 0., 0., 0., 0., 0., 0.,
          0., 0., 0., 0., 0., 0., 0., 0., 0., 0., 0., 0., 0., 0., 0., 0.,
          0., 0., 0., 0., 0., 0., 0., 0., 0., 0., 0., 0., 0., 0., 0., 0. ]
      - [ 0., 0., 4.10958901e-02, 0., 0., 0., 0., 0., 0., 2.73972601e-02,
          0., 0., 1.36986300e-02, 0., 0., 0., 0., 0., 0., 0.,
          1.36986300e-02, 4.10958901e-02, 0., 4.10958901e-02, 0., 0., 0.,
          0., 0., 1.36986300e-02, 0., 0., 0., 2.73972601e-02, 0.,
          1.36986300e-02, 0., 0., 0., 0., 0., 0., 0., 0., 1.36986300e-02,
          0., 1.36986300e-02, 0., 0., 0., 0., 0., 0., 0., 2.73972601e-02,
          1.36986300e-02, 0., 0., 1.36986300e-02, 0., 0., 0.,
          1.36986300e-02, 0., 1.36986300e-02, 0., 0., 0., 0., 0., 0., 0.,
          0., 1.36986300e-02, 4.10958901e-02, 1.36986300e-02, 0.,
          1.36986300e-02, 1.36986300e-02, 0., 0., 0., 1.36986300e-02, 0.,
          0., 0., 2.73972601e-02, 0., 0., 0., 0., 4.10958901e-02, 0.,
          1.36986300e-02, 0., 0., 0., 0., 0., 6.84931502e-02, 0., 0.,
          1.36986300e-02, 0., 0., 0., 0., 0., 1.36986300e-02, 0., 0., 0.,
          0., 0., 1.36986300e-02, 0., 2.73972601e-02, 2.73972601e-02,
          2.73972601e-02, 1.36986300e-02, 0., 0., 0., 1.36986300e-02, 0.,
          0., 0., 1.36986300e-02, 1.36986300e-02, 0., 0., 1.36986300e-02,
          0., 0., 0., 0., 0., 0., 2.73972601e-02, 0., 0., 0., 0., 0., 0.,
          1.36986300e-02, 1.36986300e-02, 0., 0., 0., 0., 0., 0., 0., 0.,
          0., 0., 1.36986300e-02, 0., 0., 0., 0., 0., 0., 0.,
          1.36986300e-02, 0., 2.73972601e-02, 0., 1.36986300e-02,
          1.36986300e-02, 0., 1.36986300e-02, 0., 0., 0., 0., 0., 0., 0.,
          0., 0., 2.73972601e-02, 0., 1.36986300e-02, 1.36986300e-02 ]
      - [ 0., 4.54545468e-02, 0., 0., 0., 0., 4.54545468e-02, 0., 0., 0.,
          0., 0., 0., 0., 0., 0., 0., 0., 4.54545468e-02, 0., 0., 0.,
          4.54545468e-02, 0., 0., 0., 0., 0., 0., 0., 0., 0., 0., 0., 0.,
          0., 0., 0., 0., 0., 4.54545468e-02, 0., 0., 0., 0., 0.,
          9.09090936e-02, 0., 0., 0., 0., 0., 0., 0., 0., 0., 0.,
          4.54545468e-02, 4.54545468e-02, 0., 0., 0., 0., 0., 0., 0., 0.,
          0., 0., 0., 0., 0., 0., 0., 0., 0., 0., 0., 0., 0., 0., 0., 0.,
          0., 0., 9.09090936e-02, 0., 0., 0., 4.54545468e-02,
          4.54545468e-02, 0., 0., 0., 0., 0., 0., 0., 0., 0., 0., 0., 0.,
          0., 4.54545468e-02, 0., 0., 0., 0., 0., 0., 0., 0., 0., 0., 0.,
          0., 0., 0., 0., 0., 0., 0., 0., 0., 0., 0., 0., 0., 0., 0.,
          4.54545468e-02, 0., 0., 0., 0., 0., 4.54545468e-02, 0., 0.,
          4.54545468e-02, 0., 0., 0., 0., 0., 0., 0., 0., 0., 0., 0., 0.,
          4.54545468e-02, 0., 0., 0., 0., 0., 0., 0., 0., 0., 0., 0., 0.,
          0., 0., 4.54545468e-02, 0., 4.54545468e-02, 4.54545468e-02, 0.,
          0., 0., 0., 0., 0., 0., 0., 0., 0., 0., 4.54545468e-02, 0., 0. ]
      - [ 0., 0., 0., 0., 0., 0., 0., 0., 1.11111112e-01, 0., 0., 0., 0.,
          0., 0., 0., 0., 0., 0., 0., 0., 0., 0., 0., 0., 1.11111112e-01,
          0., 0., 0., 0., 0., 0., 0., 0., 0., 0., 0., 0., 0., 0., 0., 0.,
          0., 0., 0., 0., 1.11111112e-01, 0., 0., 0., 0., 0., 0., 0., 0.,
          0., 1.11111112e-01, 0., 0., 0., 0., 0., 0., 0., 0., 0., 0., 0.,
          0., 0., 0., 0., 0., 0., 0., 0., 0., 0., 0., 0., 0., 0.,
          3.33333343e-01, 0., 0., 0., 0., 0., 0., 0., 0., 0., 0., 0., 0.,
          0., 0., 0., 0., 0., 0., 0., 0., 0., 0., 0., 0., 0., 0., 0., 0.,
          0., 0., 0., 0., 0., 0., 0., 0., 0., 0., 0., 0., 0., 0., 0., 0.,
          0., 0., 0., 0., 0., 0., 0., 0., 0., 0., 0., 0., 0., 0., 0., 0.,
          1.11111112e-01, 0., 0., 0., 0., 0., 0., 0., 0., 0., 0., 0., 0.,
          0., 0., 0., 0., 0., 0., 0., 0., 0., 0., 0., 0., 0., 0., 0., 0.,
          0., 0., 0., 0., 0., 0., 0., 0., 0., 0., 0., 1.11111112e-01, 0.,
          0. ]
      - [ 0., 0., 0., 0., 0., 0., 2.77777780e-02, 0., 2.77777780e-02, 0.,
          0., 0., 0., 0., 0., 0., 0., 0., 0., 0., 0., 0., 0., 0., 0.,
          2.77777780e-02, 0., 0., 0., 0., 0., 0., 0., 2.77777780e-02, 0.,
          0., 0., 0., 0., 0., 0., 0., 5.55555560e-02, 0., 0., 0., 0., 0.,
          0., 0., 0., 0., 0., 0., 0., 0., 0., 0., 0., 0., 0., 0., 0., 0.,
          0., 0., 0., 0., 0., 0., 0., 0., 2.77777780e-02, 0., 0., 0., 0.,
          0., 0., 0., 0., 0., 5.55555560e-02, 0., 0., 2.77777780e-02, 0.,
          0., 0., 0., 0., 0., 0., 0., 0., 0., 0., 0., 0., 2.77777780e-02,
          2.77777780e-02, 0., 0., 0., 0., 2.77777780e-02, 0.,
          8.33333358e-02, 0., 0., 2.77777780e-02, 0., 0., 2.77777780e-02,
          0., 2.77777780e-02, 2.77777780e-02, 0., 0., 0., 0., 0., 0.,
          5.55555560e-02, 0., 0., 0., 2.77777780e-02, 0., 0., 0., 0., 0.,
          0., 0., 0., 2.77777780e-02, 0., 0., 0., 0., 2.77777780e-02, 0.,
          0., 0., 0., 2.77777780e-02, 2.77777780e-02, 0., 0., 0., 0., 0.,
          0., 2.77777780e-02, 0., 5.55555560e-02, 0., 0., 2.77777780e-02,
          0., 0., 0., 0., 0., 0., 0., 0., 0., 0., 0., 0., 0., 0., 0., 0.,
          0., 2.77777780e-02, 0., 0., 0., 0., 0., 0., 2.77777780e-02,
          8.33333358e-02 ]
      - [ 0., 0., 0., 0., 0., 0., 0., 0., 0., 0., 0., 0., 4.16666679e-02,
          0., 0., 0., 0., 0., 0., 0., 0., 0., 0., 8.33333358e-02, 0., 0.,
          4.16666679e-02, 0., 0., 0., 0., 0., 0., 0., 0., 0., 0., 0., 0.,
          4.16666679e-02, 0., 0., 0., 0., 0., 0., 0., 0., 0., 0., 0., 0.,
          0., 0., 0., 0., 0., 0., 0., 0., 4.16666679e-02, 0., 0., 0.,
          4.16666679e-02, 0., 0., 0., 0., 4.16666679e-02, 0., 0., 0.,
          4.16666679e-02, 0., 0., 4.16666679e-02, 0., 0., 0.,
          4.16666679e-02, 0., 0., 0., 0., 0., 4.16666679e-02,
          4.16666679e-02, 0., 0., 0., 0., 0., 0., 0., 0., 0., 0., 0., 0.,
          0., 0., 0., 0., 0., 0., 0., 4.16666679e-02, 0., 0., 0., 0., 0.,
          4.16666679e-02, 0., 0., 0., 0., 0., 0., 4.16666679e-02, 0.,
          4.16666679e-02, 0., 0., 4.16666679e-02, 0., 0., 0., 0., 0., 0.,
          0., 0., 0., 4.16666679e-02, 4.16666679e-02, 0., 0.,
          4.16666679e-02, 0., 0., 0., 0., 0., 0., 0., 0., 0., 0., 0., 0.,
          0., 0., 0., 0., 0., 0., 0., 0., 0., 4.16666679e-02, 0., 0., 0.,
          0., 0., 0., 0., 0., 0., 0., 0., 0., 0., 0., 0., 4.16666679e-02,
          0., 0., 0., 0., 0., 0., 4.16666679e-02, 0. ]
      - [ 0., 0., 0., 0., 0., 1.00000001e-01, 0., 0., 0., 0., 0., 0., 0.,
          0., 0., 0., 0., 0., 0., 0., 1.00000001e-01, 0., 0., 0., 0., 0.,
          0., 0., 0., 0., 0., 0., 0., 0., 0., 0., 0., 0., 0., 0., 0., 0.,
          0., 0., 0., 0., 0., 0., 0., 0., 0., 0., 0., 0., 0., 0.,
          1.00000001e-01, 0., 0., 0., 0., 0., 0., 0., 0., 0., 0., 0., 0.,
          0., 0., 0., 0., 0., 0., 0., 0., 0., 0., 0., 0., 0., 0., 0., 0.,
          1.00000001e-01, 0., 0., 0., 0., 0., 0., 0., 0., 0.,
          1.00000001e-01, 0., 0., 0., 0., 0., 0., 0., 0., 0., 0., 0., 0.,
          0., 1.00000001e-01, 0., 0., 0., 1.00000001e-01, 0.,
          1.00000001e-01, 0., 0., 0., 0., 0., 0., 0., 0., 1.00000001e-01,
          0., 0., 0., 0., 0., 0., 0., 0., 0., 0., 0., 0., 0., 0., 0., 0.,
          0., 0., 0., 0., 0., 0., 0., 0., 0., 0., 0., 0., 0., 0., 0., 0.,
          0., 0., 0., 0., 0., 0., 0., 0., 0., 0., 0., 0., 0., 0., 0., 0.,
          0., 0., 0., 0., 0., 0., 0., 0., 0., 0., 0., 0., 1.00000001e-01 ]
      - [ 0., 0., 0., 0., 0., 0., 0., 0., 0., 3.12500000e-02, 0.,
          6.25000000e-02, 0., 0., 0., 0., 0., 0., 0., 0., 0., 0., 0.,
          6.25000000e-02, 0., 0., 0., 0., 0., 0., 0., 0., 0., 0., 0., 0.,
          0., 0., 0., 6.25000000e-02, 0., 0., 0., 0., 3.12500000e-02, 0.,
          0., 0., 0., 0., 0., 0., 0., 0., 3.12500000e-02, 1.25000000e-01,
          0., 3.12500000e-02, 0., 0., 0., 0., 0., 0., 0., 0., 0., 0., 0.,
          0., 0., 0., 0., 3.12500000e-02, 0., 0., 0., 0., 0., 0., 0., 0.,
          0., 0., 0., 0., 0., 0., 0., 0., 0., 0., 0., 0., 0., 0.,
          3.12500000e-02, 0., 0., 3.12500000e-02, 0., 0., 0., 0., 0., 0.,
          0., 6.25000000e-02, 0., 0., 0., 0., 0., 3.12500000e-02, 0., 0.,
          0., 0., 3.12500000e-02, 6.25000000e-02, 3.12500000e-02, 0., 0.,
          0., 3.12500000e-02, 0., 0., 0., 0., 0., 0., 3.12500000e-02, 0.,
          3.12500000e-02, 3.12500000e-02, 0., 0., 0., 0., 3.12500000e-02,
          0., 0., 0., 0., 3.12500000e-02, 0., 0., 0., 0., 0., 0., 0., 0.,
          0., 0., 0., 0., 0., 0., 0., 0., 0., 0., 0., 0., 0., 0.,
          3.12500000e-02, 0., 0., 0., 0., 0., 0., 0., 0., 0., 0., 0., 0.,
          0., 0., 0., 0., 0., 3.12500000e-02 ]
      - [ 0., 2.50000004e-02, 2.50000004e-02, 0., 0., 0., 0., 0., 0., 0.,
          0., 0., 0., 0., 0., 0., 0., 0., 0., 0., 0., 0., 2.50000004e-02,
          2.50000004e-02, 0., 2.50000004e-02, 0., 0., 0., 5.00000007e-02,
          2.50000004e-02, 0., 0., 0., 0., 0., 2.50000004e-02, 0., 0.,
          5.00000007e-02, 0., 0., 0., 0., 2.50000004e-02, 0., 0., 0., 0.,
          0., 0., 0., 2.50000004e-02, 0., 2.50000004e-02, 0.,
          2.50000004e-02, 0., 0., 0., 0., 0., 2.50000004e-02, 0.,
          2.50000004e-02, 2.50000004e-02, 0., 0., 0., 0., 0., 0., 0., 0.,
          0., 2.50000004e-02, 0., 5.00000007e-02, 0., 0., 0., 0., 0., 0.,
          0., 0., 0., 0., 0., 0., 0., 0., 0., 0., 0., 0., 0., 0., 0., 0.,
          0., 0., 0., 0., 0., 0., 0., 0., 0., 0., 0., 0., 0., 0., 0., 0.,
          2.50000004e-02, 2.50000004e-02, 0., 0., 0., 0., 0.,
          2.50000004e-02, 0., 0., 0., 0., 2.50000004e-02, 0.,
          2.50000004e-02, 0., 2.50000004e-02, 0., 0., 2.50000004e-02, 0.,
          0., 0., 0., 0., 0., 0., 0., 0., 0., 0., 0., 0., 0., 0., 0., 0.,
          0., 0., 0., 0., 2.50000004e-02, 0., 0., 0., 0., 0., 0., 0., 0.,
          0., 5.00000007e-02, 2.50000004e-02, 0., 0., 2.50000004e-02,
          2.50000004e-02, 0., 0., 0., 2.50000004e-02, 5.00000007e-02, 0.,
          0., 0., 0., 0., 5.00000007e-02, 0., 2.50000004e-02 ]
      - [ 0., 1.58730168e-02, 0., 0., 0., 0., 3.17460336e-02, 0., 0., 0.,
          0., 0., 3.17460336e-02, 1.58730168e-02, 0., 0., 0., 0., 0., 0.,
          0., 0., 0., 4.76190522e-02, 1.58730168e-02, 0., 0., 0., 0., 0.,
          1.58730168e-02, 0., 0., 0., 0., 0., 0., 0., 1.58730168e-02, 0.,
          0., 1.58730168e-02, 0., 0., 0., 0., 0., 0., 1.58730168e-02, 0.,
          1.58730168e-02, 0., 1.58730168e-02, 0., 1.58730168e-02,
          7.93650821e-02, 1.58730168e-02, 0., 0., 0., 0., 1.58730168e-02,
          0., 0., 0., 0., 0., 1.58730168e-02, 1.58730168e-02, 0., 0., 0.,
          0., 0., 0., 0., 0., 0., 1.58730168e-02, 1.58730168e-02, 0.,
          1.58730168e-02, 0., 1.58730168e-02, 0., 0., 0., 0.,
          1.58730168e-02, 0., 0., 0., 0., 3.17460336e-02, 0., 0.,
          1.58730168e-02, 0., 0., 0., 0., 1.58730168e-02, 0., 0., 0.,
          1.58730168e-02, 0., 0., 1.58730168e-02, 0., 1.58730168e-02, 0.,
          1.58730168e-02, 0., 0., 0., 1.58730168e-02, 1.58730168e-02, 0.,
          4.76190522e-02, 0., 0., 1.58730168e-02, 0., 0., 0., 0., 0., 0.,
          0., 0., 0., 0., 0., 1.58730168e-02, 0., 0., 0., 0., 0., 0., 0.,
          0., 1.58730168e-02, 0., 0., 3.17460336e-02, 0., 0.,
          1.58730168e-02, 0., 0., 0., 0., 0., 0., 0., 0., 1.58730168e-02,
          0., 0., 0., 0., 0., 0., 0., 0., 0., 1.58730168e-02, 0.,
          1.58730168e-02, 0., 1.58730168e-02, 0., 0., 0., 1.58730168e-02,
          0., 0., 0., 1.58730168e-02, 0., 1.58730168e-02, 1.58730168e-02,
          4.76190522e-02, 3.17460336e-02 ]
      - [ 0., 0., 0., 3.03030312e-02, 0., 1.51515156e-02, 0., 0., 0., 0.,
          0., 3.03030312e-02, 0., 0., 0., 1.51515156e-02, 0., 0.,
          3.03030312e-02, 1.51515156e-02, 0., 0., 0., 0., 0., 0., 0., 0.,
          1.51515156e-02, 0., 1.51515156e-02, 0., 0., 0., 0., 0., 0., 0.,
          1.51515156e-02, 0., 0., 3.03030312e-02, 0., 0., 1.51515156e-02,
          0., 0., 0., 3.03030312e-02, 0., 1.51515156e-02, 1.51515156e-02,
          0., 0., 0., 0., 9.09090936e-02, 3.03030312e-02, 3.03030312e-02,
          1.51515156e-02, 0., 1.51515156e-02, 1.51515156e-02, 0.,
          3.03030312e-02, 0., 0., 1.51515156e-02, 0., 1.51515156e-02, 0.,
          0., 0., 0., 3.03030312e-02, 0., 0., 0., 0., 0., 0.,
          1.51515156e-02, 0., 0., 1.51515156e-02, 0., 0., 0., 0., 0., 0.,
          1.51515156e-02, 0., 1.51515156e-02, 0., 0., 1.51515156e-02, 0.,
          0., 0., 0., 0., 0., 1.51515156e-02, 0., 0., 0., 0., 0., 0., 0.,
          1.51515156e-02, 0., 1.51515156e-02, 0., 3.03030312e-02, 0., 0.,
          0., 0., 0., 0., 1.51515156e-02, 0., 1.51515156e-02, 0.,
          1.51515156e-02, 0., 0., 0., 0., 0., 0., 0., 1.51515156e-02,
          1.51515156e-02, 0., 1.51515156e-02, 0., 0., 0., 0., 0., 0., 0.,
          0., 0., 0., 4.54545468e-02, 3.03030312e-02, 0., 0.,
          1.51515156e-02, 0., 0., 0., 0., 0., 1.51515156e-02, 0., 0., 0.,
          0., 0., 0., 0., 0., 0., 3.03030312e-02, 0., 0., 0., 0., 0., 0.,
          0., 1.51515156e-02, 0., 0., 0., 0., 0., 0., 0., 1.51515156e-02,
          1.51515156e-02 ]
      - [ 0., 0., 0., 0., 3.22580636e-02, 0., 0., 0., 0., 0., 0., 0., 0.,
          3.22580636e-02, 0., 0., 0., 0., 0., 0., 0., 6.45161271e-02, 0.,
          0., 3.22580636e-02, 0., 0., 0., 3.22580636e-02, 3.22580636e-02,
          0., 3.22580636e-02, 0., 0., 0., 0., 3.22580636e-02, 0., 0., 0.,
          0., 0., 0., 0., 3.22580636e-02, 0., 3.22580636e-02, 0., 0., 0.,
          0., 3.22580636e-02, 0., 0., 0., 0., 6.45161271e-02, 0., 0., 0.,
          0., 0., 0., 3.22580636e-02, 0., 0., 0., 0., 0., 0., 0., 0., 0.,
          0., 0., 0., 0., 0., 0., 0., 0., 0., 0., 0., 0., 0., 0., 0., 0.,
          3.22580636e-02, 0., 0., 0., 0., 0., 0., 0., 0., 3.22580636e-02,
          0., 0., 0., 0., 0., 0., 0., 0., 0., 0., 0., 0., 0., 0.,
          3.22580636e-02, 0., 0., 0., 0., 0., 6.45161271e-02, 0., 0., 0.,
          6.45161271e-02, 0., 3.22580636e-02, 0., 0., 0., 0., 0., 0., 0.,
          0., 0., 0., 0., 0., 0., 0., 0., 0., 0., 0., 0., 0., 0., 0., 0.,
          0., 0., 0., 0., 0., 0., 0., 0., 0., 0., 0., 0., 0., 0.,
          3.22580636e-02, 0., 0., 0., 0., 0., 0., 0., 3.22580636e-02, 0.,
          0., 0., 3.22580636e-02, 0., 0., 0., 3.22580636e-02, 0.,
          3.22580636e-02, 3.22580636e-02, 0., 0., 6.45161271e-02 ]
      - [ 0., 0., 3.22580636e-02, 0., 0., 0., 0., 0., 0., 1.61290318e-02,
          0., 0., 1.61290318e-02, 1.61290318e-02, 0., 0., 0., 0., 0., 0.,
          3.22580636e-02, 3.22580636e-02, 0., 0., 0., 0., 0., 0.,
          6.45161271e-02, 0., 1.61290318e-02, 1.61290318e-02, 0., 0., 0.,
          0., 6.45161271e-02, 0., 0., 3.22580636e-02, 0., 0.,
          1.61290318e-02, 0., 0., 0., 0., 0., 0., 0., 0., 0., 0.,
          1.61290318e-02, 1.61290318e-02, 1.61290318e-02, 3.22580636e-02,
          0., 0., 0., 0., 0., 0., 0., 0., 0., 0., 0., 0., 0., 0., 0., 0.,
          0., 1.61290318e-02, 1.61290318e-02, 0., 4.83870953e-02,
          1.61290318e-02, 1.61290318e-02, 0., 0., 0., 0., 0., 0., 0., 0.,
          0., 1.61290318e-02, 4.83870953e-02, 0., 0., 0., 0., 0.,
          1.61290318e-02, 1.61290318e-02, 0., 3.22580636e-02, 0., 0., 0.,
          0., 0., 0., 1.61290318e-02, 1.61290318e-02, 0., 0.,
          4.83870953e-02, 0., 0., 0., 0., 0., 1.61290318e-02, 0., 0.,
          1.61290318e-02, 0., 0., 0., 0., 0., 0., 0., 0., 3.22580636e-02,
          0., 1.61290318e-02, 0., 0., 0., 0., 1.61290318e-02, 0., 0., 0.,
          1.61290318e-02, 0., 0., 0., 0., 0., 0., 1.61290318e-02, 0., 0.,
          1.61290318e-02, 0., 0., 0., 1.61290318e-02, 0., 0., 0.,
          1.61290318e-02, 1.61290318e-02, 0., 0., 0., 0., 0., 0., 0., 0.,
          0., 0., 0., 0., 0., 0., 0., 0., 0., 0., 1.61290318e-02,
          1.61290318e-02, 0., 0., 0., 0., 0., 0., 1.61290318e-02 ]
      - [ 0., 0., 0., 0., 6.66666701e-02, 0., 0., 0., 0., 0., 0., 0., 0.,
          0., 0., 0., 0., 0., 0., 0., 6.66666701e-02, 0., 0., 0.,
          6.66666701e-02, 0., 0., 0., 0., 0., 6.66666701e-02, 0., 0., 0.,
          0., 0., 0., 0., 0., 0., 0., 0., 0., 0., 0., 0., 0., 0., 0., 0.,
          0., 0., 0., 0., 0., 0., 0., 0., 0., 0., 0., 0., 0., 0., 0., 0.,
          0., 0., 0., 0., 0., 0., 0., 0., 0., 0., 0., 0., 6.66666701e-02,
          0., 0., 0., 0., 0., 0., 0., 0., 0., 0., 0., 0., 0., 0., 0., 0.,
          0., 0., 0., 0., 0., 0., 0., 0., 0., 0., 0., 0., 0., 0., 0., 0.,
          0., 6.66666701e-02, 0., 0., 0., 0., 0., 0., 0., 0., 0., 0., 0.,
          0., 6.66666701e-02, 0., 6.66666701e-02, 0., 0., 0., 0., 0., 0.,
          0., 0., 0., 0., 0., 0., 0., 0., 0., 0., 0., 0., 0., 0., 0., 0.,
          0., 0., 0., 0., 0., 0., 0., 0., 0., 0., 6.66666701e-02, 0., 0.,
          0., 0., 1.33333340e-01, 0., 6.66666701e-02, 0., 0., 0., 0., 0.,
          1.33333340e-01, 0., 0., 0., 0., 0., 0., 0., 0., 0.,
          6.66666701e-02, 0., 0. ]
      - [ 0., 0., 0., 2.94117648e-02, 0., 0., 0., 2.94117648e-02, 0., 0.,
          0., 0., 0., 2.94117648e-02, 0., 0., 0., 0., 0., 0., 0., 0., 0.,
          2.94117648e-02, 0., 0., 0., 0., 0., 0., 0., 0., 0.,
          2.94117648e-02, 0., 0., 2.94117648e-02, 0., 0., 0., 0., 0., 0.,
          5.88235296e-02, 0., 0., 0., 0., 0., 0., 2.94117648e-02, 0., 0.,
          0., 0., 0., 2.94117648e-02, 0., 0., 0., 0., 0., 0., 0., 0., 0.,
          0., 0., 0., 0., 0., 0., 0., 2.94117648e-02, 0., 0., 0., 0., 0.,
          0., 0., 2.94117648e-02, 0., 0., 2.94117648e-02, 0., 0.,
          2.94117648e-02, 0., 0., 2.94117648e-02, 0., 0., 0., 0.,
          2.94117648e-02, 0., 0., 0., 0., 0., 2.94117648e-02,
          2.94117648e-02, 0., 0., 0., 2.94117648e-02, 0., 0., 0., 0., 0.,
          0., 0., 0., 0., 8.82352963e-02, 0., 0., 0., 0., 0.,
          2.94117648e-02, 0., 0., 0., 0., 0., 0., 0., 0., 2.94117648e-02,
          0., 0., 2.94117648e-02, 0., 0., 0., 0., 2.94117648e-02, 0., 0.,
          0., 0., 0., 2.94117648e-02, 0., 0., 0., 2.94117648e-02, 0., 0.,
          2.94117648e-02, 2.94117648e-02, 0., 0., 0., 0., 0., 0., 0.,
          2.94117648e-02, 0., 0., 0., 2.94117648e-02, 0., 0., 0., 0., 0.,
          0., 0., 0., 0., 2.94117648e-02, 0., 0., 0., 0., 0., 0., 0., 0.,
          0., 2.94117648e-02 ]
      - [ 0., 0., 0., 0., 1.75438598e-02, 0., 1.75438598e-02, 0.,
          1.75438598e-02, 0., 0., 1.75438598e-02, 1.75438598e-02, 0.,
          1.75438598e-02, 0., 0., 0., 0., 0., 0., 1.75438598e-02, 0., 0.,
          0., 1.75438598e-02, 0., 0., 0., 1.75438598e-02, 0.,
          1.75438598e-02, 0., 1.75438598e-02, 0., 0., 0., 0., 0.,
          3.50877196e-02, 1.75438598e-02, 3.50877196e-02, 0., 0.,
          1.75438598e-02, 0., 0., 1.75438598e-02, 0., 0., 0., 0.,
          1.75438598e-02, 0., 0., 0., 1.75438598e-02, 0., 0., 0., 0., 0.,
          1.75438598e-02, 0., 0., 0., 0., 0., 0., 0., 1.75438598e-02, 0.,
          3.50877196e-02, 3.50877196e-02, 0., 0., 0., 0., 0., 0.,
          1.75438598e-02, 0., 0., 1.75438598e-02, 0., 0., 0., 0., 0., 0.,
          1.75438598e-02, 0., 0., 1.75438598e-02, 0., 0., 1.75438598e-02,
          0., 0., 0., 0., 1.75438598e-02, 0., 0., 0., 1.75438598e-02, 0.,
          5.26315793e-02, 0., 0., 0., 0., 0., 1.75438598e-02, 0., 0.,
          3.50877196e-02, 0., 5.26315793e-02, 0., 0., 0., 1.75438598e-02,
          0., 3.50877196e-02, 1.75438598e-02, 0., 0., 0., 0., 0.,
          1.75438598e-02, 0., 1.75438598e-02, 0., 0., 1.75438598e-02, 0.,
          0., 0., 0., 0., 0., 1.75438598e-02, 0., 1.75438598e-02, 0., 0.,
          0., 0., 0., 0., 0., 1.75438598e-02, 0., 0., 0., 0., 0., 0., 0.,
          0., 0., 0., 0., 1.75438598e-02, 0., 0., 1.75438598e-02, 0.,
          1.75438598e-02, 0., 1.75438598e-02, 0., 0., 0., 0., 0., 0., 0.,
          0., 0., 0., 0., 0., 1.75438598e-02 ]
      - [ 0., 0., 1.17647061e-02, 0., 0., 0., 2.35294122e-02,
          2.35294122e-02, 1.17647061e-02, 2.35294122e-02, 0., 0., 0.,
          2.35294122e-02, 1.17647061e-02, 0., 0., 0., 0., 0., 0., 0., 0.,
          0., 1.17647061e-02, 1.17647061e-02, 0., 0., 1.17647061e-02,
          1.17647061e-02, 0., 0., 0., 1.17647061e-02, 1.17647061e-02, 0.,
          0., 3.52941193e-02, 0., 0., 0., 0., 2.35294122e-02, 0., 0.,
          1.17647061e-02, 1.17647061e-02, 1.17647061e-02, 0., 0., 0., 0.,
          0., 0., 3.52941193e-02, 0., 0., 0., 0., 0., 0., 0., 0.,
          1.17647061e-02, 0., 2.35294122e-02, 0., 2.35294122e-02,
          1.17647061e-02, 0., 0., 0., 0., 0., 0., 1.17647061e-02, 0.,
          1.17647061e-02, 0., 0., 2.35294122e-02, 0., 1.17647061e-02, 0.,
          0., 0., 0., 0., 0., 0., 0., 1.17647061e-02, 1.17647061e-02, 0.,
          0., 0., 0., 3.52941193e-02, 0., 0., 0., 1.17647061e-02, 0., 0.,
          2.35294122e-02, 0., 0., 2.35294122e-02, 0., 0., 0.,
          1.17647061e-02, 0., 2.35294122e-02, 0., 0., 0., 2.35294122e-02,
          3.52941193e-02, 0., 1.17647061e-02, 1.17647061e-02, 0.,
          3.52941193e-02, 0., 0., 1.17647061e-02, 0., 0., 1.17647061e-02,
          1.17647061e-02, 0., 1.17647061e-02, 0., 0., 0., 1.17647061e-02,
          0., 0., 0., 0., 0., 0., 1.17647061e-02, 0., 2.35294122e-02,
          1.17647061e-02, 0., 0., 0., 1.17647061e-02, 1.17647061e-02, 0.,
          0., 0., 1.17647061e-02, 0., 0., 0., 0., 0., 1.17647061e-02, 0.,
          0., 0., 0., 2.35294122e-02, 2.35294122e-02, 0., 0., 0., 0.,
          1.17647061e-02, 0., 1.17647061e-02, 0., 0., 1.17647061e-02, 0.,
          0., 0., 0., 1.17647061e-02, 0., 1.17647061e-02, 1.17647061e-02 ]
      - [ 0., 0., 0., 0., 0., 0., 0., 0., 0., 0., 0., 9.09090936e-02, 0.,
          0., 0., 0., 0., 0., 0., 0., 0., 0., 9.09090936e-02, 0., 0., 0.,
          0., 0., 0., 0., 0., 0., 0., 0., 0., 0., 0., 0., 0., 0., 0., 0.,
          0., 0., 0., 0., 0., 0., 0., 0., 0., 0., 0., 0., 0., 0.,
          9.09090936e-02, 0., 0., 0., 0., 0., 9.09090936e-02, 0., 0., 0.,
          0., 0., 0., 0., 0., 0., 0., 0., 0., 0., 0., 0., 0., 0., 0.,
          9.09090936e-02, 0., 0., 0., 9.09090936e-02, 0., 0., 0., 0., 0.,
          0., 0., 0., 0., 0., 0., 0., 0., 0., 0., 0., 0., 0., 0., 0., 0.,
          0., 0., 0., 0., 0., 0., 9.09090936e-02, 0., 0., 9.09090936e-02,
          0., 0., 0., 0., 0., 0., 0., 0., 9.09090936e-02, 0., 0., 0., 0.,
          0., 0., 0., 0., 0., 0., 0., 0., 0., 0., 0., 0., 0., 0., 0., 0.,
          0., 0., 0., 0., 0., 0., 0., 0., 0., 0., 0., 0., 0., 0., 0., 0.,
          0., 0., 0., 0., 0., 0., 0., 0., 0., 0., 0., 0., 0., 0., 0., 0.,
          0., 0., 0., 0., 9.09090936e-02, 0., 0., 9.09090936e-02 ]
      - [ 0., 0., 0., 0., 3.22580636e-02, 0., 0., 0., 0., 0.,
          3.22580636e-02, 3.22580636e-02, 0., 0., 3.22580636e-02, 0., 0.,
          0., 0., 0., 0., 0., 0., 0., 0., 0., 0., 0., 0., 0., 0., 0., 0.,
          0., 0., 3.22580636e-02, 0., 0., 3.22580636e-02, 0., 0., 0., 0.,
          0., 3.22580636e-02, 6.45161271e-02, 0., 0., 0., 0., 0., 0., 0.,
          0., 0., 3.22580636e-02, 0., 0., 0., 0., 0., 0., 3.22580636e-02,
          0., 3.22580636e-02, 3.22580636e-02, 0., 0., 0., 0., 0., 0., 0.,
          3.22580636e-02, 0., 0., 0., 0., 0., 0., 0., 9.67741907e-02, 0.,
          0., 3.22580636e-02, 0., 0., 3.22580636e-02, 0., 0., 0., 0., 0.,
          0., 0., 0., 3.22580636e-02, 0., 0., 0., 0., 0., 0., 0., 0.,
          3.22580636e-02, 0., 0., 0., 0., 0., 0., 0., 0., 0., 0., 0., 0.,
          0., 0., 0., 0., 0., 0., 0., 0., 0., 0., 0., 0., 0., 0., 0., 0.,
          0., 0., 0., 0., 0., 0., 0., 3.22580636e-02, 0., 0., 0., 0., 0.,
          0., 0., 0., 0., 0., 0., 0., 3.22580636e-02, 0., 0., 0.,
          3.22580636e-02, 0., 0., 0., 0., 0., 0., 0., 0., 0.,
          3.22580636e-02, 0., 0., 9.67741907e-02, 0., 0., 3.22580636e-02,
          0., 0., 0., 0., 0., 0., 0., 0., 0., 6.45161271e-02, 0. ]
      - [ 0., 2.94117648e-02, 0., 0., 0., 0., 0., 0., 0., 0., 0., 0.,
          2.94117648e-02, 0., 0., 0., 0., 2.94117648e-02, 0., 0., 0., 0.,
          2.94117648e-02, 0., 0., 0., 0., 0., 0., 5.88235296e-02, 0., 0.,
          0., 0., 0., 2.94117648e-02, 0., 0., 0., 0., 0., 0., 0.,
          2.94117648e-02, 0., 0., 0., 0., 0., 0., 5.88235296e-02,
          5.88235296e-02, 0., 0., 0., 0., 0., 0., 0., 0., 0., 0., 0., 0.,
          0., 0., 0., 0., 0., 0., 0., 0., 0., 0., 0., 0., 0., 0., 0.,
          2.94117648e-02, 0., 0., 5.88235296e-02, 0., 0., 0., 0., 0., 0.,
          0., 0., 0., 2.94117648e-02, 0., 0., 0., 0., 0., 0., 0., 0., 0.,
          5.88235296e-02, 0., 0., 0., 0., 0., 2.94117648e-02, 0., 0.,
          5.88235296e-02, 0., 2.94117648e-02, 0., 0., 2.94117648e-02, 0.,
          0., 0., 0., 0., 5.88235296e-02, 0., 0., 0., 0., 0.,
          2.94117648e-02, 0., 0., 0., 0., 0., 0., 0., 0., 0.,
          2.94117648e-02, 0., 0., 0., 0., 0., 0., 0., 5.88235296e-02, 0.,
          0., 0., 0., 0., 0., 0., 0., 0., 0., 0., 0., 0., 0., 0., 0., 0.,
          0., 0., 8.82352963e-02, 0., 0., 0., 0., 0., 0., 0., 0.,
          2.94117648e-02, 0., 0., 0., 0., 0., 0., 2.94117648e-02, 0., 0.,
          0. ]
      - [ 0., 0., 8.33333358e-02, 0., 0., 0., 0., 0., 2.08333340e-02, 0.,
          0., 0., 2.08333340e-02, 0., 0., 0., 0., 0., 0., 0.,
          2.08333340e-02, 0., 2.08333340e-02, 0., 0., 0., 0., 0.,
          2.08333340e-02, 0., 0., 0., 0., 0., 0., 2.08333340e-02, 0.,
          2.08333340e-02, 0., 2.08333340e-02, 0., 0., 0., 0., 0.,
          2.08333340e-02, 0., 0., 0., 0., 2.08333340e-02, 0., 0., 0.,
          4.16666679e-02, 0., 0., 0., 0., 2.08333340e-02, 4.16666679e-02,
          0., 2.08333340e-02, 0., 2.08333340e-02, 0., 0., 2.08333340e-02,
          0., 0., 0., 0., 0., 0., 0., 0., 0., 0., 0., 2.08333340e-02,
          2.08333340e-02, 0., 0., 0., 0., 0., 0., 0., 0., 0., 0., 0., 0.,
          0., 0., 0., 0., 2.08333340e-02, 0., 4.16666679e-02, 0.,
          2.08333340e-02, 0., 0., 0., 2.08333340e-02, 0., 4.16666679e-02,
          0., 0., 4.16666679e-02, 0., 0., 8.33333358e-02, 0., 0.,
          2.08333340e-02, 0., 0., 0., 0., 0., 0., 0., 0., 0., 0., 0., 0.,
          0., 0., 0., 0., 0., 0., 0., 0., 2.08333340e-02, 0., 0., 0., 0.,
          0., 2.08333340e-02, 2.08333340e-02, 0., 0., 0., 0., 0., 0., 0.,
          0., 0., 0., 0., 0., 0., 2.08333340e-02, 0., 0., 0., 0., 0., 0.,
          2.08333340e-02, 0., 0., 0., 0., 0., 0., 0., 2.08333340e-02, 0.,
          0., 2.08333340e-02, 2.08333340e-02, 0., 0., 2.08333340e-02, 0.,
          0., 0., 0., 2.08333340e-02 ]
      - [ 0., 0., 0., 0., 0., 0., 0., 0., 0., 2.56410260e-02, 0., 0., 0.,
          0., 2.56410260e-02, 0., 5.12820520e-02, 0., 0., 0., 0., 0., 0.,
          0., 0., 0., 0., 0., 2.56410260e-02, 0., 0., 0., 0., 0., 0., 0.,
          0., 0., 0., 0., 2.56410260e-02, 0., 0., 0., 0., 0., 0., 0., 0.,
          0., 2.56410260e-02, 0., 0., 0., 0., 0., 5.12820520e-02, 0., 0.,
          0., 0., 2.56410260e-02, 2.56410260e-02, 0., 0., 0., 0., 0., 0.,
          0., 0., 0., 0., 0., 0., 0., 0., 2.56410260e-02, 0., 0., 0., 0.,
          0., 0., 5.12820520e-02, 0., 0., 0., 0., 0., 0., 0., 0., 0., 0.,
          0., 5.12820520e-02, 0., 0., 0., 0., 0., 0., 0., 0., 0., 0., 0.,
          0., 0., 0., 2.56410260e-02, 0., 2.56410260e-02, 0., 0., 0., 0.,
          0., 2.56410260e-02, 0., 0., 0., 0., 0., 7.69230798e-02, 0., 0.,
          0., 0., 0., 5.12820520e-02, 0., 2.56410260e-02, 0., 0., 0., 0.,
          5.12820520e-02, 0., 2.56410260e-02, 0., 0., 0., 2.56410260e-02,
          0., 0., 0., 0., 0., 0., 0., 2.56410260e-02, 0., 2.56410260e-02,
          0., 2.56410260e-02, 0., 0., 0., 0., 0., 0., 0., 0.,
          2.56410260e-02, 5.12820520e-02, 0., 0., 0., 0., 2.56410260e-02,
          0., 0., 0., 2.56410260e-02, 2.56410260e-02, 0., 0., 0., 0., 0.,
          0., 0., 0., 2.56410260e-02 ]
      - [ 1.20481923e-02, 0., 0., 0., 0., 1.20481923e-02, 2.40963846e-02,
          3.61445770e-02, 0., 0., 0., 0., 0., 0., 0., 0., 1.20481923e-02,
          0., 0., 0., 0., 1.20481923e-02, 1.20481923e-02, 0., 0.,
          1.20481923e-02, 0., 0., 0., 0., 1.20481923e-02, 1.20481923e-02,
          2.40963846e-02, 1.20481923e-02, 0., 0., 0., 1.20481923e-02, 0.,
          0., 0., 0., 0., 0., 1.20481923e-02, 0., 1.20481923e-02,
          1.20481923e-02, 0., 1.20481923e-02, 0., 1.20481923e-02, 0.,
          1.20481923e-02, 1.20481923e-02, 1.20481923e-02, 2.40963846e-02,
          1.20481923e-02, 2.40963846e-02, 0., 2.40963846e-02, 0., 0., 0.,
          1.20481923e-02, 0., 0., 0., 1.20481923e-02, 1.20481923e-02,
          1.20481923e-02, 0., 0., 2.40963846e-02, 0., 1.20481923e-02,
          1.20481923e-02, 0., 0., 1.20481923e-02, 0., 0., 0.,
          1.20481923e-02, 0., 0., 0., 0., 0., 0., 0., 0., 0.,
          1.20481923e-02, 0., 0., 0., 0., 0., 0., 0., 1.20481923e-02, 0.,
          0., 3.61445770e-02, 0., 0., 3.61445770e-02, 0., 1.20481923e-02,
          0., 1.20481923e-02, 0., 1.20481923e-02, 0., 0., 0., 0., 0.,
          1.20481923e-02, 2.40963846e-02, 0., 3.61445770e-02,
          1.20481923e-02, 1.20481923e-02, 1.20481923e-02, 0., 0., 0., 0.,
          0., 0., 0., 0., 1.20481923e-02, 1.20481923e-02, 1.20481923e-02,
          1.20481923e-02, 0., 1.20481923e-02, 0., 0., 0., 0., 0., 0., 0.,
          0., 0., 3.61445770e-02, 0., 0., 1.20481923e-02, 0., 0., 0.,
          1.20481923e-02, 1.20481923e-02, 0., 1.20481923e-02,
          1.20481923e-02, 0., 0., 0., 0., 0., 0., 0., 1.20481923e-02,
          1.20481923e-02, 2.40963846e-02, 0., 0., 0., 0., 0., 0.,
          1.20481923e-02, 0., 1.20481923e-02, 1.20481923e-02, 0., 0., 0.,
          1.20481923e-02, 0. ]
      - [ 2.85714287e-02, 0., 0., 0., 0., 2.85714287e-02, 0., 0.,
          2.85714287e-02, 0., 0., 0., 0., 0., 0., 0., 0., 0., 0., 0., 0.,
          0., 0., 0., 0., 2.85714287e-02, 0., 2.85714287e-02, 0., 0.,
          2.85714287e-02, 0., 0., 0., 0., 0., 0., 0., 0., 0., 0.,
          2.85714287e-02, 0., 0., 0., 2.85714287e-02, 0., 2.85714287e-02,
          0., 0., 8.57142881e-02, 0., 0., 0., 0., 0., 0., 0., 0., 0., 0.,
          0., 0., 2.85714287e-02, 0., 2.85714287e-02, 0., 0.,
          2.85714287e-02, 0., 0., 0., 0., 0., 0., 0., 0., 0., 0., 0., 0.,
          0., 0., 0., 0., 0., 0., 0., 0., 0., 2.85714287e-02, 0.,
          2.85714287e-02, 0., 2.85714287e-02, 0., 0., 2.85714287e-02, 0.,
          0., 2.85714287e-02, 0., 0., 0., 0., 0., 0., 0., 0., 0., 0., 0.,
          0., 2.85714287e-02, 0., 2.85714287e-02, 2.85714287e-02, 0., 0.,
          0., 0., 0., 0., 0., 0., 0., 0., 0., 0., 0., 0., 2.85714287e-02,
          0., 0., 0., 0., 2.85714287e-02, 2.85714287e-02, 2.85714287e-02,
          2.85714287e-02, 0., 0., 0., 0., 0., 0., 0., 0., 0.,
          2.85714287e-02, 0., 2.85714287e-02, 0., 2.85714287e-02, 0., 0.,
          2.85714287e-02, 0., 0., 2.85714287e-02, 0., 0., 0., 0., 0., 0.,
          0., 0., 0., 0., 0., 0., 0., 0., 0., 0., 0., 0., 0., 0., 0., 0.,
          5.71428575e-02, 0., 0., 0. ]
      - [ 0., 0., 0., 0., 0., 0., 0., 0., 0., 0., 0., 0., 0., 0., 0., 0.,
          0., 0., 0., 0., 0., 0., 0., 0., 0., 0., 0., 0., 0., 0., 0., 0.,
          0., 0., 0., 0., 0., 0., 0., 0., 0., 1.42857149e-01, 0., 0., 0.,
          0., 0., 0., 0., 0., 0., 0., 0., 0., 0., 0., 0., 0., 0., 0., 0.,
          0., 0., 0., 1.42857149e-01, 0., 0., 0., 0., 0., 0., 0., 0., 0.,
          0., 0., 0., 0., 0., 0., 0., 0., 0., 0., 0., 0., 0., 0., 0.,
          1.42857149e-01, 0., 0., 0., 0., 0., 0., 0., 0., 0., 0., 0., 0.,
          0., 0., 0., 0., 0., 0., 0., 0., 0., 0., 0., 0., 0., 0., 0., 0.,
          0., 0., 0., 0., 1.42857149e-01, 0., 0., 0., 0., 0.,
          2.85714298e-01, 0., 0., 0., 0., 0., 0., 0., 0., 0., 0., 0., 0.,
          0., 0., 0., 0., 0., 0., 0., 0., 0., 0., 0., 0., 0., 0., 0., 0.,
          0., 0., 0., 0., 0., 0., 0., 0., 0., 0., 0., 0., 0., 0., 0., 0.,
          0., 0., 0., 0., 0., 0., 0., 0., 0., 0., 0., 0., 1.42857149e-01 ]
      - [ 0., 0., 0., 0., 2.38095243e-02, 0., 2.38095243e-02, 0.,
          2.38095243e-02, 0., 0., 2.38095243e-02, 4.76190485e-02, 0.,
          2.38095243e-02, 0., 2.38095243e-02, 0., 0., 0., 0., 0.,
          2.38095243e-02, 2.38095243e-02, 0., 0., 0., 0., 0., 0., 0., 0.,
          2.38095243e-02, 0., 0., 0., 0., 0., 2.38095243e-02, 0., 0., 0.,
          0., 2.38095243e-02, 0., 2.38095243e-02, 0., 0., 0., 0., 0., 0.,
          0., 0., 7.14285746e-02, 0., 0., 2.38095243e-02, 2.38095243e-02,
          0., 0., 2.38095243e-02, 0., 0., 4.76190485e-02, 0., 0., 0., 0.,
          0., 0., 0., 0., 0., 0., 0., 0., 0., 0., 0., 0., 0., 0.,
          4.76190485e-02, 0., 0., 0., 2.38095243e-02, 2.38095243e-02, 0.,
          0., 0., 0., 2.38095243e-02, 0., 0., 0., 2.38095243e-02, 0., 0.,
          2.38095243e-02, 0., 0., 0., 0., 0., 0., 2.38095243e-02, 0., 0.,
          0., 0., 0., 0., 0., 0., 2.38095243e-02, 0., 2.38095243e-02,
          2.38095243e-02, 0., 0., 0., 0., 0., 2.38095243e-02, 0., 0., 0.,
          0., 0., 0., 0., 0., 0., 0., 0., 0., 0., 0., 0., 0., 0., 0.,
          2.38095243e-02, 0., 0., 0., 0., 0., 0., 0., 0., 0., 0., 0.,
          2.38095243e-02, 2.38095243e-02, 0., 0., 0., 0., 0., 0., 0., 0.,
          0., 0., 2.38095243e-02, 0., 0., 0., 0., 0., 0., 0., 0., 0., 0.,
          0., 2.38095243e-02, 2.38095243e-02, 0., 0., 2.38095243e-02,
          2.38095243e-02 ]
      - [ 0., 4.16666679e-02, 0., 0., 0., 0., 0., 0., 0., 0., 0.,
          4.16666679e-02, 0., 0., 0., 0., 4.16666679e-02, 0.,
          4.16666679e-02, 0., 0., 0., 0., 0., 0., 0., 0., 0.,
          8.33333358e-02, 0., 0., 0., 0., 0., 0., 0., 0., 0., 0., 0., 0.,
          0., 0., 0., 0., 4.16666679e-02, 0., 0., 0., 0., 0., 0., 0., 0.,
          0., 0., 4.16666679e-02, 0., 0., 0., 0., 0., 0., 0., 0., 0., 0.,
          0., 0., 0., 0., 0., 0., 0., 0., 0., 4.16666679e-02,
          4.16666679e-02, 0., 0., 0., 0., 0., 0., 0., 0., 0., 0., 0., 0.,
          0., 0., 4.16666679e-02, 0., 8.33333358e-02, 0., 0., 0., 0., 0.,
          4.16666679e-02, 0., 4.16666679e-02, 0., 0., 0., 0., 0., 0., 0.,
          0., 0., 0., 0., 0., 0., 0., 0., 0., 8.33333358e-02,
          4.16666679e-02, 0., 0., 0., 0., 0., 0., 0., 0., 0., 0., 0., 0.,
          0., 0., 0., 0., 0., 0., 0., 0., 0., 0., 0., 0., 0.,
          8.33333358e-02, 0., 0., 0., 0., 0., 0., 0., 0., 0., 0., 0., 0.,
          0., 0., 0., 0., 0., 0., 0., 0., 0., 0., 0., 0., 0., 0., 0., 0.,
          1.25000000e-01, 0., 0., 0., 0., 0., 0., 0., 0., 4.16666679e-02,
          0. ]
      - [ 0., 1.66666675e-02, 0., 0., 1.66666675e-02, 0., 0.,
          1.66666675e-02, 0., 0., 0., 0., 1.66666675e-02, 1.66666675e-02,
          0., 0., 0., 0., 0., 0., 0., 0., 0., 0., 1.66666675e-02, 0., 0.,
          0., 0., 1.66666675e-02, 0., 0., 0., 6.66666701e-02,
          3.33333351e-02, 0., 0., 0., 3.33333351e-02, 0., 0.,
          3.33333351e-02, 1.66666675e-02, 1.66666675e-02, 3.33333351e-02,
          0., 0., 0., 0., 0., 3.33333351e-02, 0., 0., 0., 0., 0., 0., 0.,
          0., 0., 0., 1.66666675e-02, 0., 0., 0., 0., 0., 0., 0., 0.,
          3.33333351e-02, 0., 0., 5.00000045e-02, 0., 1.66666675e-02, 0.,
          0., 1.66666675e-02, 1.66666675e-02, 0., 0., 0., 1.66666675e-02,
          0., 0., 0., 1.66666675e-02, 1.66666675e-02, 0., 0., 0.,
          3.33333351e-02, 0., 0., 0., 0., 0., 0., 0., 0., 1.66666675e-02,
          0., 0., 0., 0., 1.66666675e-02, 0., 0., 1.66666675e-02,
          1.66666675e-02, 1.66666675e-02, 0., 0., 1.66666675e-02, 0., 0.,
          0., 0., 0., 1.66666675e-02, 0., 0., 0., 0., 0., 0., 0., 0.,
          1.66666675e-02, 0., 1.66666675e-02, 3.33333351e-02, 0., 0., 0.,
          0., 0., 0., 0., 1.66666675e-02, 1.66666675e-02, 0., 0., 0., 0.,
          0., 0., 0., 1.66666675e-02, 0., 0., 0., 0., 5.00000045e-02, 0.,
          0., 0., 0., 0., 0., 0., 0., 0., 0., 1.66666675e-02, 0., 0., 0.,
          0., 0., 0., 0., 0., 0., 0., 1.66666675e-02, 0., 0., 0., 0., 0.,
          0., 1.66666675e-02, 1.66666675e-02, 3.33333351e-02 ]
      - [ 0., 0., 0., 0., 0., 2.70270277e-02, 0., 0., 0., 0., 0.,
          2.70270277e-02, 0., 0., 0., 0., 0., 0., 0., 0., 0., 0., 0., 0.,
          0., 0., 0., 0., 0., 0., 0., 0., 0., 0., 0., 0., 0., 0., 0., 0.,
          0., 0., 0., 0., 0., 2.70270277e-02, 0., 0., 0., 0.,
          2.70270277e-02, 0., 0., 0., 2.70270277e-02, 0., 0.,
          2.70270277e-02, 0., 2.70270277e-02, 0., 0., 0., 0., 0.,
          5.40540554e-02, 0., 0., 0., 0., 0., 0., 0., 5.40540554e-02, 0.,
          0., 0., 0., 0., 0., 0., 0., 2.70270277e-02, 0., 5.40540554e-02,
          0., 0., 0., 0., 0., 0., 0., 0., 0., 0., 0., 0., 0., 0., 0.,
          2.70270277e-02, 0., 0., 0., 5.40540554e-02, 0., 0.,
          2.70270277e-02, 0., 2.70270277e-02, 0., 2.70270277e-02, 0.,
          5.40540554e-02, 2.70270277e-02, 0., 2.70270277e-02, 0., 0., 0.,
          2.70270277e-02, 0., 0., 0., 0., 0., 0., 0., 0., 0., 0., 0., 0.,
          0., 0., 0., 0., 0., 0., 0., 0., 0., 0., 2.70270277e-02, 0., 0.,
          2.70270277e-02, 0., 2.70270277e-02, 0., 0., 2.70270277e-02, 0.,
          0., 0., 0., 2.70270277e-02, 0., 2.70270277e-02, 0., 0.,
          2.70270277e-02, 0., 0., 0., 2.70270277e-02, 0., 0., 0., 0., 0.,
          0., 0., 0., 0., 0., 0., 0., 0., 0., 0., 0., 5.40540554e-02,
          2.70270277e-02, 0., 2.70270277e-02 ]
      - [ 0., 0., 0., 0., 0., 6.66666701e-02, 0., 0., 0., 0., 0., 0., 0.,
          0., 0., 0., 0., 0., 0., 0., 0., 0., 0., 0., 6.66666701e-02, 0.,
          0., 0., 0., 6.66666701e-02, 0., 0., 6.66666701e-02,
          6.66666701e-02, 0., 0., 0., 0., 0., 0., 0., 0., 0., 0., 0., 0.,
          0., 0., 6.66666701e-02, 0., 0., 0., 0., 0., 0., 0.,
          6.66666701e-02, 0., 6.66666701e-02, 0., 0., 0., 0., 0., 0., 0.,
          0., 0., 0., 0., 0., 0., 0., 6.66666701e-02, 0., 0., 0., 0., 0.,
          0., 0., 0., 0., 0., 0., 6.66666701e-02, 0., 0., 0., 0., 0., 0.,
          0., 0., 0., 0., 0., 0., 0., 0., 6.66666701e-02, 0., 0., 0., 0.,
          0., 0., 0., 0., 0., 0., 0., 0., 0., 0., 1.33333340e-01,
          6.66666701e-02, 0., 0., 0., 0., 0., 0., 0., 0., 0., 0., 0., 0.,
          0., 0., 0., 0., 0., 6.66666701e-02, 0., 0., 0., 0., 0., 0., 0.,
          0., 0., 0., 0., 0., 0., 0., 0., 0., 0., 0., 0., 0., 0., 0., 0.,
          0., 0., 0., 0., 0., 0., 0., 0., 0., 0., 0., 0., 0., 0., 0., 0.,
          0., 0., 0., 0., 0., 0., 0., 0., 0., 0., 0., 0. ]
      - [ 0., 0., 3.33333351e-02, 3.33333351e-02, 0., 0., 0., 0., 0., 0.,
          0., 0., 0., 0., 0., 0., 0., 0., 0., 0., 0., 0., 0., 0., 0., 0.,
          0., 0., 0., 0., 0., 0., 0., 6.66666701e-02, 0., 3.33333351e-02,
          0., 0., 0., 0., 0., 3.33333351e-02, 0., 0., 0., 0.,
          3.33333351e-02, 0., 0., 3.33333351e-02, 6.66666701e-02, 0., 0.,
          0., 0., 0., 0., 0., 0., 0., 0., 0., 0., 0., 0., 0.,
          6.66666701e-02, 0., 0., 0., 3.33333351e-02, 0., 3.33333351e-02,
          0., 0., 0., 3.33333351e-02, 0., 0., 0., 0., 6.66666701e-02,
          3.33333351e-02, 0., 3.33333351e-02, 0., 0., 0., 0., 0., 0., 0.,
          0., 0., 0., 0., 0., 0., 0., 0., 0., 0., 0., 0., 0., 0., 0., 0.,
          3.33333351e-02, 3.33333351e-02, 0., 0., 0., 3.33333351e-02, 0.,
          0., 0., 0., 3.33333351e-02, 0., 0., 0., 0., 0., 0., 0., 0., 0.,
          3.33333351e-02, 0., 3.33333351e-02, 0., 0., 0., 0., 0., 0., 0.,
          0., 3.33333351e-02, 0., 0., 0., 0., 0., 0., 0., 0., 0., 0., 0.,
          0., 0., 0., 0., 0., 0., 0., 0., 3.33333351e-02, 0., 0., 0., 0.,
          0., 0., 0., 0., 0., 0., 0., 3.33333351e-02, 0., 0., 0., 0., 0.,
          0., 0., 0., 3.33333351e-02, 0., 0., 0., 0., 3.33333351e-02 ]
      - [ 0., 0., 0., 0., 2.32558139e-02, 0., 0., 0., 0., 4.65116277e-02,
          6.97674453e-02, 0., 0., 0., 0., 0., 0., 2.32558139e-02, 0., 0.,
          0., 0., 0., 2.32558139e-02, 0., 0., 0., 0., 0., 0., 0., 0., 0.,
          0., 2.32558139e-02, 2.32558139e-02, 0., 0., 0., 2.32558139e-02,
          2.32558139e-02, 0., 0., 0., 0., 0., 2.32558139e-02, 0., 0., 0.,
          0., 0., 0., 0., 0., 0., 0., 0., 0., 0., 0., 0., 0., 0., 0.,
          2.32558139e-02, 0., 0., 0., 0., 0., 0., 2.32558139e-02, 0.,
          2.32558139e-02, 0., 2.32558139e-02, 2.32558139e-02, 0., 0., 0.,
          0., 2.32558139e-02, 0., 0., 4.65116277e-02, 0., 0., 0.,
          2.32558139e-02, 0., 0., 0., 2.32558139e-02, 0., 0., 0., 0., 0.,
          2.32558139e-02, 0., 2.32558139e-02, 0., 0., 0., 0., 0., 0., 0.,
          0., 0., 0., 2.32558139e-02, 0., 2.32558139e-02, 2.32558139e-02,
          0., 0., 0., 2.32558139e-02, 0., 0., 0., 2.32558139e-02, 0.,
          2.32558139e-02, 2.32558139e-02, 4.65116277e-02, 0., 0., 0.,
          4.65116277e-02, 2.32558139e-02, 0., 0., 0., 4.65116277e-02, 0.,
          0., 0., 0., 2.32558139e-02, 0., 0., 0., 0., 0., 2.32558139e-02,
          2.32558139e-02, 0., 0., 0., 0., 0., 0., 0., 0., 0., 0., 0., 0.,
          0., 0., 0., 0., 0., 0., 0., 0., 0., 0., 0., 0., 0.,
          2.32558139e-02, 0., 0., 0., 0., 0., 0., 0., 0., 0., 0., 0. ]
      - [ 0., 1.16279069e-02, 1.16279069e-02, 0., 0., 0., 0.,
          1.16279069e-02, 0., 1.16279069e-02, 1.16279069e-02, 0., 0.,
          1.16279069e-02, 0., 0., 1.16279069e-02, 0., 0., 0., 0.,
          1.16279069e-02, 0., 3.48837227e-02, 1.16279069e-02, 0., 0.,
          1.16279069e-02, 0., 2.32558139e-02, 0., 1.16279069e-02, 0.,
          1.16279069e-02, 0., 1.16279069e-02, 2.32558139e-02, 0., 0., 0.,
          0., 2.32558139e-02, 1.16279069e-02, 1.16279069e-02, 0., 0., 0.,
          0., 0., 0., 1.16279069e-02, 0., 0., 0., 0., 0., 2.32558139e-02,
          0., 0., 0., 0., 0., 1.16279069e-02, 0., 1.16279069e-02,
          1.16279069e-02, 0., 0., 0., 0., 0., 1.16279069e-02, 0.,
          4.65116277e-02, 0., 0., 0., 0., 1.16279069e-02, 2.32558139e-02,
          0., 1.16279069e-02, 2.32558139e-02, 0., 1.16279069e-02, 0.,
          1.16279069e-02, 0., 0., 0., 0., 0., 1.16279069e-02,
          1.16279069e-02, 0., 3.48837227e-02, 0., 0., 0., 0., 0., 0., 0.,
          1.16279069e-02, 3.48837227e-02, 0., 0., 3.48837227e-02,
          1.16279069e-02, 0., 3.48837227e-02, 0., 1.16279069e-02, 0.,
          1.16279069e-02, 0., 0., 0., 0., 0., 1.16279069e-02, 0., 0.,
          1.16279069e-02, 0., 0., 1.16279069e-02, 0., 0., 0.,
          2.32558139e-02, 0., 0., 0., 1.16279069e-02, 0., 0.,
          2.32558139e-02, 1.16279069e-02, 0., 0., 0., 0., 0.,
          1.16279069e-02, 2.32558139e-02, 1.16279069e-02, 0., 0., 0., 0.,
          0., 0., 2.32558139e-02, 0., 0., 0., 0., 0., 0., 0., 0.,
          1.16279069e-02, 0., 0., 1.16279069e-02, 0., 0., 0.,
          1.16279069e-02, 1.16279069e-02, 0., 2.32558139e-02, 0.,
          1.16279069e-02, 0., 1.16279069e-02, 0., 0., 0., 1.16279069e-02,
          0., 0., 0., 0., 1.16279069e-02 ]
      - [ 0., 3.84615399e-02, 0., 0., 0., 0., 0., 0., 0., 0.,
          3.84615399e-02, 7.69230798e-02, 0., 3.84615399e-02, 0., 0., 0.,
          0., 0., 0., 0., 0., 0., 0., 0., 0., 0., 0., 0., 0., 0., 0., 0.,
          0., 0., 0., 0., 0., 0., 0., 0., 0., 0., 3.84615399e-02, 0., 0.,
          0., 0., 0., 0., 0., 0., 0., 0., 0., 0., 3.84615399e-02, 0., 0.,
          0., 0., 0., 7.69230798e-02, 0., 0., 0., 0., 0., 0., 0., 0., 0.,
          0., 0., 0., 0., 0., 0., 0., 3.84615399e-02, 0., 0.,
          1.15384623e-01, 0., 0., 0., 0., 0., 0., 3.84615399e-02, 0., 0.,
          0., 0., 0., 0., 0., 0., 0., 0., 0., 0., 0., 0., 3.84615399e-02,
          3.84615399e-02, 0., 0., 0., 0., 0., 3.84615399e-02, 0., 0., 0.,
          0., 0., 0., 0., 3.84615399e-02, 0., 0., 0., 0., 3.84615399e-02,
          0., 0., 0., 7.69230798e-02, 0., 0., 0., 3.84615399e-02, 0., 0.,
          0., 0., 0., 0., 0., 0., 0., 0., 0., 0., 0., 0., 0., 0., 0.,
          3.84615399e-02, 0., 0., 0., 0., 0., 0., 0., 0., 0., 0., 0., 0.,
          0., 0., 0., 0., 0., 0., 0., 0., 0., 0., 0., 0., 0., 0., 0., 0.,
          0., 3.84615399e-02, 3.84615399e-02, 0., 0., 0., 3.84615399e-02 ]
      - [ 0., 0., 1.13636367e-02, 1.13636367e-02, 2.27272734e-02, 0., 0.,
          1.13636367e-02, 0., 0., 0., 0., 0., 1.13636367e-02,
          3.40909101e-02, 1.13636367e-02, 0., 0., 0., 0., 1.13636367e-02,
          2.27272734e-02, 0., 1.13636367e-02, 1.13636367e-02, 0., 0., 0.,
          0., 0., 0., 1.13636367e-02, 1.13636367e-02, 0., 0., 0., 0.,
          2.27272734e-02, 0., 0., 0., 0., 0., 1.13636367e-02, 0., 0., 0.,
          0., 2.27272734e-02, 0., 1.13636367e-02, 1.13636367e-02, 0., 0.,
          0., 3.40909101e-02, 0., 1.13636367e-02, 2.27272734e-02, 0.,
          1.13636367e-02, 0., 2.27272734e-02, 0., 0., 1.13636367e-02, 0.,
          1.13636367e-02, 0., 0., 1.13636367e-02, 0., 0., 0., 0., 0.,
          1.13636367e-02, 1.13636367e-02, 0., 2.27272734e-02, 0., 0., 0.,
          0., 2.27272734e-02, 0., 0., 0., 0., 0., 0., 1.13636367e-02, 0.,
          0., 1.13636367e-02, 3.40909101e-02, 3.40909101e-02,
          1.13636367e-02, 0., 0., 0., 0., 1.13636367e-02, 0., 0., 0., 0.,
          1.13636367e-02, 1.13636367e-02, 0., 0., 0., 0., 0.,
          1.13636367e-02, 1.13636367e-02, 1.13636367e-02, 0.,
          1.13636367e-02, 0., 1.13636367e-02, 1.13636367e-02,
          1.13636367e-02, 0., 2.27272734e-02, 1.13636367e-02, 0., 0., 0.,
          0., 3.40909101e-02, 1.13636367e-02, 0., 0., 1.13636367e-02,
          1.13636367e-02, 0., 1.13636367e-02, 1.13636367e-02, 0., 0., 0.,
          0., 0., 0., 4.54545468e-02, 0., 0., 0., 1.13636367e-02, 0., 0.,
          2.27272734e-02, 0., 0., 2.27272734e-02, 0., 0., 0., 0., 0., 0.,
          0., 1.13636367e-02, 0., 0., 0., 0., 0., 0., 0., 0., 0.,
          2.27272734e-02, 0., 0., 0., 1.13636367e-02, 0., 1.13636367e-02,
          0., 0., 0., 0., 2.27272734e-02, 0. ]
      - [ 0., 0., 3.03030312e-02, 0., 0., 0., 0., 0., 0., 0., 0., 0., 0.,
          0., 0., 0., 0., 0., 0., 0., 3.03030312e-02, 0., 9.09090936e-02,
          0., 0., 0., 0., 0., 0., 0., 0., 0., 0., 0., 0., 0., 0.,
          9.09090936e-02, 0., 0., 0., 0., 0., 0., 0., 0., 1.21212125e-01,
          0., 0., 0., 0., 0., 0., 0., 0., 0., 0., 0., 0., 0., 0., 0., 0.,
          0., 0., 0., 0., 0., 0., 0., 0., 3.03030312e-02, 0., 0.,
          3.03030312e-02, 0., 0., 0., 0., 3.03030312e-02, 3.03030312e-02,
          0., 0., 0., 3.03030312e-02, 0., 3.03030312e-02, 0., 0., 0.,
          3.03030312e-02, 3.03030312e-02, 0., 0., 3.03030312e-02, 0., 0.,
          3.03030312e-02, 0., 0., 3.03030312e-02, 0., 0., 0., 0., 0., 0.,
          0., 0., 3.03030312e-02, 0., 0., 0., 0., 0., 3.03030312e-02, 0.,
          0., 0., 0., 0., 0., 0., 0., 3.03030312e-02, 0., 0., 0., 0., 0.,
          3.03030312e-02, 0., 0., 0., 0., 0., 0., 0., 0., 3.03030312e-02,
          0., 0., 0., 0., 3.03030312e-02, 0., 0., 0., 0., 0., 0., 0., 0.,
          0., 0., 0., 0., 0., 0., 3.03030312e-02, 3.03030312e-02, 0., 0.,
          0., 0., 6.06060624e-02, 0., 0., 0., 0., 0., 0., 0., 0., 0., 0.,
          0., 0., 0., 0., 0., 0., 0., 0., 0., 0. ]
      - [ 0., 0., 0., 0., 0., 0., 0., 0., 0., 0., 0., 0., 2.85714298e-01,
          0., 0., 0., 0., 0., 0., 0., 0., 0., 0., 0., 0., 0., 0., 0., 0.,
          0., 0., 0., 0., 0., 0., 0., 0., 0., 0., 0., 0., 0., 0., 0., 0.,
          0., 0., 0., 0., 0., 0., 0., 0., 0., 0., 0., 0., 1.42857149e-01,
          0., 0., 0., 0., 0., 0., 1.42857149e-01, 0., 0., 0., 0., 0., 0.,
          0., 0., 0., 0., 0., 0., 0., 0., 0., 0., 2.85714298e-01, 0., 0.,
          0., 0., 0., 0., 0., 0., 0., 0., 0., 0., 0., 0., 0., 0., 0., 0.,
          0., 0., 0., 0., 0., 0., 0., 0., 0., 0., 0., 0., 0., 0., 0., 0.,
          0., 0., 0., 0., 0., 0., 0., 0., 0., 0., 0., 0., 0., 0., 0., 0.,
          0., 0., 0., 0., 0., 0., 0., 0., 0., 0., 0., 0., 0., 0., 0., 0.,
          0., 0., 0., 0., 0., 0., 0., 0., 0., 0., 0., 0., 0., 0., 0., 0.,
          0., 0., 0., 0., 0., 0., 0., 0., 0., 0., 0., 0., 0., 0., 0., 0.,
          0., 0., 0., 0., 0., 1.42857149e-01 ]
      - [ 0., 3.33333343e-01, 0., 0., 0., 0., 0., 0., 0., 0., 0., 0., 0.,
          0., 0., 0., 0., 0., 0., 0., 0., 0., 0., 0., 0., 0., 0., 0., 0.,
          0., 0., 0., 0., 0., 0., 0., 0., 0., 0., 0., 0., 0., 0., 0., 0.,
          0., 0., 0., 0., 0., 0., 0., 0., 0., 0., 0., 0., 0., 0., 0., 0.,
          0., 3.33333343e-01, 0., 0., 0., 0., 0., 0., 0., 0., 0., 0., 0.,
          0., 0., 0., 0., 0., 0., 0., 0., 0., 0., 0., 0., 0., 0., 0., 0.,
          0., 0., 0., 0., 0., 0., 0., 0., 0., 0., 0., 0., 0., 0., 0., 0.,
          3.33333343e-01, 0., 0., 0., 0., 0., 0., 0., 0., 0., 0., 0., 0.,
          0., 0., 0., 0., 0., 0., 0., 0., 0., 0., 0., 0., 0., 0., 0., 0.,
          0., 0., 0., 0., 0., 0., 0., 0., 0., 0., 0., 0., 0., 0., 0., 0.,
          0., 0., 0., 0., 0., 0., 0., 0., 0., 0., 0., 0., 0., 0., 0., 0.,
          0., 0., 0., 0., 0., 0., 0., 0., 0., 0., 0., 0., 0., 0., 0., 0.,
          0., 0., 0. ]
      - [ 0., 0., 0., 1.14942528e-02, 1.14942528e-02, 0., 0., 0., 0.,
          1.14942528e-02, 1.14942528e-02, 0., 2.29885057e-02,
          1.14942528e-02, 0., 2.29885057e-02, 1.14942528e-02,
          1.14942528e-02, 1.14942528e-02, 0., 1.14942528e-02,
          1.14942528e-02, 0., 1.14942528e-02, 0., 1.14942528e-02, 0., 0.,
          3.44827585e-02, 0., 0., 0., 0., 0., 0., 0., 0., 1.14942528e-02,
          2.29885057e-02, 0., 0., 2.29885057e-02, 0., 2.29885057e-02, 0.,
          0., 0., 0., 0., 1.14942528e-02, 0., 0., 0., 0., 0.,
          1.14942528e-02, 1.14942528e-02, 0., 0., 0., 0., 0.,
          3.44827585e-02, 2.29885057e-02, 1.14942528e-02, 0., 0., 0., 0.,
          0., 0., 0., 1.14942528e-02, 0., 0., 0., 1.14942528e-02, 0., 0.,
          0., 0., 0., 0., 0., 0., 1.14942528e-02, 1.14942528e-02, 0.,
          1.14942528e-02, 1.14942528e-02, 1.14942528e-02, 1.14942528e-02,
          1.14942528e-02, 1.14942528e-02, 0., 0., 0., 0., 3.44827585e-02,
          1.14942528e-02, 0., 0., 0., 0., 0., 1.14942528e-02, 0.,
          1.14942528e-02, 0., 0., 2.29885057e-02, 0., 0., 3.44827585e-02,
          0., 0., 0., 0., 0., 0., 0., 0., 0., 1.14942528e-02,
          1.14942528e-02, 0., 0., 1.14942528e-02, 0., 0., 1.14942528e-02,
          0., 1.14942528e-02, 0., 2.29885057e-02, 1.14942528e-02, 0., 0.,
          0., 2.29885057e-02, 0., 1.14942528e-02, 0., 3.44827585e-02, 0.,
          0., 1.14942528e-02, 0., 0., 0., 0., 0., 0., 0., 0., 0., 0.,
          3.44827585e-02, 0., 0., 0., 0., 0., 0., 0., 0., 1.14942528e-02,
          2.29885057e-02, 0., 1.14942528e-02, 2.29885057e-02, 0., 0., 0.,
          1.14942528e-02, 1.14942528e-02, 3.44827585e-02, 1.14942528e-02,
          0., 1.14942528e-02, 0., 0., 0., 0., 0., 0. ]
      - [ 0., 0., 0., 0., 0., 0., 0., 0., 0., 0., 0., 0., 0., 0.,
          2.43902430e-02, 0., 0., 0., 0., 0., 0., 2.43902430e-02, 0., 0.,
          0., 0., 0., 0., 0., 0., 0., 2.43902430e-02, 0., 2.43902430e-02,
          0., 4.87804860e-02, 2.43902430e-02, 0., 0., 0., 0., 0., 0.,
          2.43902430e-02, 2.43902430e-02, 2.43902430e-02, 0., 0., 0., 0.,
          0., 0., 0., 0., 0., 0., 0., 0., 0., 0., 0., 2.43902430e-02, 0.,
          0., 2.43902430e-02, 0., 0., 0., 0., 0., 0., 0., 0., 0., 0.,
          2.43902430e-02, 0., 0., 4.87804860e-02, 0., 0., 0.,
          2.43902430e-02, 0., 2.43902430e-02, 2.43902430e-02,
          2.43902430e-02, 2.43902430e-02, 0., 0., 0., 0., 0., 0., 0.,
          4.87804860e-02, 2.43902430e-02, 0., 4.87804860e-02, 0., 0., 0.,
          7.31707290e-02, 0., 0., 0., 0., 0., 0., 0., 0., 2.43902430e-02,
          0., 0., 2.43902430e-02, 0., 0., 0., 0., 2.43902430e-02,
          2.43902430e-02, 2.43902430e-02, 0., 0., 0., 0., 0., 0., 0., 0.,
          0., 0., 0., 0., 2.43902430e-02, 0., 0., 0., 0., 0., 0., 0., 0.,
          0., 0., 0., 0., 0., 2.43902430e-02, 2.43902430e-02,
          2.43902430e-02, 0., 2.43902430e-02, 0., 0., 0., 0., 0., 0., 0.,
          0., 2.43902430e-02, 0., 0., 0., 0., 0., 0., 0., 0., 0., 0., 0.,
          0., 0., 2.43902430e-02, 0., 0., 0., 0., 0., 0., 0.,
          2.43902430e-02, 0., 0. ]
      - [ 0., 4.54545468e-02, 0., 0., 4.54545468e-02, 0., 0.,
          4.54545468e-02, 0., 0., 0., 4.54545468e-02, 0., 0., 0., 0.,
          9.09090936e-02, 0., 0., 0., 0., 0., 0., 9.09090936e-02, 0., 0.,
          0., 0., 0., 0., 4.54545468e-02, 0., 0., 0., 0., 0., 0., 0., 0.,
          0., 0., 0., 0., 0., 0., 0., 0., 0., 0., 0., 0., 0., 0., 0., 0.,
          0., 0., 0., 0., 0., 0., 0., 0., 0., 0., 0., 0., 0., 0., 0., 0.,
          0., 0., 0., 0., 0., 0., 0., 0., 4.54545468e-02, 0., 0., 0., 0.,
          0., 0., 0., 0., 0., 0., 0., 4.54545468e-02, 0., 0., 0., 0., 0.,
          0., 0., 0., 0., 0., 0., 0., 0., 0., 0., 0., 0., 0., 0., 0., 0.,
          4.54545468e-02, 0., 0., 0., 0., 0., 0., 0., 0., 0.,
          4.54545468e-02, 0., 0., 0., 0., 0., 0., 0., 0., 0., 0., 0., 0.,
          0., 0., 9.09090936e-02, 0., 4.54545468e-02, 0., 0., 0., 0., 0.,
          0., 0., 0., 0., 0., 0., 0., 0., 4.54545468e-02, 0., 0., 0., 0.,
          0., 0., 0., 0., 4.54545468e-02, 0., 0., 0., 0., 0., 0., 0.,
          4.54545468e-02, 0., 4.54545468e-02, 0., 0., 0., 0., 0.,
          9.09090936e-02, 0., 0., 0., 0., 0., 0. ]
      - [ 0., 0., 0., 0., 0., 0., 0., 0., 0., 0., 0., 0., 0., 0., 0., 0.,
          0., 0., 0., 0., 0., 0., 0., 0., 0., 0., 0., 0., 0., 0., 0., 0.,
          0., 0., 0., 0., 0., 0., 0., 0., 0., 0., 0., 0., 0.,
          2.50000000e-01, 0., 0., 0., 0., 2.50000000e-01, 0., 0., 0., 0.,
          0., 0., 0., 0., 0., 0., 0., 0., 0., 0., 0., 0., 0., 0., 0., 0.,
          0., 0., 0., 0., 0., 0., 0., 0., 0., 0., 0., 0., 0., 0., 0., 0.,
          0., 0., 0., 0., 0., 0., 0., 0., 0., 0., 0., 0., 0., 0., 0., 0.,
          0., 0., 0., 0., 0., 0., 0., 0., 0., 0., 0., 0., 0.,
          2.50000000e-01, 0., 0., 0., 0., 0., 0., 0., 0., 0., 0., 0., 0.,
          0., 0., 0., 0., 0., 0., 0., 0., 0., 0., 0., 0., 0., 0., 0., 0.,
          0., 0., 0., 0., 0., 0., 0., 0., 0., 0., 0., 0., 0., 0., 0., 0.,
          0., 0., 0., 0., 0., 0., 0., 0., 0., 0., 0., 0., 0., 0., 0., 0.,
          0., 0., 0., 0., 0., 0., 0., 0., 2.50000000e-01 ]
      - [ 0., 6.25000000e-02, 0., 0., 0., 6.25000000e-02, 3.12500000e-02,
          0., 0., 0., 0., 0., 3.12500000e-02, 0., 0., 0., 0., 0., 0., 0.,
          0., 0., 0., 0., 0., 3.12500000e-02, 0., 0., 0., 0., 0., 0., 0.,
          3.12500000e-02, 3.12500000e-02, 0., 0., 0., 0., 0., 0., 0.,
          3.12500000e-02, 0., 0., 0., 3.12500000e-02, 0., 0., 0., 0.,
          3.12500000e-02, 0., 0., 0., 0., 3.12500000e-02, 0., 0., 0., 0.,
          0., 3.12500000e-02, 3.12500000e-02, 0., 0., 0., 0., 0., 0., 0.,
          0., 3.12500000e-02, 0., 0., 0., 0., 0., 0., 0., 0.,
          3.12500000e-02, 0., 3.12500000e-02, 3.12500000e-02, 0., 0., 0.,
          0., 0., 3.12500000e-02, 0., 0., 0., 0., 0., 0., 0., 0.,
          3.12500000e-02, 0., 0., 0., 3.12500000e-02, 0., 0., 0.,
          3.12500000e-02, 0., 0., 0., 0., 0., 0., 3.12500000e-02, 0., 0.,
          0., 0., 0., 0., 0., 0., 0., 0., 0., 0., 0., 3.12500000e-02, 0.,
          0., 0., 0., 0., 0., 0., 0., 3.12500000e-02, 0., 0., 0., 0.,
          3.12500000e-02, 3.12500000e-02, 3.12500000e-02, 0., 0., 0., 0.,
          0., 0., 0., 0., 0., 0., 0., 0., 0., 0., 0., 0., 0., 0., 0., 0.,
          0., 0., 0., 0., 0., 0., 3.12500000e-02, 0., 0., 0., 0., 0., 0.,
          3.12500000e-02, 0., 0., 0., 3.12500000e-02, 0., 0., 0. ]
      - [ 0., 0., 0., 0., 0., 0., 0., 0., 0., 0., 0., 0., 0., 0., 0., 0.,
          0., 0., 0., 0., 0., 5.26315793e-02, 5.26315793e-02,
          5.26315793e-02, 0., 0., 0., 0., 0., 0., 0., 0., 0.,
          5.26315793e-02, 0., 0., 0., 0., 0., 0., 0., 0., 0., 0., 0., 0.,
          0., 0., 0., 0., 5.26315793e-02, 0., 0., 0., 0., 0., 0., 0., 0.,
          0., 0., 0., 0., 0., 0., 0., 0., 0., 0., 0., 0., 0., 0.,
          5.26315793e-02, 0., 0., 0., 0., 0., 0., 0., 0., 0., 0.,
          5.26315793e-02, 0., 0., 0., 0., 0., 0., 0., 0., 0., 0., 0., 0.,
          0., 0., 0., 0., 0., 0., 0., 0., 0., 0., 5.26315793e-02, 0., 0.,
          0., 5.26315793e-02, 5.26315793e-02, 0., 5.26315793e-02, 0., 0.,
          0., 0., 0., 0., 0., 0., 0., 5.26315793e-02, 5.26315793e-02, 0.,
          0., 0., 0., 0., 0., 0., 0., 1.05263159e-01, 0., 0., 0.,
          5.26315793e-02, 0., 0., 0., 0., 0., 0., 0., 0., 0., 0., 0., 0.,
          0., 0., 0., 0., 0., 0., 0., 0., 0., 0., 0., 0., 0., 0., 0., 0.,
          5.26315793e-02, 0., 0., 0., 0., 5.26315793e-02, 0., 0., 0., 0.,
          0., 0., 0., 5.26315793e-02, 0., 0., 0., 0., 0. ]
      - [ 0., 0., 0., 0., 4.76190522e-02, 0., 0., 0., 0., 0., 0., 0.,
          1.58730168e-02, 1.58730168e-02, 0., 0., 1.58730168e-02, 0., 0.,
          0., 0., 0., 0., 6.34920672e-02, 1.58730168e-02, 0., 0., 0., 0.,
          1.58730168e-02, 0., 0., 0., 1.58730168e-02, 0., 0.,
          1.58730168e-02, 0., 0., 0., 0., 1.58730168e-02, 1.58730168e-02,
          0., 1.58730168e-02, 1.58730168e-02, 3.17460336e-02,
          3.17460336e-02, 1.58730168e-02, 0., 0., 0., 0., 0., 0., 0., 0.,
          0., 1.58730168e-02, 0., 0., 0., 1.58730168e-02, 0., 0., 0., 0.,
          1.58730168e-02, 0., 0., 0., 1.58730168e-02, 0., 0., 0., 0.,
          1.58730168e-02, 0., 0., 0., 0., 0., 0., 0., 1.58730168e-02, 0.,
          0., 1.58730168e-02, 0., 0., 0., 0., 1.58730168e-02, 0.,
          1.58730168e-02, 0., 0., 0., 0., 0., 0., 1.58730168e-02, 0., 0.,
          0., 0., 0., 1.58730168e-02, 0., 3.17460336e-02, 1.58730168e-02,
          3.17460336e-02, 0., 1.58730168e-02, 0., 0., 0., 1.58730168e-02,
          0., 0., 3.17460336e-02, 1.58730168e-02, 1.58730168e-02, 0., 0.,
          1.58730168e-02, 1.58730168e-02, 0., 0., 0., 3.17460336e-02, 0.,
          0., 0., 0., 1.58730168e-02, 0., 0., 0., 0., 0., 3.17460336e-02,
          0., 0., 0., 0., 1.58730168e-02, 0., 0., 0., 1.58730168e-02, 0.,
          0., 0., 1.58730168e-02, 0., 0., 0., 0., 0., 0., 0., 0., 0., 0.,
          0., 0., 0., 0., 0., 1.58730168e-02, 0., 0., 0., 0., 0., 0., 0.,
