Language model created by QuickLM on Fri Mar  7 01:34:18 EST 2014
Copyright (c) 1996-2010 Carnegie Mellon University and Alexander I. Rudnicky

The model is in standard ARPA format, designed by Doug Paul while he was at MITRE.

The code that was used to produce this language model is available in Open Source.
Please visit http://www.speech.cs.cmu.edu/tools/ for more information

The (fixed) discount mass is 0.5. The backoffs are computed using the ratio method.
This model based on a corpus of 4 sentences and 8 words

\data\
ngram 1=8
ngram 2=10
ngram 3=7

\1-grams:
-0.8751 </s> -0.3010
-0.8751 <s> -0.2389
-1.4771 DEVON -0.2389
-1.4771 FOLLOW -0.2711
-1.1761 ME -0.2389
-1.4771 OK -0.2863
-1.4771 REMEMBER -0.2711
-1.4771 TALOS -0.2389

\2-grams:
-0.9031 <s> DEVON 0.0000
-0.9031 <s> FOLLOW 0.0000
-0.9031 <s> OK 0.0000
-0.9031 <s> REMEMBER 0.0000
-0.3010 DEVON </s> -0.3010
-0.3010 FOLLOW ME 0.0000
-0.3010 ME </s> -0.3010
-0.3010 OK TALOS 0.0000
-0.3010 REMEMBER ME 0.0000
-0.3010 TALOS </s> -0.3010

\3-grams:
-0.3010 <s> DEVON </s>
-0.3010 <s> FOLLOW ME
-0.3010 <s> OK TALOS
-0.3010 <s> REMEMBER ME
-0.3010 FOLLOW ME </s>
-0.3010 OK TALOS </s>
-0.3010 REMEMBER ME </s>

\end\
