Language model created by QuickLM on Sun Feb  9 17:32:05 EST 2014
Copyright (c) 1996-2010 Carnegie Mellon University and Alexander I. Rudnicky

The model is in standard ARPA format, designed by Doug Paul while he was at MITRE.

The code that was used to produce this language model is available in Open Source.
Please visit http://www.speech.cs.cmu.edu/tools/ for more information

The (fixed) discount mass is 0.5. The backoffs are computed using the ratio method.
This model based on a corpus of 3 sentences and 6 words

\data\
ngram 1=6
ngram 2=7
ngram 3=4

\1-grams:
-0.8239 </s> -0.3010
-0.8239 <s> -0.2304
-1.3010 BACK -0.2304
-1.3010 FOLLOW -0.2788
-1.3010 ME -0.2304
-1.3010 STOP -0.2304

\2-grams:
-0.7782 <s> BACK 0.0000
-0.7782 <s> FOLLOW 0.0000
-0.7782 <s> STOP 0.0000
-0.3010 BACK </s> -0.3010
-0.3010 FOLLOW ME 0.0000
-0.3010 ME </s> -0.3010
-0.3010 STOP </s> -0.3010

\3-grams:
-0.3010 <s> BACK </s>
-0.3010 <s> FOLLOW ME
-0.3010 <s> STOP </s>
-0.3010 FOLLOW ME </s>

\end\
